,0
0,0.330894768
1,-0.110427655
2,0.152134389
3,-0.0141505832
4,-0.110114209
5,0.0643780008
6,-0.331351608
7,-3.2416312e-05
8,-0.0866694152
9,-0.243289545
10,-0.0318899713
11,-0.0865260959
12,0.0868888572
13,0.0349683464
14,0.350539565
15,-0.0979707837
16,-0.0860239118
17,0.0707573816
18,0.221509531
19,-0.0325236097
20,0.0935018882
21,0.0115607278
22,-0.0069650216
23,-0.101802953
24,-0.227781937
25,0.148052946
26,-0.0724975988
27,0.0341647714
28,0.338782221
29,-0.0634312034
30,0.0776032209
31,-0.207375959
32,-0.12202806
33,0.0157199409
34,0.0600569956
35,-0.156111583
36,-0.37758705
37,0.0375599861
38,0.188925177
39,0.034226276
40,-0.297316462
41,-0.220466271
42,-0.179857984
43,0.044312086
44,-0.00671669748
45,-0.117287055
46,0.188878566
47,-0.123829372
48,0.268245697
49,0.0451526456
50,-0.0390087254
51,0.044106748
52,0.0712400377
53,0.0226446167
54,0.0799404308
55,0.0147116547
56,-0.0873291492
57,0.202367589
58,0.205726564
59,0.000922936597
60,0.00383489183
61,0.0237816684
62,-0.0268267673
63,-0.093232654
64,-0.0244291797
65,-0.269909978
66,-0.0817646384
67,-0.133107543
68,-0.221577898
69,-0.200865239
70,-0.0107366778
71,0.263879478
72,0.0825692192
73,-0.234877601
74,-0.391623169
75,0.270956069
76,-0.33956635
77,0.0990512669
78,-0.168515652
79,0.162261546
80,0.057302881
81,0.021157641
82,-0.182015076
83,-0.0986716375
84,0.150624618
85,-0.213099122
86,0.0768803284
87,0.194133297
88,0.219930634
89,-0.516472757
90,0.1502451
91,0.260711104
92,-0.107746698
93,0.0346583463
94,0.0232200809
95,-0.135715872
96,0.395434797
97,-0.210701466
98,-0.00708826398
99,0.0939090326
100,0.145202458
101,0.0743668824
102,-0.0844765976
103,0.118531212
104,0.271499515
105,0.0508497581
106,0.15331313
107,-0.253221601
108,-0.0956610218
109,0.355072528
110,-0.186983272
111,0.100654185
112,0.0681534111
113,0.156118497
114,-0.123232722
115,-0.125350177
116,0.0224199146
117,-0.413690686
118,0.0517796911
119,0.238932759
120,-0.0536320768
121,0.169182494
122,0.290419757
123,0.156619534
124,-0.0561507829
125,0.264244974
126,-0.0853319094
127,-0.219011202
128,0.158428147
129,0.226544023
130,-0.212903231
131,-0.140441209
132,-0.0678042024
133,-0.10506615
134,0.241482288
135,-0.111567818
136,-0.261158288
137,-0.364694864
138,-0.0289271679
139,0.0861199647
140,-0.14151822
141,-0.164185598
142,0.192849159
143,-0.100889876
144,-0.119819663
145,-0.18087247
146,0.0155053958
147,0.48493278
148,-0.0330148675
149,-0.118578926
150,-0.15779911
151,-0.240415767
152,0.0393581204
153,0.130165994
154,-0.0626169443
155,-0.277869761
156,0.0804645121
157,-0.433533281
158,0.0445367992
159,0.0851983353
160,-0.121508218
161,-0.295272022
162,-0.0262689032
163,-0.3401227
164,-0.119518779
165,0.0711267218
166,-0.137028098
167,-0.306339264
168,0.0850510299
169,-0.261712015
170,0.295321226
171,0.14276728
172,-0.0660262555
173,0.12725623
174,-0.0744046047
175,-0.0582448132
176,-0.0631773695
177,0.303772867
178,-0.469022632
179,0.192535803
180,-0.204174221
181,0.0632702336
182,0.195323795
183,-0.258497059
184,-0.181471676
185,-0.0520899072
186,0.0935113952
187,-0.0590333119
188,0.245080039
189,0.134737641
190,0.0810820013
191,0.131498441
192,-0.39754957
193,0.296977013
194,-0.158869758
195,-0.0752957538
196,-0.10847874
197,-0.368276536
198,0.169928223
199,0.600500643
200,-0.0614913739
201,-0.491585851
202,-0.201353967
203,-0.0948382542
204,-0.102542162
205,0.170696527
206,-0.078565307
207,-0.167184412
208,-0.00439887773
209,-0.0161677059
210,-0.0386013389
211,-0.033499606
212,-0.103191935
213,-0.139902636
214,-0.279680401
215,-0.0284558125
216,0.253137141
217,0.116746947
218,-0.357531011
219,-0.0371171869
220,-0.192831635
221,-0.0202340726
222,0.627799332
223,0.0685696453
224,0.0220753737
225,0.0396025702
226,0.0312012732
227,0.219140187
228,-0.0702586323
229,-0.0908406153
230,0.154167935
231,0.00514878519
232,-0.135376826
233,0.220184922
234,0.28609544
235,-0.0799599662
236,-0.177949816
237,0.0160072818
238,0.0936320797
239,0.0763028115
240,0.360500336
241,0.0692485198
242,0.0456957705
243,-0.0506876633
244,-0.260486364
245,0.144672498
246,-0.188972056
247,-0.00609319145
248,0.189914897
249,-0.190287024
250,-0.00540047884
251,-0.295658529
252,-0.0255022869
253,-0.161253422
254,0.0355747305
255,0.0354334265
256,-0.256329834
257,0.0529675372
258,-0.0966124535
259,0.0579962656
260,-0.226327538
261,-0.208821625
262,-0.15015921
263,0.0312995017
264,0.0425127223
265,-0.0148613025
266,-0.00241196039
267,-0.181220457
268,-0.0837032944
269,-0.158095315
270,-0.184913367
271,0.0266613942
272,-0.270995349
273,-0.38876456
274,0.069174923
275,-0.0379220545
276,0.14885217
277,-0.111840405
278,0.0465765335
279,0.0792483836
280,-0.0296269432
281,0.113370046
282,-0.391537607
283,-0.22916764
284,0.119110428
285,-0.116189621
286,0.0504987091
287,0.333786458
288,-0.37533325
289,0.00571927242
290,-0.268514365
291,0.0474553965
292,-0.25303477
293,-0.00529066706
294,0.206438005
295,0.130443916
296,-0.00696824305
297,0.0399355479
298,-0.505834818
299,0.00862836931
300,0.188077778
301,-0.180742607
302,-0.10166245
303,0.0176130589
304,-0.0785263553
305,-0.264032811
306,0.151916936
307,-0.300787508
308,-0.0806635097
309,-0.162278786
310,-0.292789876
311,0.116876297
312,0.0315104835
313,0.0622502491
314,-0.413208634
315,0.10415069
316,-0.00165948365
317,0.215418845
318,-0.0856493562
319,0.303929031
320,-0.091685541
321,-0.0656932294
322,-0.0699638128
323,-0.0736515149
324,-0.101968519
325,-0.216038257
326,0.114371568
327,-0.171424091
328,-0.00746442657
329,0.350758046
330,0.0396431424
331,-0.144277498
332,0.0850796327
333,-0.312011033
334,-0.107221887
335,0.271631062
336,-0.00966405496
337,-0.0463892892
338,-0.0600765608
339,0.262456298
340,0.0405690297
341,0.297249973
342,0.147512108
343,0.150195554
344,-0.398264706
345,-0.0222891811
346,0.0171886403
347,-0.204798684
348,-0.0390708633
349,-0.0454680584
350,0.20371896
351,-0.360253692
352,-0.144921631
353,0.0468092561
354,0.0259946752
355,0.132045031
356,-0.263552159
357,0.0857692137
358,-0.0482974276
359,-0.132644996
360,-0.146463484
361,0.138868243
362,0.0465098284
363,0.014432746
364,-0.0667025894
365,0.0659879148
366,0.137547433
367,-0.113632068
368,-0.244236007
369,0.0230721012
370,0.068220973
371,-0.13943623
372,-0.108251654
373,-0.0206943452
374,-0.198427185
375,-0.264648348
376,-0.407088131
377,-0.0484796502
378,0.0611106344
379,-0.157521889
380,-0.0313724801
381,-0.140342563
382,-0.107400209
383,0.183220938
384,-0.120081007
385,0.0927863866
386,0.115217775
387,0.00152576843
388,-0.103492834
389,-0.0337306485
390,0.226231441
391,-0.00868703239
392,-0.0773919523
393,-0.0246394165
394,-0.0883014202
395,0.0699363351
396,-0.0770130828
397,-0.216646805
398,-0.0521470159
399,0.155051276
400,-0.0134744802
401,-0.161711574
402,0.259834647
403,-0.251079053
404,0.0437678024
405,0.0640467703
406,-0.0817684531
407,-0.113585196
408,-0.00615775492
409,0.0391157269
410,-0.391458124
411,0.012836786
412,0.329797953
413,0.150294751
414,-0.219884872
415,0.56466496
416,-0.162751913
417,-0.122097857
418,-0.0685053244
419,-0.0177538861
420,-0.301085442
421,0.323291987
422,0.0116400719
423,0.205528155
424,-0.0138324946
425,0.0115048001
426,0.0797646195
427,-0.0539184101
428,0.0740431547
429,-0.0509640239
430,-0.069893606
431,-0.263776481
432,0.139897197
433,0.133152023
434,0.0273044799
435,-0.0453762189
436,0.309587568
437,-0.146039322
438,-0.160525382
439,0.107194386
440,0.110965893
441,0.0211718064
442,0.0363550223
443,-0.0865201578
444,0.26404354
445,0.162909493
446,0.159747928
447,-0.15877229
448,-0.080154337
449,0.177358344
450,0.048794087
451,0.222895354
452,0.0923160613
453,0.0421729609
454,0.350034624
455,-0.121445909
456,-0.211045817
457,-0.393204331
458,-0.0247743484
459,-0.0247575454
460,-0.0522258542
461,-0.0814553276
462,0.107462659
463,-0.265690476
464,-0.196558133
465,0.288228065
466,-0.0424220152
467,-0.218996406
468,0.040468093
469,-0.0364946984
470,0.27478689
471,0.24341692
472,0.273548216
473,-0.019055089
474,0.184141904
475,0.0229337215
476,0.0954317153
477,-0.089734368
478,0.107366771
479,-0.164575785
480,0.46082142
481,0.38082388
482,0.219183996
483,0.319352657
484,-0.183415085
485,0.189083129
486,-0.127770752
487,0.276653886
488,-0.057710547
489,0.366189986
490,0.462204725
491,-0.407293171
492,0.236714274
493,-0.0550623387
494,0.149025947
495,-0.153542057
496,-0.0788073018
497,0.255729258
498,0.0337895565
499,-0.0400006697
500,-0.103540242
501,-0.107603393
502,0.0139442421
503,-0.124816135
504,-0.0220118519
505,0.131933093
506,-0.214832082
507,-0.446074486
508,0.0700886399
509,0.230101064
510,0.108509384
511,-0.231615454
512,0.0517985374
513,0.0792701244
514,-0.268772483
515,0.147183433
516,-0.486700445
517,0.145565942
518,0.150062501
519,0.0494590066
520,0.161738008
521,-0.229487583
522,-0.0873501226
523,-0.00389856473
524,0.152198672
525,0.18892096
526,-0.13278529
527,-0.165011719
528,0.0483966619
529,0.27292791
530,0.00108429161
531,0.133886352
532,0.189537749
533,-0.0415441953
534,0.0575251505
535,0.124416076
536,-0.0653410777
537,-0.0988303572
538,0.0436147526
539,0.199874163
540,-0.0162963737
541,-0.0835118294
542,0.0500857346
543,0.123732746
544,-0.0816978291
545,0.0786441639
546,0.199885502
547,-0.299103975
548,0.174760684
549,0.0289499778
550,0.276729286
551,-0.163140237
552,0.0370558165
553,0.0425550565
554,0.19077915
555,-0.100734077
556,0.0432796292
557,-0.00773077086
558,0.204793856
559,-0.0285990145
560,-0.00293133082
561,-0.309433907
562,0.183880866
563,0.229602471
564,0.0151532106
565,-0.00461237691
566,0.0457537472
567,0.116677701
568,0.082934007
569,-0.275893688
570,0.116115391
571,-0.0494742841
572,-0.025806129
573,0.244923458
574,0.41682595
575,0.0294308905
576,-0.112445369
577,0.0542226695
578,-0.0247259606
579,0.0489183255
580,0.02905792
581,-0.107966281
582,0.0407158583
583,-0.116859198
584,-0.180696025
585,-0.282432556
586,0.380151957
587,-0.0304247644
588,-0.0776073113
589,0.29355514
590,-0.0429163836
591,0.119323522
592,0.0898682997
593,0.0289848614
594,-0.37108475
595,-0.00461499253
596,0.0121710123
597,-0.033942949
598,-0.0593078956
599,0.190438792
600,-0.237771377
601,0.00421575271
602,0.0228628963
603,0.0911156535
604,-0.0758611709
605,-0.234263495
606,-0.0929885134
607,-0.107163951
608,-0.243069947
609,0.00483242283
610,-0.0662117079
611,-0.260915637
612,0.0414751135
613,0.0995994434
614,-0.0783426538
615,0.0420534089
616,0.00438647624
617,0.0322152749
618,-0.0620462261
619,0.0127218254
620,-0.0903112665
621,-0.138188154
622,-0.197974086
623,-0.27122727
624,0.0590724424
625,0.342896819
626,-0.0683404058
627,-0.284739316
628,0.0954249799
629,0.211487934
630,0.0582276918
631,-0.0114444541
632,-0.053282667
633,0.0720503256
634,-0.135048747
635,-0.0243719034
636,0.0572498217
637,-0.252841085
638,-0.369875759
639,-0.059260454
640,0.174943045
641,0.183913141
642,0.126928225
643,-0.225414112
644,-0.0311163813
645,-0.0837355852
646,-0.222976133
647,-0.0357907042
648,-0.0994528085
649,-0.352794409
650,0.168254435
651,-0.125670835
652,0.0545731224
653,0.047969237
654,0.256379694
655,-0.224981874
656,-0.351031095
657,0.230742961
658,0.287290931
659,-0.158550844
660,0.0722728446
661,0.0297982693
662,0.252477884
663,-0.0421881117
664,-0.0869846568
665,-0.0347227491
666,-0.00841151923
667,0.0191627238
668,0.010134533
669,-0.238127545
670,0.0469509065
671,0.11131499
672,0.0811593756
673,0.0815343931
674,-0.0354753025
675,0.0526721366
676,-0.506709874
677,-0.0429350138
678,-0.0534087755
679,0.158536494
680,0.387301624
681,0.255586267
682,0.037276689
683,0.152194455
684,-0.124302633
685,-0.169858724
686,-0.0706988275
687,-0.0895707086
688,-0.0656742156
689,-0.35782817
690,-0.0331520624
691,-0.034196496
692,0.179861233
693,-0.345636934
694,0.0766010657
695,0.0896665454
696,0.0275277402
697,0.0704001188
698,-0.0976018012
699,0.0254138764
700,0.222832382
701,-0.00643719686
702,-0.0568371937
703,0.432567894
704,0.199434966
705,0.0839745328
706,0.271490008
707,-0.310213715
708,-0.0975285172
709,0.0430021919
710,0.232788041
711,0.169358283
712,0.0697639138
713,-0.346352249
714,0.269438386
715,0.0461346656
716,0.121908635
717,-0.0679673031
718,-0.0950748995
719,-0.0265953038
720,0.0893419385
721,-0.0834372863
722,-0.179222554
723,-0.136266693
724,0.153321207
725,0.266604125
726,-0.339651972
727,0.0878299624
728,0.0865141675
729,0.311954319
730,0.0780971646
731,-0.258699566
732,-0.108550824
733,0.337924659
734,0.304051638
735,-0.0378929712
736,0.0715218857
737,-0.282769918
738,-0.103354409
739,-0.278677046
740,-0.195883512
741,0.0903275311
742,-0.522635043
743,-0.169060439
744,-0.170588195
745,0.117047697
746,0.137838587
747,0.115110189
748,0.0400659293
749,0.0232439116
750,0.0487489104
751,-0.235266253
752,-0.0817537084
753,0.150448397
754,0.0434171148
755,-0.224185318
756,-0.0570181757
757,-0.162681997
758,-0.25690484
759,-0.0738418549
760,-0.104685955
761,-0.0396431088
762,0.0056750807
763,-0.044255428
764,-0.0124572227
765,0.175275788
766,-0.252687126
767,0.0218313765
768,-0.511013329
769,-0.0893919468
770,-0.254595041
771,-0.0746695995
772,-0.588760555
773,0.0793090686
774,0.129312441
775,-0.295454592
776,-0.115024939
777,0.565014362
778,-0.131788209
779,-0.119018607
780,0.0309963264
781,0.245205611
782,-0.445681214
783,0.194867522
784,-0.251179039
785,-0.243745118
786,-0.0831872225
787,0.10124559
788,-0.0710697696
789,-0.109003864
790,0.152519971
791,-0.229355767
792,-0.140287429
793,-0.180178106
794,0.0625584871
795,0.243957475
796,0.117179856
797,0.339836448
798,-0.199390993
799,-0.175771743
800,0.235127226
801,0.0995615646
802,0.198934719
803,0.0988771692
804,-0.36569196
805,-0.0784870759
806,0.257481188
807,-0.292546272
808,0.0286666714
809,-0.487419963
810,0.238876522
811,-0.0820145831
812,0.219758242
813,-0.133970425
814,0.140354589
815,0.0579855256
816,0.472158849
817,0.00757909007
818,0.00160295074
819,0.0177840069
820,-0.163094267
821,0.104307331
822,0.0543620475
823,-0.129014775
824,-0.122475967
825,0.113442227
826,0.230351761
827,-0.042792622
828,0.325006932
829,-0.321116269
830,0.0660291687
831,-0.185248688
832,-0.314971805
833,-0.0291633494
834,-0.109040126
835,-0.0992391631
836,0.25377053
837,0.27437669
838,-0.0839992464
839,0.0197950602
840,-0.0702824667
841,0.192826375
842,0.102093756
843,-0.012742701
844,0.333661407
845,0.115421981
846,-0.190046057
847,-0.14462626
848,-0.0314182527
849,0.0259581748
850,0.0223927684
851,0.0972845033
852,-0.20193845
853,0.123646833
854,-0.146981582
855,-0.101354554
856,-0.138848782
857,0.0486681201
858,-0.217984781
859,0.168831199
860,-0.128804877
861,0.0569093712
862,0.259106666
863,-0.428398103
864,0.0260248128
865,-0.00161158852
866,0.0237396155
867,-0.17331776
868,-0.0824068263
869,0.00872113742
870,-0.445411772
871,0.0622926727
872,0.0197027251
873,0.0671324879
874,-0.268717557
875,0.179934934
876,-0.370305181
877,-0.152914256
878,-0.111167043
879,0.101787068
880,-0.152521461
881,-0.12949121
882,0.00862551946
883,0.126138791
884,-0.10139624
885,-0.392683029
886,0.342788428
887,-0.0813272968
888,0.0245486312
889,0.273090512
890,0.0992191434
891,0.429068387
892,0.0201679189
893,0.184612527
894,-0.0378277227
895,-0.254549265
896,0.0311676487
897,-0.109584183
898,0.0512017049
899,0.0455024131
900,-0.241332978
901,0.0100378785
902,0.185562328
903,-0.060645666
904,-0.340499997
905,0.0258879215
906,0.122387998
907,-0.173475564
908,0.0358171687
909,0.107397258
910,-0.049873095
911,-0.0866571143
912,0.323341221
913,0.166092262
914,0.193152249
915,0.307055056
916,-0.148643956
917,0.031746991
918,-0.0276930276
919,0.0522129163
920,0.0589183681
921,0.0817562342
922,-0.131935462
923,0.343096793
924,-0.0729461983
925,-0.218842149
926,0.0131182885
927,-0.251060992
928,-0.0185059309
929,-0.0909875482
930,0.0158290174
931,0.217958838
932,0.0278655048
933,-0.219192058
934,0.168865919
935,0.168344647
936,-0.0559918992
937,-0.140593722
938,-0.103965439
939,-0.0832036734
940,0.132428095
941,0.0433696881
942,0.0263683088
943,-0.122531913
944,0.313004762
945,0.176463872
946,-0.101821378
947,-0.134519607
948,-0.0190634523
949,0.28469193
950,0.0397284776
951,0.0858131722
952,0.036336679
953,-0.0547227636
954,0.126914144
955,-0.114394419
956,-0.125481725
957,-0.383805394
958,0.193821907
959,-0.179855287
960,-0.0935887247
961,-0.110560089
962,0.0702344254
963,0.127160504
964,-0.390743107
965,-0.0854841545
966,0.0279596355
967,0.00803041086
968,0.406292945
969,-0.331659198
970,-0.269675553
971,0.421361536
972,-0.129486084
973,0.0317520238
974,0.0925447568
975,0.0231726244
976,-0.180579424
977,-0.130380839
978,-0.0559869483
979,0.0963874906
980,0.156090215
981,-0.162875652
982,0.288494945
983,0.247107565
984,0.0363825634
985,-0.0970135704
986,0.135118499
987,0.191285476
988,0.0881779417
989,0.0979195833
990,-0.0400136709
991,0.311351478
992,-0.0522048026
993,-0.0439211652
994,0.353052318
995,-0.336863399
996,0.0568336807
997,0.168383047
998,0.0734477937
999,-0.162697554
1000,0.0816647857
1001,-0.000721963355
1002,0.194140017
1003,-0.100040808
1004,-0.0215278231
1005,0.122139521
1006,-0.179228693
1007,-0.116725847
1008,-0.305711716
1009,2.88124647e-05
1010,0.0614181943
1011,0.319204986
1012,-0.0272365678
1013,-0.128347188
1014,-0.161411375
1015,0.0473411232
1016,0.189628676
1017,0.212185338
1018,-0.185562
1019,0.136041939
1020,0.0473676436
1021,0.0400036871
1022,-0.142841563
1023,0.189753741
1024,-0.404722244
1025,-0.0407225676
1026,-0.0259306096
1027,0.0152689768
1028,-0.168523118
1029,-0.0739559084
1030,-0.154800177
1031,0.202945694
1032,0.190807477
1033,-0.256723821
1034,0.0768360272
1035,0.116801515
1036,0.0911737606
1037,-0.25971055
1038,-0.0457470715
1039,0.117744669
1040,-0.165967673
1041,-0.087399736
1042,0.0401945114
1043,-0.0755643845
1044,0.0644637495
1045,-0.262429476
1046,-0.0372209325
1047,0.312627673
1048,0.189637169
1049,0.167652905
1050,0.120109215
1051,0.0443384238
1052,0.237695336
1053,0.082520552
1054,-0.135825559
1055,0.310310066
1056,-0.176828757
1057,0.343134731
1058,0.242342219
1059,0.0567223057
1060,-0.0337013043
1061,0.0648217127
1062,0.109841116
1063,0.447529584
1064,0.0396375023
1065,-0.00291405828
1066,0.215012372
1067,0.102304898
1068,-0.347524703
1069,0.102825642
1070,-0.138550073
1071,-0.0252686683
1072,-0.0141741531
1073,-0.16222024
1074,0.163807422
1075,-0.0294428822
1076,-0.0635214224
1077,-0.0528936163
1078,-0.0620310679
1079,-0.0685795918
1080,0.0958659574
1081,0.126800954
1082,0.0377646722
1083,-0.124102175
1084,-0.0538780838
1085,-0.0730490163
1086,0.155097634
1087,0.0421713889
1088,0.170731619
1089,0.298285455
1090,-0.0399063416
1091,-0.36751157
1092,0.0431398116
1093,0.23151949
1094,-0.190220326
1095,-0.0262246858
1096,0.174098015
1097,0.0119986208
1098,-0.0796359256
1099,-0.0157830436
1100,-0.023736041
1101,0.111737669
1102,-0.0234593656
1103,-0.0704726502
1104,-0.0293854177
1105,0.0245510321
1106,-0.107952885
1107,-0.00565688405
1108,0.18725051
1109,0.198310092
1110,0.15929547
1111,0.295786619
1112,-0.398515344
1113,0.130007982
1114,0.100758955
1115,0.0155185834
1116,0.231892571
1117,-0.0789074227
1118,0.370929301
1119,-0.0984974876
1120,-0.0129381111
1121,0.327023655
1122,0.0336503945
1123,0.110887013
1124,-0.214846998
1125,0.0795415714
1126,-9.81876801e-05
1127,0.125519738
1128,0.305054367
1129,0.329622418
1130,0.206077993
1131,-0.0266980901
1132,0.0946565941
1133,-0.0456236117
1134,-0.297595352
1135,0.240790889
1136,-0.00603076257
1137,-0.116954565
1138,0.00966259744
1139,-0.2648606
1140,0.0412566103
1141,-0.243509248
1142,0.0397860222
1143,0.15348874
1144,-0.1198752
1145,-0.0170487519
1146,-0.0751879588
1147,0.0878950655
1148,0.22693634
1149,0.0941801593
1150,-0.233510405
1151,-0.0622383952
1152,-0.0436049178
1153,0.133883864
1154,-0.188459486
1155,0.390892953
1156,-0.16303812
1157,0.147940964
1158,0.0012467826
1159,0.00766120106
1160,-0.279971033
1161,-0.52208966
1162,0.0783157796
1163,-0.155077025
1164,0.217779621
1165,-0.0482593589
1166,0.0706069916
1167,-0.255038053
1168,0.0848519951
1169,0.576219559
1170,-0.148330674
1171,-0.129765481
1172,0.0738547519
1173,0.00612016115
1174,0.0280591249
1175,-0.0434435047
1176,-0.00819965079
1177,-0.125093848
1178,0.222054183
1179,-0.13550958
1180,0.124024607
1181,0.0314802378
1182,0.0674450323
1183,-0.299902886
1184,-0.0994680524
1185,-0.0893269926
1186,0.150442585
1187,-0.226636425
1188,0.0142713021
1189,0.097798422
1190,0.0162777659
1191,-0.115073934
1192,-0.045564808
1193,0.191957921
1194,-0.016295908
1195,0.0294976477
1196,-0.119546674
1197,0.0751396045
1198,-0.0471321307
1199,0.0233549159
1200,0.150679111
1201,0.0474687628
1202,0.0299939699
1203,0.563566804
1204,0.2112858
1205,-0.167834699
1206,0.24015291
1207,-0.249225497
1208,0.166036293
1209,-0.223509431
1210,0.198640496
1211,-0.256265163
1212,-0.244051531
1213,-0.0402569026
1214,0.167213172
1215,0.170300245
1216,0.0251508225
1217,0.184664696
1218,0.195793569
1219,0.0223582014
1220,0.123745188
1221,-0.0273384452
1222,-0.0384225324
1223,-0.184412673
1224,-0.0456502028
1225,-0.0859819874
1226,0.139827162
1227,0.145848647
1228,0.0568775535
1229,-0.0369506031
1230,0.100473881
1231,-0.436592847
1232,0.0857173651
1233,-0.182972729
1234,0.0555458218
1235,0.369297594
1236,-0.158394054
1237,-0.12455567
1238,0.195754871
1239,-0.302404284
1240,0.0266776681
1241,-0.101156652
1242,-0.204140797
1243,-0.0407606885
1244,0.631302774
1245,-0.144811928
1246,0.207260907
1247,0.136336356
1248,0.0960455164
1249,0.180289388
1250,0.0573203862
1251,0.203175157
1252,-0.0154046742
1253,-0.0734084398
1254,0.024955973
1255,0.036758475
1256,-0.549485207
1257,-0.213842496
1258,-0.149201497
1259,-0.411620885
1260,-0.220926449
1261,-0.117362149
1262,-0.0830892324
1263,-0.238549635
1264,0.0338991396
1265,0.403793067
1266,-0.130269557
1267,0.163076773
1268,-0.0941506997
1269,0.132073253
1270,0.0379534811
1271,0.030583661
1272,-0.418350607
1273,0.0191766676
1274,0.306551903
1275,0.104101866
1276,0.0713281184
1277,-0.0749474987
1278,-0.14558737
1279,-0.275250524
1280,-0.0437042862
1281,-0.0594868287
1282,0.0502018668
1283,0.00419415999
1284,-0.0681810901
1285,-0.0916417688
1286,-0.0444843844
1287,0.146631822
1288,-0.0572012737
1289,-0.36438188
1290,-0.0294607095
1291,0.0299695805
1292,0.0284885187
1293,0.0699330047
1294,-0.0936258435
1295,0.173459232
1296,-0.195171982
1297,-0.307751149
1298,-0.00493405294
1299,0.0284915697
1300,0.247804195
1301,0.139353365
1302,0.115102865
1303,0.0630967692
1304,0.132167816
1305,-0.134034395
1306,-0.0933397785
1307,0.299073309
1308,-0.126687363
1309,-0.00378329074
1310,0.129144832
1311,-0.13715075
1312,0.0550039969
1313,-0.122818679
1314,0.0552888662
1315,0.141291916
1316,-0.239486456
1317,0.446553439
1318,0.249956667
1319,0.0914922729
1320,-0.00929690525
1321,0.0667199343
1322,0.283159941
1323,0.0772022381
1324,-0.0345894136
1325,0.24272044
1326,0.229298919
1327,0.111103766
1328,0.186443746
1329,0.284420043
1330,-0.114222988
1331,0.0980211571
1332,-0.178902671
1333,0.0946660563
1334,-0.063287273
1335,-0.0728003383
1336,-0.165203348
1337,0.112008281
1338,-0.040119037
1339,-0.442526132
1340,-0.0338526033
1341,-0.125995383
1342,0.230608404
1343,0.11993333
1344,0.0582408682
1345,0.102743864
1346,0.28755331
1347,-0.0150787504
1348,-0.321222752
1349,-0.00349876913
1350,-0.234585762
1351,-0.128795534
1352,0.0209415536
1353,-0.169193909
1354,0.0427786261
1355,-0.0137318252
1356,-0.0290394332
1357,0.100903101
1358,0.0453017242
1359,-0.269525081
1360,0.0750636309
1361,0.0476507656
1362,-0.124659441
1363,0.151292577
1364,0.27111879
1365,0.184371337
1366,0.04498557
1367,-0.130511731
1368,0.0533509515
1369,-0.0315852985
1370,-0.0254286639
1371,0.0143654617
1372,0.490675986
1373,0.125171587
1374,-0.136735067
1375,-0.0377291515
1376,0.234815866
1377,-0.124415137
1378,0.0649698302
1379,0.0888758302
1380,-0.0983743295
1381,0.36305666
1382,0.150968805
1383,0.316213876
1384,-0.00684088841
1385,-0.173998863
1386,-0.0241168588
1387,0.0458377823
1388,-0.11117664
1389,-0.152937546
1390,-0.0157698821
1391,-0.245316118
1392,-0.0565767512
1393,-0.147232249
1394,-0.241412044
1395,-0.191336423
1396,0.128611922
1397,-0.161051616
1398,-0.70564723
1399,-0.0681418404
1400,0.0171697699
1401,-0.28385824
1402,-0.0562005192
1403,0.264495701
1404,-0.177903026
1405,0.460111797
1406,0.0360986628
1407,0.19102937
1408,-0.101463608
1409,-0.203809008
1410,0.222451404
1411,0.0599789396
1412,-0.235396743
1413,0.0163709782
1414,0.0760058835
1415,0.214374259
1416,0.14765954
1417,0.117509007
1418,-0.356268108
1419,0.241055146
1420,-0.179565549
1421,-0.0802384764
1422,-0.1946183
1423,-0.0131303202
1424,0.206362471
1425,0.123031408
1426,-0.0814660192
1427,0.0533208176
1428,-0.0384320058
1429,0.0134161832
1430,0.0691171959
1431,0.017266266
1432,-0.0730665252
1433,-0.0880992338
1434,-0.027957676
1435,0.129041225
1436,-0.12889424
1437,0.146719143
1438,0.0661808401
1439,-0.245934978
1440,-0.0825176314
1441,-0.232075945
1442,0.0864656121
1443,-0.0366503783
1444,0.0539256968
1445,0.0341200829
1446,0.171495825
1447,0.00408032304
1448,-0.0428004786
1449,0.0599591769
1450,0.0903728455
1451,0.0851984173
1452,-0.208266705
1453,0.276366651
1454,-0.126546696
1455,-0.252978265
1456,-0.142568335
1457,0.306440353
1458,0.133623213
1459,0.00282662548
1460,-0.0496411957
1461,-0.0990418121
1462,-0.165725768
1463,0.0780580267
1464,0.160512373
1465,0.100085743
1466,0.0341362022
1467,0.212041542
1468,0.0467882454
1469,-0.103075586
1470,-0.104508102
1471,-0.044498343
1472,-0.263170481
1473,0.286685318
1474,-0.330609262
1475,0.0262680296
1476,-0.540496945
1477,0.043928884
1478,-0.232486904
1479,-0.0723881423
1480,-0.151536256
1481,-0.272146463
1482,-0.3060579
1483,-0.351739377
1484,-0.306458622
1485,0.0222288426
1486,-0.388872057
1487,-0.0337387063
1488,0.359137446
1489,0.529027522
1490,0.0511505976
1491,-0.0595320612
1492,-0.0819551498
1493,0.13485828
1494,0.0540360659
1495,0.137562141
1496,0.040553432
1497,-0.0502383448
1498,0.21404019
1499,0.219597861
1500,0.165638581
1501,0.290137619
1502,0.0669133663
1503,-0.754545987
1504,-0.196676642
1505,-0.231286451
1506,0.0974265262
1507,-0.0574276522
1508,-0.138561532
1509,0.0253231581
1510,-0.185259193
1511,-0.0594079643
1512,0.0225860849
1513,-0.0823775381
1514,-0.0297813602
1515,-0.0902935043
1516,-0.139087051
1517,-0.00473853061
1518,0.0493068211
1519,0.131039113
1520,0.116520055
1521,-0.0789640471
1522,-0.372943819
1523,0.0841280669
1524,0.147277325
1525,0.144140571
1526,-0.294752836
1527,0.137176037
1528,0.309927702
1529,0.120014787
1530,0.279753596
1531,0.0666700378
1532,-0.18278043
1533,-0.0287232213
1534,-0.0231505353
1535,-0.0916890427
1536,-0.0229583085
1537,0.00856230408
1538,0.0582428575
1539,0.132281825
1540,0.060895361
1541,0.0622101463
1542,0.137131914
1543,-0.0332126915
1544,-0.041634839
1545,0.0285938065
1546,0.114776723
1547,-0.148628354
1548,-0.194129214
1549,-0.0758681148
1550,-0.0654525608
1551,0.112411708
1552,-0.322524279
1553,0.074538663
1554,0.358196527
1555,-0.0703666434
1556,0.129676059
1557,-0.16509746
1558,-0.0365940444
1559,-0.251512766
1560,-0.0456504561
1561,-0.0892835408
1562,-0.0487208329
1563,0.0043696845
1564,-0.0852338001
1565,0.053348355
1566,0.0732958466
1567,-0.313008398
1568,0.160453409
1569,0.271351933
1570,0.11809364
1571,-0.0693965256
1572,-0.0634942055
1573,0.0371948592
1574,-0.112857379
1575,0.13043642
1576,-0.00992626976
1577,-0.221879587
1578,0.18454951
1579,0.353001088
1580,-0.239739507
1581,-0.102517188
1582,0.0252478365
1583,0.00167728146
1584,-0.275333762
1585,0.0499831364
1586,0.0533511117
1587,0.181498617
1588,-0.0947988108
1589,0.0468773805
1590,-0.0180237703
1591,0.0797502548
1592,0.0847519413
1593,0.0538379438
1594,0.125617415
1595,0.159524411
1596,-0.157751217
1597,0.104250595
1598,-0.316487938
1599,0.367882758
1600,-0.215149343
1601,-0.0593063422
1602,0.152505204
1603,0.0312310569
1604,-0.328674972
1605,-0.0915411413
1606,-0.196582913
1607,0.100419901
1608,0.280128926
1609,0.0450132117
1610,-0.159435645
1611,0.160833985
1612,0.214380145
1613,0.149495676
1614,-0.0920710042
1615,0.000485020573
1616,-0.0958422944
1617,0.0749140084
1618,-0.231261238
1619,-0.162430286
1620,-0.0642394647
1621,-0.0968490914
1622,0.0548327193
1623,-0.308087081
1624,0.163951889
1625,0.429780185
1626,-0.203124315
1627,-0.058908619
1628,-0.0728141665
1629,0.021096522
1630,-0.0244555976
1631,-0.0836710781
1632,-0.227942884
1633,0.29272607
1634,-0.122712746
1635,-0.0416687094
1636,-0.186531514
1637,-0.0650232509
1638,-0.277562618
1639,0.154058978
1640,-0.0460984893
1641,0.0174413659
1642,-0.400640339
1643,0.145111442
1644,-0.611452579
1645,-0.0528508052
1646,-0.0407378338
1647,-0.0365427136
1648,-0.158146173
1649,-0.0366800986
1650,-0.100475125
1651,-0.0720103607
1652,-0.084893465
1653,-0.141814932
1654,0.129303083
1655,-0.0739783198
1656,0.00537009072
1657,-0.0833861902
1658,-0.00712368637
1659,0.375637025
1660,-0.0931166261
1661,0.0718542561
1662,-0.214140877
1663,-0.456941873
1664,0.0626715124
1665,0.218805701
1666,0.631323516
1667,0.235091135
1668,-0.0465316512
1669,0.18172808
1670,-0.146377191
1671,0.393511474
1672,-0.000230993319
1673,-0.225764915
1674,-0.0967106074
1675,-0.0251151733
1676,0.174072415
1677,-0.175240532
1678,-0.178238153
1679,0.101035006
1680,-0.100307845
1681,0.0750970095
1682,0.178818196
1683,-0.507701278
1684,-0.0790646374
1685,-0.00194468105
1686,0.0574522503
1687,-0.312171996
1688,-0.0532252416
1689,-0.121144667
1690,-0.211475655
1691,0.272824377
1692,-0.136374846
1693,-0.146318227
1694,-0.232353106
1695,0.127397835
1696,0.15323019
1697,0.443772912
1698,-0.18756023
1699,0.198125169
1700,0.331259251
1701,-0.0333549194
1702,0.363107711
1703,0.184879109
1704,0.0257618222
1705,-0.28453362
1706,-0.0576025434
1707,0.254989147
1708,-0.228351146
1709,-0.0624490231
1710,0.16350916
1711,-0.143285453
1712,0.123119682
1713,-0.196338803
1714,0.157351211
1715,0.0265551452
1716,0.149659321
1717,-0.0788407177
1718,-0.155088484
1719,-0.369446456
1720,-0.15004617
1721,-0.175078154
1722,0.0763863102
1723,0.242328733
1724,0.00891156029
1725,0.0422855094
1726,0.0780461133
1727,-0.0920587927
1728,0.00447557541
1729,-0.109891132
1730,0.452861011
1731,-0.516281724
1732,-0.0127364146
1733,0.527130604
1734,-0.255931884
1735,0.139668077
1736,-0.149484873
1737,0.0176084731
1738,0.424125314
1739,0.0345875584
1740,0.269733638
1741,-0.112897724
1742,-0.0154580688
1743,-0.0878465101
1744,0.282187462
1745,-0.29710871
1746,0.150156692
1747,-0.184477717
1748,-0.203452423
1749,-0.450266212
1750,0.397724956
1751,-0.288395196
1752,0.297224253
1753,-0.144022882
1754,-0.0539119616
1755,-0.0732433125
1756,-0.0816699862
1757,-0.179167956
1758,-0.0401579142
1759,0.423799306
1760,-0.310929149
1761,0.0217825584
1762,0.0317394882
1763,0.0170176718
1764,0.0632952005
1765,-0.0812730715
1766,-0.338015676
1767,-0.171818912
1768,0.237290591
1769,0.350172013
1770,-0.0122244246
1771,-0.223011255
1772,-0.0799118206
1773,-0.0297241993
1774,-0.0274338424
1775,-0.0681838319
1776,-0.723476291
1777,-0.33125034
1778,-0.336277932
1779,-0.342664331
1780,0.0122276107
1781,-0.149756536
1782,-0.211278126
1783,-0.128149837
1784,0.118902735
1785,-0.00357558508
1786,-0.197400317
1787,0.335533291
1788,0.0910661668
1789,0.00381008512
1790,0.116988339
1791,0.19736293
1792,0.0551646017
1793,0.0160938967
1794,-0.0279732961
1795,-0.0644683242
1796,0.178114936
1797,-0.206473917
1798,0.153891325
1799,0.115299523
1800,-0.182874501
1801,-0.137155429
1802,-0.194150835
1803,-0.00206926675
1804,-0.0425227657
1805,-0.404864877
1806,-0.010193334
1807,-0.137189478
1808,-0.17546092
1809,-0.0087363068
1810,0.0515563488
1811,-0.208135366
1812,-0.162130386
1813,-0.0728563294
1814,-0.134018883
1815,-0.0201028604
1816,0.0716110468
1817,0.198900923
1818,-0.0102256592
1819,-0.026592847
1820,0.338439763
1821,-0.474704385
1822,-0.0895051062
1823,0.137699142
1824,-0.162365109
1825,-0.293059379
1826,-0.0579834543
1827,-0.167850867
1828,0.10976322
1829,0.0736571327
1830,0.00954531319
1831,0.285371214
1832,0.271877229
1833,0.320228279
1834,-0.108388558
1835,0.341472149
1836,0.115902357
1837,-0.319279462
1838,-0.30941999
1839,-0.0223820452
1840,-0.217534423
1841,-0.296854973
1842,0.108527362
1843,-0.00758863147
1844,-0.134862259
1845,-0.107973672
1846,0.111755319
1847,-0.128599927
1848,-0.0022151575
1849,-0.0981704146
1850,-0.116536722
1851,0.186137617
1852,-0.0713215247
1853,0.0883055255
1854,0.0438917764
1855,-0.0227721222
1856,0.209400803
1857,0.0387311466
1858,-0.368295968
1859,0.138217479
1860,-0.31289494
1861,-0.227427527
1862,0.124435149
1863,-0.435814768
1864,-0.374092937
1865,-0.501123607
1866,0.145673573
1867,0.100390673
1868,0.0891789198
1869,-0.168353349
1870,0.128424078
1871,-0.145381838
1872,0.0875184983
1873,-0.028642362
1874,0.408177584
1875,-0.257258117
1876,-0.143715814
1877,-0.033487685
1878,-0.0218587909
1879,0.097662814
1880,0.00793511234
1881,-0.0603706539
1882,-0.0777339563
1883,-0.132902384
1884,0.489615709
1885,-0.158735767
1886,0.0831309631
1887,-0.0522377118
1888,-0.106396124
1889,0.0742040947
1890,-0.269619733
1891,0.0681063458
1892,0.0776723698
1893,-0.196118683
1894,-0.0950183719
1895,0.00497333333
1896,0.112773888
1897,-0.0701180845
1898,-0.240334675
1899,0.0379684828
1900,-0.140308753
1901,0.194382414
1902,0.189422935
1903,-0.130892813
1904,0.126254767
1905,0.0400901102
1906,-0.0589395948
1907,-0.169523746
1908,-0.167913139
1909,0.153751746
1910,0.0692554787
1911,0.392959028
1912,-0.0901374072
1913,-0.151254088
1914,0.0463639945
1915,-0.137190238
1916,-0.069386974
1917,-0.0254500601
1918,0.399494171
1919,-0.0629164875
1920,-0.020503344
1921,0.144719511
1922,0.0244668834
1923,0.023188211
1924,-0.0741356462
1925,0.0733923241
1926,0.135258004
1927,0.390956551
1928,0.0281332005
1929,0.0690295771
1930,-0.0511982962
1931,-0.0488396697
1932,-0.0147545813
1933,-0.0410631336
1934,0.0472421274
1935,-0.158813998
1936,-0.358483851
1937,0.00903533213
1938,-0.053732723
1939,0.130688921
1940,-0.273672432
1941,0.0950220078
1942,-0.0381424874
1943,0.237856492
1944,-0.174538612
1945,0.178836718
1946,-0.0728547499
1947,-0.26803112
1948,0.0558746643
1949,0.00637216261
1950,0.0508070737
1951,0.189914271
1952,-0.0919393972
1953,0.252913535
1954,-0.0431780629
1955,-0.190599084
1956,-0.146499082
1957,-0.0913962871
1958,-0.405886352
1959,0.153385475
1960,-0.0580419824
1961,0.413114071
1962,-0.0575024113
1963,-0.0573877506
1964,-0.00556768803
1965,-0.0560147166
1966,-0.00511651626
1967,-0.134854674
1968,0.0924016684
1969,0.0338773653
1970,-0.334474325
1971,-0.106963329
1972,0.123036273
1973,0.235412732
1974,-0.0295406114
1975,-0.192477733
1976,-0.553366244
1977,0.0659940466
1978,-0.0538855903
1979,-0.29549405
1980,0.144448057
1981,0.215653256
1982,0.0211572349
1983,0.0509836338
1984,0.130950034
1985,0.167730033
1986,-0.130006343
1987,-0.0292613357
1988,-0.40280658
1989,0.0120905517
1990,0.115455806
1991,-0.123376906
1992,-0.335957557
1993,-0.392233402
1994,-0.0416632332
1995,0.222260833
1996,-0.165304974
1997,-0.143772945
1998,0.0304557048
1999,-0.0256135352
2000,-0.0106218522
2001,-0.0779434517
2002,0.144751653
2003,-0.323598802
2004,0.0558432527
2005,-0.311392337
2006,0.0590503775
2007,0.153042242
2008,-0.304389417
2009,0.110214889
2010,-0.10491284
2011,0.221708164
2012,0.251097769
2013,-0.0547518618
2014,0.101640508
2015,-0.0971882045
2016,-0.0160168391
2017,-0.136603817
2018,0.0565019622
2019,-0.219181761
2020,-0.264538586
2021,0.00857838709
2022,-0.094667241
2023,-0.0982742608
2024,0.111563735
2025,0.130213678
2026,0.2359014
2027,0.0949834511
2028,-0.0869651139
2029,0.147300765
2030,0.0797590017
2031,-0.246999517
2032,0.109331094
2033,-0.0795999244
2034,-0.0842190161
2035,0.0187321976
2036,-0.0594878905
2037,-0.15630877
2038,0.251619458
2039,0.0646209493
2040,0.0585432462
2041,-0.147076502
2042,0.0405875854
2043,0.00162741833
2044,0.116744444
2045,-0.010271633
2046,-0.153533936
2047,0.0232547596
2048,0.184607208
2049,-0.100458503
2050,0.0547788888
2051,0.19739221
2052,0.282772571
2053,-0.136212111
2054,-0.243236363
2055,-0.0699070022
2056,-0.182985052
2057,-0.0651096404
2058,-0.16392906
2059,0.160583943
2060,-0.0601256788
2061,0.05993554
2062,0.0960957929
2063,0.0523363352
2064,0.124185853
2065,0.103410542
2066,0.0804492533
2067,-0.313149273
2068,0.0765848458
2069,0.0812068135
2070,0.0162614454
2071,0.273189098
2072,-0.284041822
2073,0.0166144297
2074,-0.0577824004
2075,-0.0537198037
2076,-0.621080637
2077,-0.0360519178
2078,-0.205503196
2079,-0.111858517
2080,-0.370077789
2081,0.00908449572
2082,0.234153003
2083,-0.010492702
2084,0.096627079
2085,0.0381115973
2086,-0.0805998743
2087,-0.0269832332
2088,-0.20018819
2089,-0.11084751
2090,-0.0566056073
2091,-0.330792606
2092,-0.324952483
2093,0.602320731
2094,-0.0877335295
2095,0.00419117417
2096,-0.243627071
2097,-0.224851459
2098,-0.124988556
2099,0.438149184
2100,0.00104738551
2101,0.0789599493
2102,0.0324333459
2103,-0.101444997
2104,0.00826249365
2105,-0.339250952
2106,0.00912658498
2107,0.178107008
2108,-0.138373062
2109,0.0321294107
2110,0.0256795511
2111,0.125203505
2112,-0.222747669
2113,0.0167805254
2114,-0.197728232
2115,0.304355443
2116,-0.233723074
2117,-0.165903926
2118,0.0565912835
2119,-0.0883653685
2120,-0.126838863
2121,-0.272344023
2122,-0.0680849999
2123,-0.428278565
2124,-0.0428818762
2125,0.0862684175
2126,0.0069535058
2127,0.0623751692
2128,0.190590009
2129,0.00083444739
2130,-0.0493335351
2131,-0.022170661
2132,0.0645904541
2133,-0.038506005
2134,0.174166054
2135,-0.055470854
2136,-0.00339914346
2137,-0.598010421
2138,-0.171740294
2139,0.304379493
2140,0.033327274
2141,0.0335887261
2142,-0.0710162893
2143,-0.211774737
2144,-0.0428805128
2145,0.0900077298
2146,-0.0272540115
2147,0.124792166
2148,0.0925938934
2149,0.00879709516
2150,-0.105437368
2151,-0.0335821323
2152,-0.025375206
2153,-0.117195308
2154,0.0684574023
2155,-0.467003614
2156,-0.232089296
2157,-0.114504889
2158,-0.204581425
2159,0.274260491
2160,-0.157648474
2161,-0.0333066024
2162,-0.133686602
2163,0.352663755
2164,-0.0220582914
2165,0.15569073
2166,0.11322891
2167,0.247698426
2168,-0.080492802
2169,-0.0311507005
2170,0.172454417
2171,0.253398716
2172,0.106770977
2173,0.359127283
2174,-0.044899229
2175,-0.275849789
2176,0.34829241
2177,0.0203216933
2178,0.124539293
2179,0.0210944768
2180,-0.189114675
2181,-0.24912411
2182,-0.0318015926
2183,-0.0579728857
2184,0.0624704845
2185,0.34924975
2186,0.180511415
2187,0.0376432873
2188,-0.0234314818
2189,0.0836131945
2190,0.010063217
2191,0.0722727925
2192,0.0200406294
2193,-0.279190958
2194,-0.106615283
2195,-0.096754536
2196,0.38265419
2197,-0.0714790821
2198,-0.083548747
2199,-0.0234240964
2200,0.209592357
2201,0.127973631
2202,0.082408376
2203,-0.153428793
2204,-0.0847113132
2205,-0.102981612
2206,-0.248548403
2207,0.0806554481
2208,0.124749184
2209,-0.14551945
2210,-0.233008325
2211,-0.129317001
2212,0.0198913794
2213,-0.0715123489
2214,0.0621001311
2215,-0.000587961287
2216,0.149579078
2217,-0.0321343951
2218,0.548842788
2219,0.0411162637
2220,0.0199702233
2221,-0.123344406
2222,0.115814179
2223,0.140046582
2224,-0.0150911529
2225,-0.0589251928
2226,0.122239932
2227,-0.0447903425
2228,0.105637036
2229,0.0880068764
2230,0.0127505343
2231,0.0111832358
2232,-0.21790649
2233,0.150986776
2234,0.134830832
2235,-0.0208760165
2236,-0.193189353
2237,-0.0853428915
2238,-0.306259185
2239,0.134570107
2240,-0.261026919
2241,0.487985104
2242,-0.236593008
2243,0.195635438
2244,-0.0370205194
2245,0.0588852726
2246,-0.283111155
2247,-0.0924096406
2248,-0.129480287
2249,-0.183857858
2250,0.0744952857
2251,-0.197624549
2252,-0.0594941452
2253,0.0905189365
2254,-0.0923646688
2255,-0.2136821
2256,-0.0590343289
2257,0.279285252
2258,-0.0329852216
2259,-0.157315359
2260,0.380218208
2261,-0.0292790215
2262,-0.277801484
2263,-0.215385854
2264,0.493991822
2265,0.0400816351
2266,-0.238259122
2267,0.185983852
2268,0.180777818
2269,-0.00340908999
2270,0.260014653
2271,-0.0609179325
2272,-0.0887816995
2273,-0.0603431426
2274,0.0574946404
2275,-0.0327446535
2276,-0.231456935
2277,-0.153880581
2278,-0.043098297
2279,0.239143774
2280,0.00750715425
2281,0.197300524
2282,-0.122848652
2283,-0.105484158
2284,0.105208114
2285,0.473694205
2286,-0.0815162212
2287,0.0259265751
2288,0.219883367
2289,0.488708615
2290,-0.0958537683
2291,-0.150800556
2292,-0.102893099
2293,-0.098489739
2294,-0.326660305
2295,-0.0247486383
2296,-0.0245392285
2297,-0.322753131
2298,-0.129679874
2299,-0.267750978
2300,0.0995891765
2301,-0.177974507
2302,0.0626677126
2303,-0.117934272
2304,-0.137969628
2305,0.00847371574
2306,-0.102603167
2307,-0.124804839
2308,-0.16037403
2309,-0.167791277
2310,-0.0354571193
2311,-0.239355162
2312,0.0174630359
2313,0.332037747
2314,-0.00392242894
2315,-0.261065066
2316,0.324555159
2317,-0.107269235
2318,0.0532269254
2319,-0.0482347012
2320,-0.0823909342
2321,-0.14824298
2322,-0.0440623201
2323,-0.129980177
2324,0.0547228307
2325,0.171102881
2326,0.167463869
2327,0.289940894
2328,0.0561576597
2329,-0.246913284
2330,-0.127734989
2331,-0.192181572
2332,-0.135500982
2333,-0.153672531
2334,0.00120320613
2335,0.0350497589
2336,-0.25138247
2337,-0.206543684
2338,-0.455548972
2339,0.137433693
2340,-0.118733361
2341,-0.0539138988
2342,-0.245788187
2343,-0.159202173
2344,0.238519028
2345,0.39096716
2346,-0.0558048189
2347,-0.278607219
2348,0.279741764
2349,0.113113649
2350,0.00098370132
2351,-0.0427031778
2352,0.367406398
2353,0.0175977126
2354,-0.122277297
2355,-0.167508155
2356,0.00354055502
2357,0.191644147
2358,-0.181220755
2359,-0.031038288
2360,0.138824448
2361,-0.0055904258
2362,-0.328393698
2363,0.166912735
2364,0.0370210744
2365,-0.0682350099
2366,0.139844969
2367,0.09891022
2368,0.136418805
2369,-0.100049868
2370,0.42535463
2371,-0.160834834
2372,0.0115974825
2373,0.0760517567
2374,0.165081143
2375,0.309320897
2376,-0.0976905376
2377,-0.576903343
2378,-0.249907702
2379,0.0203994699
2380,-0.0354441553
2381,-0.212664127
2382,0.128042221
2383,0.0289232116
2384,0.0726530254
2385,-0.198183835
2386,0.0285878293
2387,-0.0703219473
2388,-0.00184999558
2389,0.212053388
2390,-0.242250264
2391,-0.0484917723
2392,-0.253079176
2393,-0.278394848
2394,-0.0651314482
2395,0.0590956099
2396,-0.105124712
2397,0.0250985734
2398,0.115729421
2399,-0.0136964275
2400,-0.0974334329
2401,-0.0100223329
2402,0.0545395128
2403,0.151324019
2404,-0.0523918271
2405,0.0605477281
2406,-0.0676259622
2407,-0.000268384523
2408,-0.0941440761
2409,-0.0234593153
2410,0.0316640474
2411,-0.0651079044
2412,-0.0705536082
2413,0.0214659628
2414,0.127475351
2415,0.00607752567
2416,-0.0920634568
2417,-0.210234359
2418,0.203581393
2419,-0.0709543303
2420,-0.024511734
2421,-0.0105050011
2422,-0.191702515
2423,-0.158409834
2424,-0.276651114
2425,0.000391641777
2426,-0.0434165783
2427,0.0904175863
2428,-0.0554350875
2429,-0.154521435
2430,-0.309243053
2431,-0.00505384756
2432,-0.0158720352
2433,0.0375057943
2434,-0.288035601
2435,0.389223933
2436,-0.354939014
2437,-0.314421862
2438,-0.00396193471
2439,0.0896973908
2440,0.253774345
2441,0.271122813
2442,-0.154232055
2443,0.0300791189
2444,0.337751389
2445,0.3356812
2446,0.0763366967
2447,-0.103238694
2448,0.0411749706
2449,-0.282308847
2450,-0.198835522
2451,-0.149974659
2452,0.251866907
2453,0.119011015
2454,-0.0857949257
2455,0.0164808501
2456,-0.0105759883
2457,0.083258301
2458,-0.19987087
2459,-0.286855578
2460,-0.0848936811
2461,-0.0889903083
2462,-0.187627062
2463,0.0488762036
2464,-0.157430902
2465,0.131474435
2466,0.161997721
2467,0.111905381
2468,0.0774186701
2469,0.125065625
2470,-0.0588770546
2471,0.0527606159
2472,-0.119570971
2473,-0.0387197658
2474,-0.0380832739
2475,-0.415573925
2476,-0.370533228
2477,0.221870616
2478,0.231454447
2479,-0.127869993
2480,-0.30631271
2481,-0.0249110945
2482,-0.0773518384
2483,0.355214953
2484,0.344791323
2485,0.0302126203
2486,0.036680039
2487,-0.229811892
2488,0.0799036771
2489,-0.347138762
2490,0.0481234491
2491,-0.0758827254
2492,-0.209097922
2493,0.133376524
2494,-0.0732300058
2495,-0.163642257
2496,-0.0516006723
2497,-0.139855787
2498,0.0993644595
2499,0.12874724
2500,-0.104444027
2501,-0.115151264
2502,0.0280025899
2503,-0.0295746159
2504,-0.0826753378
2505,0.0921014696
2506,0.00454306835
2507,0.133037105
2508,-0.0445043072
2509,0.104475491
2510,0.180899948
2511,-0.0819352344
2512,-0.141546577
2513,-0.150918707
2514,-0.0662673712
2515,0.0964819938
2516,-0.10917414
2517,-0.0538838618
2518,0.00903556962
2519,-0.152522504
2520,0.222715065
2521,-0.00589926587
2522,0.211033687
2523,-0.141089991
2524,0.0229738317
2525,-0.171460211
2526,-0.257243216
2527,-0.170533374
2528,0.275063038
2529,0.125527948
2530,-0.288589865
2531,-0.206487566
2532,0.0903750807
2533,-0.0892751589
2534,0.141764581
2535,-0.18976
2536,0.00870654546
2537,0.0383020528
2538,0.0336003117
2539,-0.0495845713
2540,-0.0512366258
2541,0.0777054876
2542,0.0653267205
2543,-0.0714638978
2544,-0.0602130145
2545,0.00955964718
2546,-0.292967588
2547,-0.0604098663
2548,-0.160222888
2549,-0.17752713
2550,-0.0957834721
2551,-0.0240269434
2552,-0.145202383
2553,-0.225908846
2554,0.017163299
2555,-0.552526712
2556,0.0348006375
2557,-0.293528736
2558,-0.0145287719
2559,-0.0877892748
2560,-0.140468284
2561,0.170722932
2562,0.229807839
2563,-0.051826071
2564,0.00410037488
2565,0.189706415
2566,0.0727275014
2567,-0.105122939
2568,0.0375425555
2569,0.0724034235
2570,0.0414516814
2571,-0.292970479
2572,-0.4694736
2573,0.164093822
2574,0.266359001
2575,-0.111931622
2576,-0.18242982
2577,-0.0733375922
2578,-0.187034667
2579,0.168480888
2580,0.247581154
2581,-0.0726288855
2582,0.118598692
2583,0.164433509
2584,-0.0140732126
2585,-0.2913495
2586,0.140360892
2587,0.141023159
2588,-0.265274495
2589,-0.159313202
2590,0.122106828
2591,0.0406742617
2592,0.00519437622
2593,-0.0227291901
2594,0.177197859
2595,-0.0584894456
2596,-0.0979893655
2597,-0.200800627
2598,0.0676218718
2599,0.233044416
2600,-0.0393794067
2601,-0.00373784569
2602,-0.0299519375
2603,-0.0934273675
2604,-0.197089717
2605,0.160283744
2606,0.181553647
2607,0.0597566329
2608,0.121770486
2609,-0.097400099
2610,0.0564545318
2611,0.114052206
2612,-0.14045617
2613,-0.0759135485
2614,-0.130791426
2615,-0.0297761336
2616,-0.0865884721
2617,-0.0648420602
2618,-0.103450596
2619,0.00652949419
2620,-0.0113586187
2621,-0.0773294643
2622,-0.0673886761
2623,0.0618936121
2624,-0.103826977
2625,-0.0849556401
2626,-0.0467165634
2627,0.133163407
2628,-0.0478327014
2629,-0.232988492
2630,0.0577340461
2631,-0.323249668
2632,0.0905200541
2633,-0.299945474
2634,0.00684668543
2635,-0.207800254
2636,0.0037001099
2637,0.361714542
2638,0.0954719037
2639,0.127427846
2640,0.290612876
2641,0.128124431
2642,-0.131722555
2643,-0.151508957
2644,-0.09428671
2645,-0.155460909
2646,-0.0849536583
2647,-0.0491627678
2648,-0.082290791
2649,-0.0287068374
2650,-0.239416614
2651,0.137089834
2652,-0.018687211
2653,0.277642578
2654,-0.0261765532
2655,0.0466875657
2656,-0.136565924
2657,-0.108193494
2658,-0.0669739768
2659,-0.27973929
2660,-0.00722777192
2661,0.0869846269
2662,0.0455407761
2663,-0.219836995
2664,-0.128368318
2665,-0.0678733513
2666,-0.0625685155
2667,0.0779260546
2668,0.0820783302
2669,0.146875501
2670,0.0934124961
2671,0.0539448224
2672,-0.0195764191
2673,0.191816673
2674,-0.160129741
2675,0.137009382
2676,-0.244116277
2677,-0.233775422
2678,0.146105304
2679,0.432929128
2680,-0.270453423
2681,-0.0698416531
2682,0.137262881
2683,-0.0988668948
2684,0.0756234378
2685,0.0223213937
2686,0.157003999
2687,-0.0503001846
2688,-0.0848324075
2689,0.140642598
2690,0.0184355527
2691,0.13032034
2692,-0.0672766417
2693,-0.150065333
2694,-0.309367001
2695,-0.196341038
2696,0.0435199998
2697,-0.113044456
2698,-0.0308056045
2699,-0.0980797186
2700,-0.0334048308
2701,-0.413068146
2702,-0.0638474971
2703,-0.157015011
2704,-0.125122711
2705,-0.245734274
2706,-0.0253815074
2707,-0.113862045
2708,0.0734401569
2709,-0.0410882309
2710,-0.0974419862
2711,0.206927702
2712,-0.0490787067
2713,0.00321909413
2714,0.0808383822
2715,-0.137912989
2716,-0.208647743
2717,-0.247773215
2718,0.0498488508
2719,0.107699789
2720,-0.00581216905
2721,0.0279945992
2722,-0.319056571
2723,-0.0780154318
2724,0.0124162687
2725,0.198018879
2726,-0.0768509433
2727,-0.225467429
2728,0.0542604886
2729,0.289610058
2730,0.283052474
2731,-0.33185938
2732,0.111695319
2733,-0.0893066004
2734,0.146497697
2735,-0.0561858453
2736,-0.287333697
2737,-0.0370223261
2738,-0.084040761
2739,-0.384727865
2740,0.140404269
2741,-0.101926915
2742,-0.0472170413
2743,0.539022207
2744,0.0134122996
2745,-0.113584131
2746,0.0874859095
2747,0.0450738259
2748,-0.120324142
2749,0.151265144
2750,-0.0142198624
2751,-0.0130615765
2752,0.0771864727
2753,0.249959707
2754,0.241473228
2755,-0.0904871076
2756,-0.0283292253
2757,-0.00781765301
2758,0.0170871206
2759,0.198833704
2760,-0.0287725534
2761,0.169922829
2762,-0.0652055815
2763,-0.194116771
2764,-0.00329222623
2765,0.470169961
2766,0.0422777571
2767,0.140976012
2768,-0.180271894
2769,0.18634069
2770,-0.00260190782
2771,-0.25648284
2772,0.0276282094
2773,-0.295721024
2774,-0.24983649
2775,0.12330462
2776,-0.149192408
2777,0.115514673
2778,-0.0306067225
2779,-0.262119174
2780,-0.0505743176
2781,0.42601037
2782,-0.00590328639
2783,-0.0321356766
2784,0.197361514
2785,-0.265144557
2786,-0.0167004187
2787,0.0826585814
2788,0.101287119
2789,-0.0890690684
2790,-0.628549397
2791,0.0366929211
2792,0.110776886
2793,-0.208395213
2794,-0.0102419406
2795,0.0304708015
2796,0.0292163137
2797,0.191098556
2798,0.250193834
2799,0.00554759335
2800,0.18905589
2801,0.00386975775
2802,0.12982738
2803,-0.175430626
2804,0.110390224
2805,0.157399148
2806,-0.341757625
2807,0.0653700903
2808,-0.0793688446
2809,0.0491327755
2810,0.0730361268
2811,0.0909649208
2812,0.085510157
2813,-0.354928613
2814,-0.330600798
2815,0.0985598713
2816,-0.122296385
2817,-0.165111482
2818,0.0718294233
2819,-0.120293997
2820,-0.269666165
2821,0.131233156
2822,-0.0394993424
2823,-0.0805947408
2824,0.0192846041
2825,-0.0137132751
2826,0.264181405
2827,-0.564321697
2828,-0.464427054
2829,-0.296496749
2830,0.185843319
2831,-0.261728168
2832,0.132240996
2833,0.194389626
2834,-0.0791367069
2835,0.0986362547
2836,0.0837958008
2837,-0.3197124
2838,0.0877029747
2839,-0.0357825644
2840,0.0580896996
2841,-0.189936548
2842,-0.258715808
2843,0.288544089
2844,0.139479324
2845,-0.0430982038
2846,-0.00354549265
2847,0.0264582504
2848,0.110785365
2849,0.0298544243
2850,0.276117891
2851,0.516502678
2852,-0.159038186
2853,-0.157202855
2854,0.271849781
2855,-0.230135113
2856,-0.139860332
2857,-0.306508482
2858,-0.229034677
2859,0.0690016672
2860,-0.0413864516
2861,0.472018182
2862,0.122944295
2863,-0.090832293
2864,-0.28527534
2865,-0.650383592
2866,-0.231131881
2867,0.204435602
2868,-0.0453490019
2869,-0.0252840985
2870,-0.0865628719
2871,0.0281083789
2872,-0.179513752
2873,0.0444748104
2874,-0.05285329
2875,-0.0947524309
2876,-0.397736371
2877,-0.198962316
2878,0.207974434
2879,-0.315884352
2880,-0.333120406
2881,-0.186526924
2882,0.156180188
2883,-0.0268423483
2884,0.132641822
2885,0.0547986105
2886,-0.168558657
2887,0.0526045859
2888,0.0731257126
2889,-0.099530533
2890,-0.0147516709
2891,0.0907462537
2892,-0.105747834
2893,0.211077049
2894,-0.0278687477
2895,0.116722144
2896,-0.017271582
2897,-0.271242082
2898,-0.107534602
2899,0.0867518783
2900,0.0395061038
2901,0.0767124593
2902,-0.168527618
2903,-0.0494846813
2904,-0.124281734
2905,0.0284951162
2906,0.00844448619
2907,-0.171160951
2908,0.0247835573
2909,0.266192138
2910,-0.0670939162
2911,-0.297167569
2912,-0.12034975
2913,0.100834809
2914,-0.0519625284
2915,0.0560522191
2916,0.133900985
2917,0.0156559739
2918,-0.315841198
2919,0.111601979
2920,-0.00835626666
2921,-0.147101283
2922,0.0906182975
2923,0.139622629
2924,-0.242679238
2925,-0.354690731
2926,0.300327212
2927,-0.0676861033
2928,-0.0961977169
2929,-0.0821494162
2930,0.0739243999
2931,0.183681443
2932,0.109887868
2933,-0.247427553
2934,0.207083583
2935,-0.169203922
2936,0.105923779
2937,-0.13257207
2938,0.144661278
2939,0.145275861
2940,0.0481341369
2941,0.14979811
2942,0.0706998855
2943,-0.0660612881
2944,-0.125472948
2945,-0.130614415
2946,0.12874341
2947,0.00517929019
2948,-0.123865068
2949,-0.0425249152
2950,-0.179109856
2951,-0.240575567
2952,-0.209229037
2953,-0.263404697
2954,-0.0564388745
2955,-0.153113186
2956,-0.214687616
2957,-0.0637472272
2958,0.13425149
2959,-0.120631896
2960,-0.0395312123
2961,-0.0953713134
2962,0.301248521
2963,0.238854975
2964,-0.179113239
2965,0.0945304036
2966,0.175558716
2967,-0.199531481
2968,-0.0280296542
2969,-0.0188481063
2970,-0.102600776
2971,0.071916163
2972,-0.0540763959
2973,0.0267713219
2974,-0.106800824
2975,-0.0964733809
2976,-0.0422368087
2977,-0.145174071
2978,0.157212868
2979,-0.00268452102
2980,0.2292272
2981,-0.00120618101
2982,0.132898271
2983,-0.0132771935
2984,-0.170283094
2985,-0.240545943
2986,-0.366870373
2987,0.0723418221
2988,-0.245752841
2989,0.26530996
2990,-0.0683179572
2991,-0.0416620709
2992,-0.0895039067
2993,-0.046415817
2994,-0.0481885038
2995,-0.00820495468
2996,-0.155356437
2997,-0.0963517055
2998,0.0328937732
2999,-0.19669877
3000,-0.00739469752
3001,-0.143367097
3002,0.0917741507
3003,-0.244235948
3004,0.0805540755
3005,0.126792237
3006,0.105336018
3007,-0.29705593
3008,-0.107627623
3009,0.0778878853
3010,-0.0667066425
3011,-0.0735649318
3012,0.0632290393
3013,0.0961228833
3014,-0.0886817798
3015,-0.144675687
3016,-0.0390266739
3017,0.0871009678
3018,0.321917474
3019,-0.492655128
3020,-0.0187721215
3021,-0.106705949
3022,-0.0098043438
3023,-0.088077642
3024,-0.0351491012
3025,-0.198758662
3026,-0.155067816
3027,-0.32414034
3028,0.174529925
3029,-0.139278263
3030,0.0556183048
3031,0.326351643
3032,-0.0885960534
3033,-0.572416365
3034,0.0764578506
3035,0.121327981
3036,0.120813064
3037,0.0153535176
3038,-0.0767728537
3039,-0.0997207239
3040,0.0656194538
3041,-0.127156183
3042,0.143673763
3043,-0.150938913
3044,0.0563710928
3045,0.0834677666
3046,-0.253950715
3047,0.084434174
3048,0.068979837
3049,0.0697552338
3050,-0.107781187
3051,0.0506827533
3052,-0.00984521769
3053,-0.00697149057
3054,-0.0201424062
3055,-0.110968724
3056,0.159621313
3057,-0.0409198739
3058,0.0103654796
3059,-0.00120061659
3060,-0.0179408193
3061,-0.0857466236
3062,-0.125165746
3063,-0.152438119
3064,0.216698274
3065,-0.163162187
3066,0.064465791
3067,-0.0386874825
3068,-0.0551716164
3069,0.0107348068
3070,-0.054445006
3071,-0.0223920159
3072,-0.280093908
3073,-0.0301014315
3074,-0.371280581
3075,0.132635295
3076,0.130617887
3077,-0.104191788
3078,0.081324555
3079,-0.0444155857
3080,0.21324268
3081,-0.0130824232
3082,0.106938921
3083,-0.310675055
3084,0.154445291
3085,-0.253739029
3086,0.190288231
3087,0.023029644
3088,-0.110242777
3089,0.00923781469
3090,-0.130133435
3091,-0.323498011
3092,0.058727622
3093,0.128093243
3094,-0.103174649
3095,0.16002968
3096,-0.0524849929
3097,-0.0877864435
3098,0.19833307
3099,-0.0730858818
3100,0.110735245
3101,0.00381509168
3102,-0.150871173
3103,0.114295475
3104,-0.00638324767
3105,0.18000555
3106,-0.127139837
3107,0.0506150723
3108,-0.253309637
3109,0.0938160494
3110,-0.0434736013
3111,-0.0513329543
3112,0.0234107375
3113,-0.228193611
3114,0.0413785763
3115,-0.0559463836
3116,-0.178564325
3117,0.240799621
3118,0.357099235
3119,-0.115500197
3120,-0.00785370264
3121,-0.145093739
3122,0.274166822
3123,-0.195523098
3124,-0.10121201
3125,-0.187444821
3126,0.0623568967
3127,0.073384136
3128,0.154429331
3129,0.0209780205
3130,0.190592125
3131,-0.36969167
3132,-0.146470666
3133,0.0228304528
3134,0.0375619605
3135,0.121574417
3136,0.17740798
3137,-0.0384638608
3138,0.0169287454
3139,-0.246524751
3140,0.0345397033
3141,0.159115449
3142,0.0753579065
3143,-0.124640673
3144,-0.0703133345
3145,0.012190897
3146,-0.151706636
3147,-0.156634241
3148,-0.253985912
3149,0.379764766
3150,-0.197039247
3151,-0.021968713
3152,-0.0940924734
3153,0.0795513466
3154,-0.0220186859
3155,0.0406152941
3156,0.131186783
3157,0.117946871
3158,-0.0388745628
3159,0.371460587
3160,-0.497434556
3161,0.107954055
3162,0.0665711761
3163,-0.0996613652
3164,0.170109123
3165,0.0396019444
3166,0.107422158
3167,-0.0490418412
3168,0.116412967
3169,0.103735402
3170,-0.076425381
3171,-0.0464889333
3172,0.0990372226
3173,-0.0962169617
3174,-0.0431529507
3175,0.0845063701
3176,-0.163290396
3177,0.154484078
3178,-0.0230038557
3179,-0.706794918
3180,0.00934165437
3181,-0.361944854
3182,0.108374432
3183,-0.0711335838
3184,-0.335897028
3185,0.0919914544
3186,-0.039132975
3187,0.09347675
3188,0.174463242
3189,-0.136919886
3190,0.0196435098
3191,0.208841473
3192,0.0622791015
3193,0.0202701762
3194,0.0668781325
3195,-0.00939566828
3196,0.102376238
3197,0.0996203572
3198,-0.293628722
3199,0.104751222
3200,-0.047508847
3201,-0.0677384064
3202,0.0636680797
3203,0.0857584849
3204,0.149181038
3205,-0.0248812437
3206,0.199770138
3207,0.0888869241
3208,-0.20438844
3209,-0.2014274
3210,-0.0141687905
3211,-0.13651152
3212,0.108628258
3213,0.0509225912
3214,0.162213862
3215,-0.120365255
3216,-0.13144733
3217,0.13845475
3218,-0.360398084
3219,0.47993505
3220,0.00333746802
3221,-0.0753554106
3222,0.0547710583
3223,-0.186082423
3224,0.19789888
3225,-0.0810867921
3226,0.197689563
3227,-0.427006632
3228,-0.189908043
3229,-0.165940598
3230,-0.137481585
3231,0.0144088464
3232,-0.0930443332
3233,-0.243664533
3234,-0.00782610383
3235,-0.100853235
3236,-0.080448173
3237,0.0853745788
3238,0.0274059381
3239,0.159730196
3240,-0.00969025306
3241,-0.171439111
3242,-0.0116087738
3243,-0.196397662
3244,-0.0643717349
3245,0.473624289
3246,-0.0355962552
3247,0.290798783
3248,0.369248897
3249,0.186435223
3250,0.22185798
3251,-0.0013862265
3252,0.130244091
3253,0.0447275601
3254,-0.0964404196
3255,-0.142037883
3256,0.114102535
3257,-0.0767472535
3258,0.0460299626
3259,-0.23520644
3260,-0.135378852
3261,-0.154347047
3262,-0.0343614928
3263,0.0184928291
3264,0.114920355
3265,-0.268986106
3266,-0.0850550383
3267,-0.142074421
3268,-0.100789532
3269,-0.176118657
3270,0.737062275
3271,-0.279396057
3272,0.121307142
3273,-0.0453676619
3274,-0.0143733928
3275,0.12412256
3276,-0.0784932822
3277,0.176724508
3278,0.0555416048
3279,-0.175473124
3280,0.312662184
3281,-0.0233007874
3282,0.267708153
3283,-0.112592027
3284,0.00932233129
3285,0.0753998533
3286,0.0926175341
3287,0.247518197
3288,0.0033182425
3289,-0.00246042944
3290,-0.273296863
3291,-0.0643339306
3292,-0.182840839
3293,-0.0593888275
3294,-0.135490388
3295,-0.249450579
3296,0.0829809606
3297,0.0396264978
3298,0.133941188
3299,0.132797688
3300,-0.0575354435
3301,0.106913008
3302,0.175556466
3303,-0.217293382
3304,-0.0271494482
3305,-0.157881856
3306,-0.127475038
3307,-0.506773114
3308,-0.235317484
3309,-0.434529215
3310,0.191456765
3311,-0.0796533227
3312,-0.257012814
3313,0.130510405
3314,-0.112233803
3315,0.0887161419
3316,0.0368731469
3317,0.00893919263
3318,-0.435326457
3319,0.135106638
3320,-0.0753203556
3321,0.203134224
3322,0.0733657852
3323,-0.16568768
3324,-0.0242918693
3325,0.33300966
3326,-0.382441849
3327,-0.246774331
3328,-0.0878388658
3329,0.109409191
3330,-0.051016897
3331,0.0632769242
3332,0.0525688939
3333,-0.0764115527
3334,0.169447467
3335,-0.395017475
3336,-0.0745595023
3337,-0.0954050347
3338,-0.0492933169
3339,-0.213987872
3340,-0.169673547
3341,0.22433567
3342,-0.193631127
3343,0.0502513573
3344,-0.183943272
3345,0.05963514
3346,-0.154798627
3347,-0.213494867
3348,0.131026059
3349,-0.0653870478
3350,-0.00968691986
3351,-0.00837580673
3352,-0.000347724737
3353,-0.24911198
3354,0.0170460995
3355,0.405765891
3356,-0.131334022
3357,0.0708142295
3358,0.134494573
3359,-0.16305162
3360,0.21534811
3361,-0.0923193842
3362,-0.0359468088
3363,0.0428980887
3364,-0.052059412
3365,0.127231538
3366,0.173666418
3367,-0.0171242133
3368,0.246170178
3369,0.0731798708
3370,0.014675553
3371,0.235933229
3372,-0.0121324137
3373,0.460287452
3374,0.334067732
3375,0.0577710643
3376,0.219633803
3377,-0.0681378543
3378,-0.120543152
3379,-0.00906568486
3380,0.0448175371
3381,0.0961098
3382,-0.213649258
3383,-0.0989220887
3384,-0.171260729
3385,-0.0297476258
3386,-0.0881540403
3387,-0.320804358
3388,-0.230258077
3389,-0.0192398876
3390,-0.188945502
3391,0.0639750734
3392,-0.107479312
3393,-0.373038471
3394,0.0156904384
3395,-0.346935749
3396,-0.0870611444
3397,-0.177191272
3398,0.0274054445
3399,-0.0129532367
3400,0.061195232
3401,-0.123065092
3402,0.120220631
3403,0.391561896
3404,0.359152317
3405,-0.232835978
3406,0.287317365
3407,-0.158930421
3408,0.247706518
3409,-0.282831997
3410,-0.228934973
3411,-0.0353273824
3412,-0.15315643
3413,0.160391122
3414,-0.0680276379
3415,-0.0518367589
3416,0.149235457
3417,0.190962031
3418,-0.00818382856
3419,-0.22959806
3420,-0.466845751
3421,0.0701427236
3422,0.0638699904
3423,-0.0356308408
3424,-0.0286781136
3425,-0.133652329
3426,-0.300980031
3427,-0.0848987997
3428,-0.190831006
3429,0.364539564
3430,0.208783954
3431,0.235320851
3432,-0.480161995
3433,-0.161009312
3434,0.169559509
3435,-0.213387072
3436,0.236380368
3437,-0.228770509
3438,-0.0488937646
3439,-0.156695142
3440,-0.0348185711
3441,0.273958921
3442,-0.0888645276
3443,-0.132653609
3444,0.0457509346
3445,-0.268078119
3446,-0.575695634
3447,-0.0495561063
3448,0.109724611
3449,-0.258712202
3450,-0.0784248561
3451,0.046061907
3452,0.0721437782
3453,-0.16604206
3454,0.0664869025
3455,0.0689569712
3456,-0.377419114
3457,0.0505938567
3458,-0.203747943
3459,0.0333653837
3460,0.0611360036
3461,-0.0791503489
3462,-0.120787822
3463,0.0214542113
3464,-0.0440792628
3465,-0.150817201
3466,-0.0959320068
3467,-0.0730504319
3468,0.232763052
3469,-0.406112164
3470,-0.25323078
3471,0.0422146097
3472,0.00694472669
3473,-0.155884415
3474,0.245174006
3475,0.0492345914
3476,0.0345694013
3477,0.0882222727
3478,-0.062719509
3479,-0.103165314
3480,-0.048680298
3481,0.276333094
3482,0.116544023
3483,0.134724602
3484,-0.0516876467
3485,0.192361787
3486,0.0479312204
3487,-0.0327665545
3488,-0.141981572
3489,-0.162109256
3490,0.0846953541
3491,0.344098419
3492,0.128077209
3493,0.0334096886
3494,0.029591674
3495,0.0611053221
3496,-0.0119739939
3497,-0.0619978197
3498,-0.143112898
3499,-0.112683907
3500,-0.238928556
3501,-0.108268395
3502,-0.0427461118
3503,0.00297290273
3504,-0.208454594
3505,0.187146172
3506,0.0994276255
3507,-0.163941011
3508,0.0176451821
3509,-0.204233289
3510,-0.114966758
3511,-0.228785098
3512,-0.178139165
3513,-0.070758
3514,-0.0244379435
3515,-0.138636246
3516,0.221694067
3517,0.0995154977
3518,-0.0795166492
3519,-0.0559860468
3520,-0.162220716
3521,0.0918453261
3522,0.0950613394
3523,0.150757968
3524,-0.0132834753
3525,-0.18359594
3526,-0.00588140311
3527,0.0556487367
3528,0.0186386164
3529,-0.490379393
3530,-0.127280265
3531,-0.272440016
3532,-0.417701632
3533,-0.185859084
3534,0.0391866826
3535,-0.244691744
3536,-0.103501312
3537,0.0369573049
3538,0.0412020087
3539,0.160899997
3540,0.0651607886
3541,-0.143990874
3542,0.179454044
3543,-0.173988417
3544,0.155862138
3545,-0.0781141892
3546,0.0479223169
3547,0.0498586632
3548,-0.0638635382
3549,0.368460357
3550,0.28559342
3551,-0.011540764
3552,-0.111550145
3553,-0.1489968
3554,-0.231733188
3555,-0.189439282
3556,-0.0756594762
3557,0.17791155
3558,0.0874048248
3559,-0.236571029
3560,0.00427299691
3561,-0.163930044
3562,0.276691347
3563,-0.0367873274
3564,-0.112634234
3565,0.223456115
3566,-0.132131457
3567,0.226593494
3568,-0.0253765713
3569,-0.0766158327
3570,-0.311847419
3571,0.028709691
3572,-0.161350936
3573,0.109738775
3574,-0.237330243
3575,0.122640379
3576,0.21859546
3577,0.00943257101
3578,0.0718336999
3579,0.094892174
3580,-0.0309867524
3581,0.00199161773
3582,-0.115239017
3583,0.0776545256
3584,-0.118973911
3585,0.104966484
3586,-0.222501621
3587,0.195776835
3588,0.0134636788
3589,-0.0573134646
3590,-0.0192343295
3591,-0.135205761
3592,-0.0313488096
3593,0.220578581
3594,-0.0356206931
3595,0.0313136838
3596,-0.0131035363
3597,-0.0696045533
3598,-0.156238392
3599,-0.0375762694
3600,0.0327273943
3601,0.00877772365
3602,0.121403605
3603,-0.0860997438
3604,0.0196970087
3605,-0.0913558602
3606,-0.0155036077
3607,-0.142738
3608,-0.0312499199
3609,-0.0109009463
3610,0.0721189156
3611,0.254878134
3612,0.00261498545
3613,0.0950199813
3614,-0.177512765
3615,-0.208956897
3616,-0.0595768318
3617,-0.023104962
3618,-0.00257339561
3619,0.116624735
3620,0.0220356118
3621,0.0717981607
3622,-0.0977932811
3623,-0.263527662
3624,-0.016554255
3625,-0.207750335
3626,0.0154478094
3627,-0.144637138
3628,-0.424804151
3629,-0.176464647
3630,0.0198062379
3631,-0.0636740178
3632,0.192755461
3633,0.149745584
3634,0.0238789953
3635,0.253451556
3636,-0.0150068616
3637,-0.0598658025
3638,-0.224016517
3639,0.234835058
3640,0.157921255
3641,-0.336957604
3642,-0.111889027
3643,0.0918264836
3644,-0.0916901082
3645,0.107872918
3646,-0.0827206448
3647,0.158577845
3648,-0.321768075
3649,0.0522369817
3650,-0.0986694396
3651,-0.106093422
3652,0.264326334
3653,-0.0439957492
3654,0.020095678
3655,0.150533766
3656,-0.131880894
3657,0.236160517
3658,-0.0111777289
3659,-0.529473484
3660,0.0554115586
3661,-0.201256528
3662,-0.31851837
3663,-0.0298303459
3664,-0.15727362
3665,-0.123721056
3666,-0.261881918
3667,0.0154871419
3668,0.212288946
3669,0.0386268944
3670,-0.0797580481
3671,-0.0574830696
3672,0.0397056825
3673,-0.190895334
3674,0.084115155
3675,0.2443351
3676,0.0278307404
3677,0.0424109995
3678,0.166150719
3679,-0.121439442
3680,-0.453433543
3681,-0.0734137297
3682,-0.149185583
3683,-0.00580176339
3684,0.0110221133
3685,0.0276827812
3686,-0.22808145
3687,0.211172923
3688,-0.123544954
3689,-0.296313703
3690,0.0846847966
3691,-0.450424224
3692,-0.445846081
3693,-0.328252554
3694,-0.0677027404
3695,-0.0994045585
3696,0.0231882297
3697,-0.142498732
3698,0.123256579
3699,0.0874785334
3700,-0.0734523609
3701,-0.193682969
3702,0.0811215043
3703,0.164923742
3704,-0.0975163728
3705,-0.44830963
3706,-0.0225241985
3707,0.242046297
3708,0.0247195065
3709,0.216896921
3710,-0.0823365152
3711,-0.122940496
3712,0.159283996
3713,-0.0261913333
3714,0.0525999852
3715,0.087751016
3716,-0.063168101
3717,-0.00575908041
3718,-0.38597092
3719,0.357409418
3720,-0.0123167913
3721,0.112261802
3722,-0.155472398
3723,0.0813548639
3724,-0.0593053587
3725,0.00665049953
3726,-0.0228960011
3727,0.0867416561
3728,-0.303533554
3729,-0.0431628861
3730,0.288840383
3731,-0.424489588
3732,0.0255875289
3733,-0.119590908
3734,-0.0401722305
3735,-0.314029038
3736,-0.0756846368
3737,-0.0914440006
3738,-0.0754787549
3739,0.0447787903
3740,-0.0160449836
3741,-0.22581026
3742,0.0106739374
3743,0.0601055697
3744,-0.0986175686
3745,0.137952447
3746,0.0178595986
3747,0.124849156
3748,0.11796163
3749,-0.0266327783
3750,0.324216098
3751,-0.0357368067
3752,0.276300341
3753,0.0327520929
3754,-0.164638177
3755,0.020592723
3756,-0.0768610761
3757,0.300481945
3758,-0.179170355
3759,-0.109637737
3760,0.22443758
3761,-0.130048513
3762,0.202733427
3763,0.0918354541
3764,0.0832455233
3765,-0.151191875
3766,-0.14372319
3767,-0.225821301
3768,0.0246182531
3769,-0.184898004
3770,-0.00783885457
3771,-0.0931897387
3772,-0.0178497378
3773,0.0782641694
3774,0.297902614
3775,0.137578338
3776,0.147295982
3777,-0.199402466
3778,0.0897780433
3779,-0.337740839
3780,0.0627914816
3781,0.0787759423
3782,-0.422857195
3783,0.0569391474
3784,-0.226001874
3785,-0.24663417
3786,0.139976397
3787,0.130671695
3788,0.215247154
3789,0.0750080198
3790,0.0768655017
3791,-0.225570112
3792,-0.13540493
3793,-0.44765386
3794,0.367871255
3795,-0.170740813
3796,-0.143028975
3797,0.065047048
3798,0.20500733
3799,-0.0938175768
3800,0.764553547
3801,-0.00936964341
3802,-0.172585368
3803,-0.138772815
3804,-0.172673851
3805,0.039607428
3806,-0.318865806
3807,0.066560261
3808,-0.103905514
3809,-0.13849099
3810,-0.0835637599
3811,-0.0451879352
3812,-0.0389084145
3813,-0.0447181687
3814,-0.0287238769
3815,-0.125743687
3816,-0.0388952456
3817,0.272600621
3818,0.297118783
3819,-0.420942336
3820,-0.0360872224
3821,-0.495189071
3822,0.105595291
3823,-0.164576456
3824,-0.639485896
3825,0.0645054877
3826,0.0771901831
3827,0.0933864713
3828,0.121990263
3829,-0.0551753901
3830,-0.0152070988
3831,-0.168702304
3832,0.00426616985
3833,-0.151891381
3834,-0.0890191793
3835,0.154010355
3836,-0.0288743116
3837,-0.203386486
3838,-0.11656972
3839,0.157915771
3840,-0.0310994163
3841,-0.160454035
3842,-0.0828760043
3843,-0.0592096783
3844,0.0858863071
3845,-0.30756098
3846,0.409937888
3847,-0.176775903
3848,-0.0455407239
3849,-0.108645126
3850,0.10850393
3851,0.248943791
3852,0.303132445
3853,-0.0748318881
3854,0.0263178982
3855,-0.0923028365
3856,0.242125407
3857,-0.287289053
3858,0.020480765
3859,0.123751201
3860,0.175784171
3861,0.319088995
3862,0.0915462971
3863,-0.203497514
3864,0.0196446087
3865,0.220408663
3866,-0.126362965
3867,-0.0192265995
3868,-0.104069486
3869,-0.340964794
3870,-0.29504931
3871,-0.129076898
3872,0.178759396
3873,-0.292463899
3874,0.0236268938
3875,0.0959149376
3876,-0.091326572
3877,0.161203519
3878,-0.0924679413
3879,-0.0378486663
3880,-0.0905926526
3881,0.156997353
3882,-0.162614629
3883,0.235663652
3884,0.201676548
3885,-0.235695854
3886,-0.161533162
3887,0.0599465109
3888,-0.064903453
3889,-0.396615744
3890,0.516314209
3891,-0.0526351891
3892,-0.0479399636
3893,-0.169666871
3894,-0.238427997
3895,-0.0703491196
3896,0.179334298
3897,0.0509621464
3898,-0.00170871289
3899,0.0480052009
3900,0.167208031
3901,0.0202004667
3902,-0.0815125853
3903,-0.153122723
3904,0.0718821287
3905,-0.124359533
3906,-0.223888293
3907,0.00122473633
3908,-0.201683298
3909,-0.130485117
3910,-0.0173031166
3911,-0.335351318
3912,0.147843689
3913,-0.203817561
3914,0.0626663864
3915,0.307666719
3916,0.210380524
3917,0.274072677
3918,0.0214428324
3919,-0.169396624
3920,0.0289831962
3921,-0.527932823
3922,0.0430732556
3923,-0.0864522681
3924,0.100123793
3925,-0.175317094
3926,-0.0445783176
3927,0.198839203
3928,-0.066635929
3929,0.0184177589
3930,0.199836478
3931,-0.314051718
3932,-0.364789844
3933,-0.106341138
3934,0.0405683778
3935,-0.0311076883
3936,-0.0665459931
3937,-0.0456951186
3938,-0.203700647
3939,0.00677518966
3940,0.272866398
3941,-0.104375355
3942,0.254649192
3943,0.232061893
3944,-0.136095434
3945,0.0466133095
3946,-0.0318214521
3947,-0.115379557
3948,-0.0477495268
3949,0.111315355
3950,0.232697412
3951,0.186105683
3952,0.247419626
3953,-0.0369702019
3954,0.166520491
3955,-0.192164645
3956,0.014023955
3957,0.0926475674
3958,0.0957823247
3959,0.274031371
3960,-0.0399407521
3961,-0.047596164
3962,-0.0521939844
3963,-0.0190966409
3964,0.0414619595
3965,-0.0842607319
3966,-0.0443990156
3967,-0.0140222982
3968,0.0462902933
3969,0.0503968671
3970,-0.144957468
3971,0.0238313973
3972,-0.211056128
3973,0.0747252405
3974,0.124056526
3975,0.118657976
3976,0.138402432
3977,-0.0502933487
3978,-0.0496711694
3979,-0.000908343121
3980,0.184332952
3981,0.0221997853
3982,-0.0145642869
3983,-0.0550199673
3984,-0.301181495
3985,-0.00941955578
3986,-0.115635686
3987,0.120179892
3988,-0.0637819022
3989,0.125894144
3990,0.0494124405
3991,-0.0788620263
3992,-0.248459071
3993,0.0434482619
3994,0.215582386
3995,-0.265663177
3996,-0.0934516713
3997,-0.106293447
3998,0.109062724
3999,0.150288522
4000,0.0280258395
4001,0.13468416
4002,0.081388548
4003,-0.231595129
4004,0.0990180448
4005,0.106284544
4006,-0.2040755
4007,-0.16763787
4008,0.0888028145
4009,0.021210622
4010,0.0457699411
4011,0.0586215854
4012,-0.212750793
4013,-0.41585654
4014,0.532042086
4015,-0.252055764
4016,0.13667345
4017,0.207477301
4018,-0.169418916
4019,-0.0188899338
4020,0.118017651
4021,0.168507457
4022,-0.0331376716
4023,-0.170812801
4024,-0.150991455
4025,0.0552080832
4026,-0.025112018
4027,-0.429589123
4028,-0.0821777955
4029,-0.0744616538
4030,-0.0313010663
4031,0.151312113
4032,-0.116857588
4033,0.00399162946
4034,-0.333356738
4035,0.0106681623
4036,-0.209429026
4037,-0.193057016
4038,-0.10969948
4039,-0.284600228
4040,-0.131147102
4041,-0.210949183
4042,0.0199292507
4043,0.171634451
4044,0.044325877
4045,0.416075051
4046,0.146894887
4047,-0.103836104
4048,0.00952885486
4049,-0.453174442
4050,-0.137999684
4051,0.0895546451
4052,-0.0122919176
4053,-0.133500934
4054,0.178304777
4055,0.200172871
4056,-0.0342622772
4057,0.0444697142
4058,-0.0961212814
4059,0.0397659317
4060,-0.346174359
4061,0.024228394
4062,-0.0329692475
4063,-0.332697362
4064,0.0406249985
4065,-0.0776872635
4066,-0.130007952
4067,-0.113820195
4068,0.0590617284
4069,-0.0775376931
4070,-0.141696081
4071,0.0315439962
4072,-0.295172542
4073,0.0254777819
4074,0.214031696
4075,-0.133802354
4076,0.0917982534
4077,0.00986078568
4078,0.119476788
4079,0.17521359
4080,0.19368428
4081,-0.268216848
4082,0.0895950943
4083,-0.170488924
4084,-0.0241815317
4085,0.0277223084
4086,-0.0152270505
4087,0.251309395
4088,0.130509421
4089,0.0565992631
4090,-0.00579311699
4091,0.0436999276
4092,-0.199242011
4093,-0.234796554
4094,-0.207809404
4095,-0.0617951006
4096,0.0678422004
4097,0.0270013195
4098,0.075805068
4099,0.034223292
4100,0.0858125389
4101,0.0824974999
4102,-0.237213999
4103,0.142997131
4104,0.048307348
4105,0.325549662
4106,-0.341372907
4107,-0.0127747757
4108,-0.0318833441
4109,-0.0864526778
4110,0.113831714
4111,0.174296767
4112,0.0253213327
4113,0.0549324155
4114,-0.0515361167
4115,-0.168588713
4116,0.00378618878
4117,0.17124939
4118,0.10861408
4119,0.22687903
4120,-0.163309097
4121,-0.084794499
4122,0.205698222
4123,0.0986059979
4124,-0.260948002
4125,0.230999053
4126,-0.151429087
4127,0.170291841
4128,-0.072314553
4129,-0.0491794124
4130,-0.0167206842
4131,0.168635473
4132,-0.00818996411
4133,-0.00287731877
4134,-0.22300528
4135,-0.0180159323
4136,0.111514054
4137,0.189780459
4138,0.197048694
4139,0.166711837
4140,0.00222112471
4141,-0.085240826
4142,-0.0137648191
4143,-0.115795977
4144,-0.0679508075
4145,-0.352871895
4146,-0.0225561243
4147,0.136846691
4148,0.0556603149
4149,0.0457605869
4150,0.0233397894
4151,0.0796258673
4152,-0.110174663
4153,-0.0545965806
4154,0.0359784961
4155,0.327246517
4156,-0.159393564
4157,-0.182631657
4158,0.152601376
4159,-0.0964449346
4160,-0.269839942
4161,-0.113283716
4162,-0.220386058
4163,0.062491294
4164,-0.035290774
4165,-0.054778371
4166,0.230996668
4167,0.0697446764
4168,-0.108323365
4169,-0.277653396
4170,-0.0554170012
4171,-0.183098957
4172,-0.293089449
4173,0.216110706
4174,-0.313799411
4175,0.310699522
4176,0.0258438643
4177,-0.342413217
4178,0.0453379005
4179,0.0167799015
4180,0.0109018674
4181,0.0172447059
4182,0.181666508
4183,0.338307649
4184,-0.611491799
4185,0.0330706798
4186,0.410815805
4187,0.190011382
4188,-0.178319037
4189,-0.14110966
4190,-0.0909384489
4191,-0.188861161
4192,-0.0352305509
4193,0.00454591494
4194,-0.143167406
4195,0.279678017
4196,0.15163736
4197,0.0550585687
4198,0.0944655538
4199,0.0678192601
4200,-0.113811962
4201,-0.193389922
4202,0.17413412
4203,0.09707506
4204,-0.247695521
4205,-0.183406442
4206,-0.1426588
4207,-0.0522511378
4208,-0.227652952
4209,0.0155716324
4210,0.273659974
4211,-0.0185970161
4212,0.0832167193
4213,-0.233090982
4214,0.216194004
4215,0.49075979
4216,-0.0848301873
4217,-0.282459289
4218,-0.0820878446
4219,-0.129425704
4220,-0.211502299
4221,0.0352100842
4222,0.483670563
4223,-0.153359309
4224,0.383101016
4225,0.213031203
4226,0.0203640107
4227,-0.223418742
4228,0.0386081226
4229,-0.165359005
4230,0.164793551
4231,-0.0396387801
4232,-0.0123217534
4233,0.244915873
4234,0.0479585417
4235,0.01131899
4236,0.0263934359
4237,-0.283600658
4238,0.253660589
4239,0.128348142
4240,-0.29562366
4241,-0.0750897601
4242,0.136055797
4243,-0.184977785
4244,0.0823308751
4245,-0.212854803
4246,0.0688492954
4247,0.0960830376
4248,0.0504531786
4249,0.0741855651
4250,-0.0456118882
4251,-0.118575417
4252,-0.354192883
4253,-0.0923865885
4254,-0.143440619
4255,0.159737438
4256,-0.218405455
4257,-0.0134271868
4258,0.0599080101
4259,-0.278014749
4260,0.0731672868
4261,0.0866187885
4262,0.336073011
4263,-0.0209383108
4264,0.471989214
4265,0.0653938279
4266,-0.102998003
4267,0.115560569
4268,0.0238126051
4269,0.0877915174
4270,-0.311200321
4271,-0.188033909
4272,0.249597371
4273,-0.109165043
4274,-0.0283861682
4275,0.125131443
4276,0.12699461
4277,0.00452583283
4278,0.0317572504
4279,-0.108906738
4280,-0.222547099
4281,-0.0642841384
4282,0.193276703
4283,-0.0254745595
4284,-0.207240969
4285,0.0601195581
4286,-0.00163517508
4287,-0.0696915388
4288,-0.29652831
4289,0.587648034
4290,-0.116659321
4291,0.129349574
4292,-0.0994973183
4293,0.170487314
4294,-0.305544257
4295,-0.479211211
4296,-0.17113626
4297,0.57025063
4298,0.0323297158
4299,0.0557051636
4300,0.050537657
4301,0.161425054
4302,-0.166524082
4303,-0.542349398
4304,-0.187693238
4305,0.191950694
4306,0.0787937418
4307,0.066696316
4308,0.100457139
4309,0.282891542
4310,0.0616768152
4311,-0.304797798
4312,0.235128239
4313,0.314833611
4314,0.126678422
4315,-0.157190099
4316,-0.0442744233
4317,-0.181915849
4318,-0.0358320549
4319,-0.0647340566
4320,-0.157824054
4321,1.26074883e-05
4322,-0.121132463
4323,-0.204380468
4324,0.0588912331
4325,0.0375590771
4326,0.198302135
4327,0.0693883747
4328,0.0363572612
4329,-0.434406102
4330,-0.250474095
4331,-0.289227098
4332,0.0235478152
4333,-0.146974996
4334,0.154383391
4335,0.295673877
4336,0.434199721
4337,0.162777781
4338,-0.279615253
4339,-0.112023905
4340,-0.0227741264
4341,0.021781899
4342,-0.216144636
4343,0.0908752456
4344,0.0792204961
4345,-0.0792856514
4346,-0.0789014548
4347,-0.426103771
4348,0.0314319022
4349,-0.0229001138
4350,0.168162078
4351,0.2715756
4352,-0.315710604
4353,0.156336248
4354,-0.0771446526
4355,0.0822406039
4356,-0.218733966
4357,-0.168755382
4358,0.130182013
4359,-0.132485256
4360,0.0862169117
4361,-0.0502706617
4362,-0.198196307
4363,-0.351302981
4364,-0.0240689814
4365,-0.246599123
4366,0.147469267
4367,-0.0831306279
4368,0.305636674
4369,0.488675028
4370,-0.121032529
4371,0.0252034012
4372,-0.150685996
4373,0.020970555
4374,0.0578039959
4375,0.332722336
4376,-0.0175697487
4377,0.087698333
4378,-0.358348638
4379,-0.0963699296
4380,0.193106443
4381,0.054549735
4382,0.0935815349
4383,-0.160210654
4384,-0.13519007
4385,-0.223515823
4386,-0.238478914
4387,0.152790949
4388,0.0517124571
4389,-0.13734071
4390,0.0141244205
4391,0.272652864
4392,-0.123339541
4393,0.0992949829
4394,0.06162709
4395,-0.18472591
4396,-0.0276777912
4397,0.608541846
4398,0.0338931978
4399,-0.181641653
4400,0.174399421
4401,0.243716389
4402,-0.161178991
4403,-0.171078756
4404,0.00544532016
4405,0.263726532
4406,0.0119315917
4407,-0.017840283
4408,0.258349627
4409,0.34986791
4410,-0.33956331
4411,-0.0968682319
4412,-0.0892523155
4413,0.0226311646
4414,-0.0159193091
4415,0.458758533
4416,-0.0873235464
4417,-0.0590393096
4418,0.255935818
4419,-0.0612751059
4420,-0.355219662
4421,0.262642831
4422,-0.127299279
4423,0.600513816
4424,-0.170325339
4425,-0.0512691438
4426,-0.370293796
4427,0.116559945
4428,0.0808458328
4429,-0.300564736
4430,-0.0423975252
4431,0.181287423
4432,-0.259990782
4433,0.0493193045
4434,-0.0113453139
4435,-0.175236255
4436,-0.173926666
4437,-0.0311707649
4438,-0.179267287
4439,-0.0594365895
4440,-0.0777017549
4441,-0.0405207127
4442,-0.32643801
4443,-0.246993348
4444,-0.0310095809
4445,0.108703606
4446,0.188167706
4447,-0.205743983
4448,-0.343280196
4449,0.0329054892
4450,0.0946005881
4451,0.0130618047
4452,-0.115417585
4453,0.207561329
4454,-0.0122771356
4455,-0.029582696
4456,-0.0210386571
4457,0.0140164271
4458,-0.289023608
4459,-0.09126921
4460,0.0129292347
4461,0.0571145378
4462,-0.286646307
4463,-0.22222814
4464,-0.0982772037
4465,0.246512517
4466,0.152626351
4467,-0.156327218
4468,0.0842772201
4469,-0.0772756115
4470,-0.262626678
4471,-0.171532616
4472,-0.139454544
4473,-0.0387443751
4474,0.0371428728
4475,0.205152303
4476,0.0463270545
4477,0.142193243
4478,-0.129410312
4479,-0.0305203255
4480,-0.0265860148
4481,-0.01794241
4482,-0.256640732
4483,-0.311424404
4484,-0.116127193
4485,0.155204743
4486,0.0880444124
4487,0.0590948462
4488,-0.0459353775
4489,0.134196699
4490,-0.0770509243
4491,-0.209094793
4492,-0.0682444349
4493,0.339385688
4494,0.171019539
4495,-0.260309339
4496,-0.11229229
4497,0.129608154
4498,-0.00180217205
4499,-0.171172276
4500,-0.0506818704
4501,0.086711064
4502,0.0882149339
4503,-0.0919941589
4504,-0.042957183
4505,-0.0935704187
4506,-0.0579820871
4507,0.092678234
4508,-0.259041131
4509,0.0026839145
4510,0.0613223873
4511,0.349387795
4512,-0.147878066
4513,-0.046476718
4514,0.148556709
4515,0.179511473
4516,-0.0592585951
4517,0.0908354521
4518,-0.0880722851
4519,-0.179339439
4520,0.12855041
4521,0.164991409
4522,0.166720167
4523,-0.154987782
4524,-0.0795198306
4525,-0.300536036
4526,0.0498079695
4527,-0.227252722
4528,-0.0775310919
4529,-0.235874981
4530,-0.0107425721
4531,0.0917663127
4532,0.0543358773
4533,-0.409910887
4534,0.145815581
4535,0.517844915
4536,-0.20379588
4537,0.0227156337
4538,0.365025669
4539,0.1738462
4540,-0.0508617982
4541,-0.379140586
4542,0.036365699
4543,-0.182708874
4544,-0.042968303
4545,-0.0371325128
4546,0.213091016
4547,-0.0557986386
4548,0.00578865409
4549,0.097875163
4550,-0.159743696
4551,-0.206059396
4552,0.0771287978
4553,0.222723901
4554,0.11861863
4555,0.0949054882
4556,-0.0848696381
4557,0.0565621555
4558,-0.00975410454
4559,0.152494341
4560,-0.259195656
4561,0.235771969
4562,0.162873566
4563,-0.0761856958
4564,0.101992428
4565,-0.0252681095
4566,0.12130224
4567,-0.305110276
4568,0.183988243
4569,-0.0553762913
4570,0.08195398
4571,0.172016725
4572,0.00290181534
4573,0.125587687
4574,-0.250139385
4575,-0.218315691
4576,0.0662217215
4577,0.114992678
4578,-0.135203272
4579,-0.0590289235
4580,-0.0683106035
4581,-0.041664023
4582,0.0493931063
4583,0.229817435
4584,0.368895233
4585,0.288325936
4586,-0.0683378503
4587,-0.00302635203
4588,-0.107017986
4589,0.0989320129
4590,-0.135160625
4591,-0.152595133
4592,0.139520213
4593,0.0866776034
4594,-0.238743812
4595,-0.0967190489
4596,0.228608117
4597,-0.338206321
4598,-0.0544955097
4599,0.017743662
4600,-0.172525793
4601,0.157742277
4602,0.204411149
4603,-0.219605759
4604,-0.137930125
4605,-0.0116355065
4606,0.038011875
4607,0.137343705
4608,-0.314276785
4609,-0.164414808
4610,0.154073536
4611,-0.0116220247
4612,-0.0023413864
4613,0.03416688
4614,-0.119683705
4615,-0.0915535465
4616,-0.0686578676
4617,0.10887257
4618,0.142824233
4619,0.054126367
4620,-0.285059273
4621,-0.412564337
4622,-0.0853249803
4623,-0.0725127831
4624,-0.144113511
4625,-0.0161408372
4626,-0.148447707
4627,0.13817434
4628,0.313418806
4629,-0.0584511124
4630,-0.129132897
4631,0.256877959
4632,0.113775209
4633,0.107042037
4634,0.18953082
4635,0.00674636709
4636,-0.284556091
4637,-0.202838957
4638,-0.0225719009
4639,-0.0681200773
4640,0.0906273946
4641,0.213326976
4642,-0.124299809
4643,-0.254695326
4644,0.130255848
4645,-0.385612816
4646,0.0340640508
4647,0.131744146
4648,0.0606064461
4649,0.0108720483
4650,-0.315470606
4651,-0.104957245
4652,-0.222453326
4653,0.159087509
4654,0.443891853
4655,0.289135754
4656,0.175370306
4657,-0.315720081
4658,0.121574938
4659,0.144214138
4660,-0.024228774
4661,0.139182702
4662,0.0906025097
4663,0.0208506398
4664,-0.149218097
4665,0.0378483236
4666,0.0583561696
4667,0.101770565
4668,0.137829989
4669,0.172857776
4670,-0.13633202
4671,-0.0925977603
4672,-0.0999575332
4673,0.0643555447
4674,0.120528199
4675,-0.231352478
4676,0.0860265121
4677,-0.163635373
4678,0.0595046021
4679,0.0388543084
4680,0.218107909
4681,-0.302012682
4682,-0.570033371
4683,0.0542861819
4684,0.170384958
4685,-0.432821333
4686,-0.0429823585
4687,-0.117514051
4688,-0.235564455
4689,-0.0839761272
4690,0.152429387
4691,0.254617274
4692,0.219404444
4693,-0.22457163
4694,-0.148729131
4695,-0.00464432593
4696,0.0237351134
4697,-0.0646105111
4698,-0.145035207
4699,0.0667532757
4700,-0.109157845
4701,0.318224013
4702,0.0378054641
4703,0.0151094971
4704,-0.0192439239
4705,-0.143085867
4706,-0.120881766
4707,0.134822011
4708,-0.0881564841
4709,-0.131630108
4710,0.047807321
4711,0.0632208809
4712,0.205396682
4713,0.0359112062
4714,0.324336022
4715,0.031554319
4716,-0.0701406822
4717,0.163631588
4718,-0.0677948222
4719,-0.23274599
4720,0.0440038368
4721,0.267294079
4722,-0.00298150722
4723,-0.0981492028
4724,-0.226211056
4725,-0.284583479
4726,0.17687951
4727,0.0170176886
4728,-0.230200097
4729,0.0347875133
4730,0.26591444
4731,-0.116684638
4732,-0.0969072357
4733,-0.164758369
4734,0.500500977
4735,-0.13912861
4736,-0.0305514634
4737,0.249713957
4738,0.195125818
4739,-0.212378323
4740,-0.0766952038
4741,0.0214457978
4742,-0.207513452
4743,-0.401136994
4744,-0.183857441
4745,-0.0992250443
4746,-0.0783970132
4747,-0.0890673473
4748,-0.0588109232
4749,0.116334535
4750,-0.174171448
4751,0.0127135115
4752,-0.361932397
4753,-0.0671807751
4754,-0.432046264
4755,0.0198794547
4756,-0.15395163
4757,-0.0320117176
4758,-0.119760767
4759,-0.183012128
4760,-0.214428499
4761,0.0731021315
4762,-0.0539679863
4763,-0.107016422
4764,-0.267788768
4765,0.0857327878
4766,0.271790385
4767,0.0270179249
4768,-0.106519088
4769,-0.133140683
4770,-0.39889285
4771,0.242614701
4772,0.0853319839
4773,-0.012017265
4774,0.0431805253
4775,-0.262108564
4776,-0.00393796712
4777,0.0263626203
4778,-0.0393415838
4779,-0.0441042036
4780,0.052738227
4781,0.176083684
4782,-0.188914761
4783,-0.181256756
4784,-0.0295108836
4785,0.442564607
4786,0.106547117
4787,-0.166803762
4788,0.0155809438
4789,-0.00811738521
4790,-0.139037639
4791,0.161284775
4792,0.362235188
4793,0.125791177
4794,-0.0427759551
4795,0.0687783062
4796,-0.217479751
4797,0.0121786296
4798,0.210658401
4799,0.16763328
4800,0.147190556
4801,0.206349686
4802,-0.0752578899
4803,-0.107275881
4804,0.0590013228
4805,0.0512340553
4806,-0.25543803
4807,0.0908386186
4808,0.12163838
4809,0.423947066
4810,0.110555664
4811,0.0218850635
4812,0.178201869
4813,-0.479629695
4814,0.0110551091
4815,-0.0661004782
4816,-0.337380081
4817,-0.258021683
4818,-0.0283362661
4819,0.0878752097
4820,0.17004022
4821,-0.20823276
4822,-0.447595119
4823,0.0705320835
4824,0.126462013
4825,-0.0238232985
4826,-0.0242670234
4827,-0.010453037
4828,0.0677121654
4829,-0.159259379
4830,0.0738470703
4831,-0.132125914
4832,-0.196715757
4833,-0.115511864
4834,0.0450689681
4835,0.235931516
4836,0.354074031
4837,-0.0748774409
4838,-0.256703734
4839,-0.040591456
4840,-0.35983929
4841,-0.117313355
4842,0.094451353
4843,0.169300854
4844,0.0822423324
4845,0.385987967
4846,-0.31005615
4847,-0.468368202
4848,-0.00967465527
4849,-0.035810031
4850,-0.182418063
4851,-0.00425816514
4852,0.230971411
4853,-0.0640432388
4854,-0.258035362
4855,0.0551373661
4856,-0.319023311
4857,0.0561338738
4858,-0.121184334
4859,0.0545368791
4860,-0.00950222556
4861,-0.0106867515
4862,0.127404511
4863,-0.112149753
4864,-0.0398544371
4865,-0.103096187
4866,-0.0651474968
4867,0.0293913074
4868,-0.27515915
4869,-0.101944439
4870,-0.241374612
4871,-0.120348699
4872,-0.0845794901
4873,-0.20698908
4874,0.237130091
4875,0.178540453
4876,0.251532674
4877,-0.279702812
4878,-0.395045966
4879,-0.0982700437
4880,-0.0996795967
4881,0.0100076469
4882,-0.220527709
4883,-0.245768622
4884,0.203407079
4885,-0.0606502704
4886,-0.0879324824
4887,-0.0840745345
4888,0.0927246436
4889,-0.165534571
4890,-0.22401762
4891,0.203260973
4892,-0.031527698
4893,-0.119276546
4894,-0.0964659378
4895,-0.0469046719
4896,0.0821203813
4897,0.084151417
4898,0.293464452
4899,-0.462619185
4900,0.143923029
4901,0.185202658
4902,0.167805821
4903,-0.436021119
4904,0.00872808881
4905,-0.182136804
4906,0.0396801159
4907,0.152006835
4908,-0.112984248
4909,-0.0389773846
4910,0.149812952
4911,0.102081276
4912,0.295603782
4913,-0.362367332
4914,-0.14196676
4915,-0.0795588493
4916,-0.170966983
4917,-0.0895737186
4918,-0.0553453118
4919,0.0626748726
4920,-0.145469353
4921,0.0126784006
4922,0.2068744
4923,0.168902665
4924,-0.286127508
4925,0.232459754
4926,-0.134042591
4927,-0.341627538
4928,-0.0414370522
4929,-0.10170079
4930,0.183012247
4931,-0.023928836
4932,-0.0286467485
4933,0.155624941
4934,0.24894613
4935,0.0935886577
4936,0.0697777271
4937,0.00873787235
4938,-0.00474585872
4939,0.40358758
4940,0.220981672
4941,-0.223608911
4942,-0.0945666879
4943,-0.0625860691
4944,0.165342838
4945,-0.234132648
4946,-0.121060438
4947,-0.0418262519
4948,0.195733428
4949,0.0567030273
4950,-0.0931406319
4951,-0.295102805
4952,0.0399622954
4953,0.12716113
4954,0.148904279
4955,-0.00754631683
4956,0.142686993
4957,-0.121153973
4958,0.0908659771
4959,-0.306258202
4960,0.061806798
4961,0.180761442
4962,-0.691638052
4963,-0.158095405
4964,0.126234561
4965,0.000685518433
4966,-0.245472744
4967,-0.0311583895
4968,0.00748245232
4969,-0.301963389
4970,0.217237115
4971,0.177262053
4972,-0.101996437
4973,-0.164952189
4974,-0.102334403
4975,0.110917971
4976,-0.352877051
4977,-0.135889933
4978,0.0230730884
4979,-0.149642795
4980,-0.026683772
4981,-0.334852755
4982,0.317013115
4983,0.0903857127
4984,-0.17186287
4985,0.441403419
4986,-0.129046604
4987,0.258343637
4988,0.0890936777
4989,-0.0559487939
4990,-0.237003893
4991,0.199637517
4992,-0.0354790874
4993,-0.0115492344
4994,0.1380831
4995,0.0192049146
4996,-0.074483633
4997,-0.214491308
4998,0.0114408657
4999,0.0306579228
5000,0.0229359493
5001,-0.100044705
5002,-0.077328898
5003,0.120212518
5004,0.0965337828
5005,-0.375758678
5006,0.0250667166
5007,-0.0895346776
5008,0.126793161
5009,-0.160965547
5010,0.330955565
5011,0.111623056
5012,0.0500587262
5013,-0.288150877
5014,0.104395814
5015,-0.086722523
5016,0.0828439817
5017,0.0581829436
5018,-0.00234777527
5019,0.220170915
5020,0.0157734007
5021,-0.0339258425
5022,-0.17481707
5023,-0.0802447274
5024,-0.101159826
5025,0.0719863325
5026,0.0825888366
5027,-0.0283996426
5028,0.0960550234
5029,0.232467383
5030,0.28468591
5031,0.0937515944
5032,0.0397079997
5033,-0.237945274
5034,-0.161315471
5035,0.150555149
5036,0.00821043272
5037,-0.0156876594
5038,-0.153609589
5039,0.119085111
5040,0.298919082
5041,0.00336352293
5042,-0.0108200507
5043,-0.255031705
5044,-0.0028017892
5045,-0.1901142
5046,-0.193749145
5047,0.0203406569
5048,0.0194587931
5049,0.00408626953
5050,0.382277787
5051,0.125463188
5052,0.230969667
5053,0.00834731758
5054,-0.069070369
5055,-0.260509521
5056,-0.0841507837
5057,-0.121275559
5058,-0.133563608
5059,0.0671744123
5060,0.0538107976
5061,-0.0988318771
5062,0.18346034
5063,-0.266013891
5064,-0.0780669749
5065,0.238669932
5066,0.121486418
5067,-0.15528439
5068,-0.0899269879
5069,0.700114369
5070,-0.110627808
5071,0.110633783
5072,0.00536669046
5073,0.0840127468
5074,-0.0904925466
5075,-0.268985927
5076,0.305492371
5077,0.112546667
5078,-0.106771968
5079,0.458624899
5080,0.0156497136
5081,-0.0417484939
5082,-0.00914665684
5083,0.0294913575
5084,-0.194758385
5085,-0.0456567332
5086,-0.129563555
5087,-0.116104148
5088,0.125595957
5089,0.0128225638
5090,-0.0338692293
5091,-0.173446745
5092,0.177423
5093,-0.153791711
5094,-0.106396019
5095,-0.00780526036
5096,-0.121612668
5097,0.134237275
5098,0.162243888
5099,0.0156056732
5100,0.318494052
5101,0.02182878
5102,-0.0521873608
5103,-0.148586959
5104,-0.303538114
5105,0.0653849319
5106,0.0787708759
5107,0.232848182
5108,-0.119838841
5109,-0.0698383003
5110,-0.134984553
5111,-0.0717543885
5112,-0.12546733
5113,0.266540051
5114,0.162775367
5115,-0.168952644
5116,-0.0235338006
5117,0.0864374563
5118,0.0752476528
5119,-0.0919118598
5120,-0.159540117
5121,-0.141504899
5122,-0.348359555
5123,-0.0538558327
5124,-0.133375049
5125,0.125075623
5126,0.233259603
5127,-0.197607711
5128,-0.138646975
5129,0.130226076
5130,-0.00323150796
5131,0.0768406689
5132,0.00626841187
5133,0.214525297
5134,-0.0948123261
5135,0.0946178362
5136,-0.107107416
5137,0.376253903
5138,-0.175025553
5139,-0.0262914114
5140,0.14929311
5141,0.0776918903
5142,0.0400318652
5143,-0.298044533
5144,-0.053754881
5145,0.14359194
5146,0.0969459787
5147,0.0127705839
5148,-0.0790415928
5149,-0.123592451
5150,-0.0520168878
5151,0.149108455
5152,-0.016687667
5153,0.439222008
5154,-0.110617861
5155,0.0765634924
5156,-0.193781614
5157,0.0462440774
5158,0.0668282732
5159,0.0545663573
5160,-0.016020475
5161,0.0268262979
5162,-0.170017153
5163,-0.135441408
5164,0.111269996
5165,-0.0270025302
5166,0.141075283
5167,-0.144086614
5168,-0.1909796
5169,0.115901865
5170,0.228416204
5171,-0.298016429
5172,-0.132360712
5173,-0.0864288211
5174,-0.0875981525
5175,0.15113686
5176,-0.0861137435
5177,-0.0949161649
5178,0.0770806521
5179,0.11314825
5180,0.28214097
5181,-0.0160460081
5182,-0.0919702575
5183,0.17304939
5184,0.136613384
5185,-0.0710175186
5186,-0.188212916
5187,0.0156515371
5188,-0.24869433
5189,0.209447622
5190,-0.168524399
5191,-0.138219625
5192,0.093800202
5193,0.409651369
5194,0.172202468
5195,-0.0167974811
5196,-0.14891614
5197,0.162684813
5198,-0.229582697
5199,-0.215209275
5200,0.0745101795
5201,-0.0513251983
5202,0.0667017773
5203,0.210678399
5204,0.113865979
5205,-0.0803671554
5206,-0.0401630439
5207,0.151080757
5208,-0.407017797
5209,0.0862494037
5210,0.119760022
5211,-0.16742596
5212,-0.0795646235
5213,-0.0806080028
5214,-0.102558821
5215,-0.0156261791
5216,0.0315621495
5217,-0.290956885
5218,-0.19686009
5219,-0.0623926148
5220,-0.0642801598
5221,-0.00912225712
5222,0.0398530252
5223,0.242384538
5224,-0.14692679
5225,-0.115118086
5226,0.0125860637
5227,-0.293416142
5228,-0.319185615
5229,0.140893057
5230,-0.120694302
5231,0.0625126734
5232,0.0160561707
5233,0.158251613
5234,0.172699019
5235,0.0110934414
5236,0.0756652504
5237,-0.0416817367
5238,0.2122273
5239,-0.203359097
5240,-0.157620192
5241,0.210011333
5242,-0.134790018
5243,0.174702182
5244,0.0786046535
5245,-0.209144175
5246,-0.390440404
5247,0.348140985
5248,-0.0679891109
5249,0.0120680695
5250,0.0630060732
5251,0.00769082224
5252,-0.23182632
5253,0.0723626688
5254,-0.103311017
5255,-0.109767735
5256,-0.0193758905
5257,-0.160410374
5258,-0.00527555961
5259,0.138322428
5260,-0.267318666
5261,-0.417380959
5262,-0.0676669925
5263,0.00718481606
5264,-0.224242985
5265,-0.2716631
5266,-0.0253729057
5267,0.0791364238
5268,0.130554184
5269,-0.255035073
5270,0.0204782076
5271,0.013210386
5272,0.0912889987
5273,0.0680907816
5274,0.357836932
5275,0.027852878
5276,0.0497006811
5277,-0.0751826242
5278,0.173806116
5279,-0.110478193
5280,0.00081011554
5281,0.0700431839
5282,0.1518507
5283,-0.0257690195
5284,-0.242471561
5285,-0.41881144
5286,-0.0511042327
5287,0.143317699
5288,0.459616005
5289,-0.355827034
5290,-0.121877886
5291,0.0994742587
5292,0.0382700674
5293,0.305073202
5294,-0.00755252643
5295,0.307463914
5296,0.212460428
5297,0.260242879
5298,-0.196454421
5299,0.0791574866
5300,0.0664948374
5301,0.192101106
5302,-0.0767829716
5303,-0.109691881
5304,-0.26268065
5305,0.108565763
5306,-0.00188742043
5307,-0.283372253
5308,-0.0267585739
5309,0.179442987
5310,-0.158099979
5311,0.00538336299
5312,0.185618147
5313,0.188397765
5314,-0.160849184
5315,-0.0462642536
5316,-0.124954417
5317,0.232247293
5318,0.368976891
5319,-0.0543548316
5320,-0.127070129
5321,0.0875422582
5322,0.0732053816
5323,0.0364714265
5324,0.0997987762
5325,-0.0924101248
5326,0.0698301569
5327,0.00046255294
5328,0.277919203
5329,0.193574354
5330,0.106648341
5331,-0.121621326
5332,-0.203500852
5333,-0.161781043
5334,0.0602365434
5335,0.215749085
5336,-0.213411227
5337,-0.195346013
5338,0.142952159
5339,0.0856147557
5340,-0.536179781
5341,0.28650251
5342,-0.358228624
5343,-0.220785141
5344,0.171026736
5345,0.208065644
5346,0.190916821
5347,0.209634706
5348,-0.120346226
5349,-0.0896140262
5350,-0.128704354
5351,-0.0571521707
5352,0.0914474577
5353,-0.240134075
5354,-0.369591981
5355,0.08423049
5356,0.0230165496
5357,-0.197642848
5358,-0.126216844
5359,-0.186356753
5360,-0.20088473
5361,-0.280956745
5362,-0.043868836
5363,0.157857865
5364,0.135072425
5365,-0.294739962
5366,-0.352289766
5367,0.0307969898
5368,-0.141703114
5369,0.119042724
5370,0.162746802
5371,-0.016637465
5372,-0.0503067486
5373,-0.122687869
5374,-0.36281848
5375,-0.0676376224
5376,-0.0707236305
5377,-0.0584200807
5378,0.202440843
5379,0.192768395
5380,0.208002731
5381,0.134450182
5382,0.0943620354
5383,-0.158132374
5384,-0.0323221572
5385,0.0787771493
5386,0.0505775437
5387,-0.395913273
5388,0.0994503871
5389,0.0711288676
5390,-0.147330046
5391,-0.0015172537
5392,0.0562302358
5393,0.130155131
5394,-0.342843294
5395,-0.127437308
5396,0.0464044251
5397,-0.173729077
5398,0.0163092129
5399,-0.207268372
5400,0.00674748188
5401,-0.0313954316
5402,-0.173783779
5403,0.0795804635
5404,-0.137262017
5405,0.138548642
5406,-0.0614511631
5407,-0.125268072
5408,0.0704389662
5409,-0.0031341922
5410,-0.0599322841
5411,-0.0637823492
5412,-0.0185751691
5413,0.07576897
5414,0.185278028
5415,0.0648705661
5416,0.22589393
5417,0.0960855633
5418,-0.379209578
5419,0.241583496
5420,0.153474316
5421,0.251430124
5422,-0.0921114311
5423,-0.0409605764
5424,0.228727207
5425,0.057174325
5426,-0.111942753
5427,0.0781556889
5428,0.144637644
5429,0.0383515432
5430,-0.0990931094
5431,0.0502112806
5432,0.000695750408
5433,-0.0394960381
5434,-0.0632441267
5435,-0.430501103
5436,-0.104404993
5437,0.207988843
5438,-0.284439057
5439,-0.0618450046
5440,0.0392473303
5441,0.189720705
5442,0.155288622
5443,0.10567598
5444,-0.171600282
5445,0.262138069
5446,0.0511618778
5447,-0.109982766
5448,0.157111466
5449,0.118648052
5450,-0.0158857014
5451,0.103057548
5452,-0.0379067212
5453,0.0555697642
5454,-0.132042959
5455,-0.0900399014
5456,0.181901455
5457,0.100162759
5458,-0.081170477
5459,-0.120312043
5460,0.059952829
5461,0.0359424837
5462,-0.0261142347
5463,-0.0623668358
5464,-0.0468482189
5465,-0.0168129168
5466,-0.199032456
5467,0.0641946122
5468,-0.611327231
5469,0.131064117
5470,0.118867666
5471,0.068593137
5472,0.0480773561
5473,-0.162388131
5474,-0.19086127
5475,0.29810816
5476,-0.0714266226
5477,-0.127489761
5478,-0.204545125
5479,0.260536969
5480,0.188633531
5481,-0.0227037631
5482,-0.047849562
5483,0.409133792
5484,0.142381668
5485,0.555231154
5486,-0.278096288
5487,0.105163194
5488,-0.0216580871
5489,-0.00953218993
5490,-0.17177546
5491,0.120793685
5492,0.144791052
5493,0.173679888
5494,-0.222227797
5495,0.00874882564
5496,0.310524851
5497,-0.244982809
5498,-0.145590514
5499,-0.271187514
5500,-0.433348864
5501,0.485008866
5502,-0.0510262884
5503,0.0993783921
5504,-0.378115803
5505,-0.132247299
5506,0.0187978204
5507,0.119499631
5508,-0.187460437
5509,-0.0771231651
5510,0.0258533359
5511,0.109556951
5512,0.0319541879
5513,-0.0989309475
5514,0.129603922
5515,0.0229333453
5516,0.00759584131
5517,0.0462809131
5518,-0.16121006
5519,0.143478826
5520,-0.0710803643
5521,-0.0675689876
5522,0.111081101
5523,0.149082541
5524,-0.00883572735
5525,0.0218947642
5526,-0.0209388658
5527,0.18205221
5528,-0.211557567
5529,0.164027825
5530,0.0151788937
5531,0.149215668
5532,0.34618628
5533,0.160419747
5534,0.323528498
5535,-0.114146963
5536,0.203473702
5537,-0.229082882
5538,-0.0936156735
5539,0.0450381078
5540,-0.0352407098
5541,-0.00995739177
5542,-0.0288545582
5543,-0.0216323491
5544,0.0170648023
5545,-0.265110165
5546,-0.0804114863
5547,0.0266197771
5548,0.235942528
5549,0.0734588802
5550,0.192349315
5551,-0.148310155
5552,0.0540356599
5553,0.138368532
5554,-0.320732892
5555,-0.0909561887
5556,0.0757782757
5557,-0.213068649
5558,0.127278283
5559,-0.124612585
5560,0.224939913
5561,0.045970872
5562,0.103676721
5563,0.103119038
5564,-0.0344481915
5565,-0.226605356
5566,-0.177008092
5567,0.175239921
5568,-0.0602472499
5569,0.0464459695
5570,-0.0210141987
5571,0.0903370976
5572,-0.159168407
5573,-0.00333674066
5574,-0.0862982497
5575,0.0209732521
5576,0.0406686328
5577,0.0193734262
5578,0.0577171743
5579,-0.0582834147
5580,-0.103998631
5581,-0.131951556
5582,-0.105162643
5583,-0.254319608
5584,-0.143764749
5585,-0.348255694
5586,0.101835229
5587,0.119834609
5588,0.0310928412
5589,-0.365551203
5590,-0.0234347861
5591,0.0782196894
5592,-0.22787787
5593,0.225292459
5594,0.0256112535
5595,0.0797756016
5596,0.0689977407
5597,-0.222931445
5598,0.100184418
5599,-0.196029544
5600,-0.0913325548
5601,-0.200918689
5602,-0.173827857
5603,-0.0304521266
5604,0.0740759149
5605,-0.0726610273
5606,-0.0709431767
5607,-0.0845928118
5608,0.236018822
5609,-0.116110958
5610,-0.0963221788
5611,0.0707132295
5612,-0.0415462218
5613,0.286601365
5614,-0.332283646
5615,0.206059426
5616,0.161819533
5617,-0.134052932
5618,0.0664422959
5619,-0.125537157
5620,-0.202738822
5621,-0.159640417
5622,-0.132504731
5623,-0.0219760723
5624,0.0688413307
5625,-0.0994576365
5626,-0.102680318
5627,0.151433557
5628,-0.0703070387
5629,0.00942989066
5630,0.0843403786
5631,-0.115408331
5632,-0.0936169624
5633,-0.257740021
5634,0.0372288823
5635,-0.0845105648
5636,0.193773285
5637,0.0468415916
5638,0.132649362
5639,0.00977525767
5640,-0.129729167
