,0
0,0.304412186
1,-0.107822858
2,0.360201806
3,0.051289428
4,-0.373987019
5,-0.236354426
6,-0.0954317227
7,-0.0468078181
8,0.142933235
9,0.227665275
10,-0.0945078954
11,-0.139915645
12,-0.0156010995
13,0.144240022
14,-0.109477498
15,0.0588386618
16,0.534611046
17,-0.101538844
18,0.129631758
19,-0.110574655
20,-0.0597798377
21,-0.0243079513
22,0.0632645339
23,-0.367592782
24,0.0158264823
25,-0.215778351
26,-0.311445057
27,0.302067846
28,-0.112709731
29,-0.0254468787
30,-0.110332087
31,0.163904965
32,-0.339212716
33,0.210466236
34,-0.0481495522
35,-0.0563961789
36,-0.244043112
37,-0.217783928
38,-0.050589934
39,-0.234284118
40,-0.470321566
41,-0.200205728
42,-0.153188318
43,-0.10504365
44,0.154913053
45,0.0960414931
46,0.155571669
47,0.0950777158
48,-0.415073544
49,0.0531831868
50,0.0230895858
51,0.0132539496
52,-0.0705447644
53,-0.0650831461
54,0.167012006
55,-0.16473034
56,0.0619978979
57,0.170341626
58,-0.181701884
59,-0.266385645
60,-0.0278892964
61,0.180514738
62,-0.36406064
63,-0.0867863819
64,0.127923325
65,-0.0867355019
66,0.00833899155
67,0.026346704
68,-0.20379059
69,-0.188352481
70,-0.00526235532
71,-0.0964947119
72,-0.307152659
73,0.107425824
74,-0.0395643488
75,-0.313454509
76,-0.0409905203
77,0.0564719103
78,-0.00190546713
79,-0.0846967697
80,0.195320696
81,0.0437004603
82,0.0803561658
83,0.0349503569
84,0.0337880775
85,0.297245502
86,0.211533308
87,0.102131672
88,0.280374616
89,0.152848378
90,0.345226288
91,0.328567475
92,0.104777217
93,0.0611750707
94,0.0802415535
95,-0.0157995112
96,0.108242616
97,0.245891109
98,0.110117368
99,0.164970949
100,0.125557899
101,0.361032009
102,-0.214291677
103,-0.145216778
104,-0.300180644
105,0.0771639124
106,-0.605397344
107,-0.181248561
108,-0.0930814147
109,-0.0788681656
110,-0.0847921371
111,0.071255073
112,-0.0359537713
113,-0.0469103642
114,0.0971589386
115,0.164833769
116,0.00565687986
117,0.389668435
118,-0.0147671402
119,-0.0865177587
120,0.0489329398
121,0.000979731791
122,-0.16887787
123,0.0969015732
124,-0.248073861
125,0.0827619433
126,-0.284471244
127,-0.117748864
128,-0.00420213165
129,-0.0237284042
130,0.0228604823
131,-0.0345736146
132,-0.344527036
133,0.116739698
134,-0.0763659552
135,-0.0723598078
136,-0.0807616636
137,0.0516459197
138,0.0422613546
139,-0.0923678279
140,-0.227005333
141,-0.214800611
142,-0.0776552856
143,-0.171802402
144,-0.206388399
145,0.361756951
146,-0.269544244
147,0.0899146199
148,0.294929951
149,-0.284741044
150,0.11076647
151,-0.0477440134
152,0.00411170581
153,-0.0452253483
154,-0.151306421
155,0.17870158
156,-0.18996416
157,0.229754791
158,-0.0280061495
159,-0.203005821
160,0.079103224
161,-0.323755473
162,-0.0391656458
163,-0.165087372
164,0.08606188
165,-0.0642663762
166,-0.0902956501
167,0.0614064001
168,-0.248674065
169,-0.138488472
170,-0.00975903962
171,-0.375499278
172,0.000670688925
173,-0.110402815
174,-0.122596443
175,-0.440163881
176,-0.00186092767
177,-0.0132386517
178,0.141065121
179,0.0650732368
180,-0.112744302
181,0.158397481
182,-0.0971489102
183,-0.167044491
184,0.361135274
185,0.153308809
186,-0.0903400108
187,-0.224387407
188,-0.133745641
189,-0.14323397
190,-0.383659631
191,0.0465675145
192,0.0931841061
193,0.103824489
194,-0.0236687567
195,-0.0433927216
196,0.0243677795
197,-0.0772635192
198,0.163065061
199,-0.248280004
200,-0.0164460093
201,0.0206340607
202,0.0183505062
203,0.123350203
204,0.140467331
205,0.0616940744
206,-0.0156991966
207,-0.213725686
208,-0.114823304
209,-0.0976027846
210,-0.0820706338
211,-0.12981841
212,0.357850045
213,0.0895390734
214,0.118090115
215,-0.0350542292
216,0.0589131862
217,0.401413679
218,-0.335131794
219,-0.0458640791
220,0.0204402171
221,-0.0698408559
222,-0.0144019108
223,-0.0677856505
224,0.0138570033
225,-0.206449822
226,-0.52435571
227,-0.17013818
228,-0.199767947
229,-0.121160448
230,-0.153226987
231,-0.0564581454
232,-0.168980762
233,0.040687602
234,-0.00861526281
235,-0.0795187131
236,0.0616024546
237,-0.156874791
238,0.0645525828
239,-0.0866800025
240,-0.122373112
241,0.123279341
242,-0.00102915731
243,-0.463004649
244,0.0874780342
245,-0.114116818
246,0.28573516
247,-0.264801115
248,0.169113904
249,0.138500333
250,0.107586771
251,-0.15192312
252,-0.107613266
253,0.0950480849
254,-0.278207213
255,-0.00552260363
256,-0.0679472908
257,0.0385964774
258,0.169042066
259,-0.180931255
260,0.00136063294
261,-0.124216788
262,0.0908157825
263,-0.0620315894
264,-0.154506326
265,0.029482903
266,-0.0480586253
267,-0.118378974
268,0.00515053608
269,-0.293031216
270,0.083944127
271,-0.0439054146
272,-0.0731923655
273,0.0351978317
274,0.230011657
275,-0.0732305124
276,0.12013822
277,0.0369431525
278,-0.0486437157
279,-0.0177704673
280,0.0265562925
281,0.216744095
282,0.0154572893
283,-0.255103171
284,0.207224324
285,0.102071449
286,-0.0717653707
287,0.172266573
288,0.0341866873
289,0.0131625282
290,-0.307163417
291,0.22243005
292,-0.155671984
293,0.0433687344
294,-0.0312153548
295,-0.210902065
296,0.0361376703
297,-0.200140536
298,0.100112423
299,-0.142210856
300,-0.26614514
301,0.0668497533
302,0.175825417
303,-0.169862643
304,0.05047502
305,0.197324753
306,-0.101581
307,-0.0588913299
308,0.277796447
309,0.0661697984
310,0.179449573
311,-0.104013152
312,-0.019594267
313,0.151335329
314,0.0250790901
315,0.23406437
316,0.0746240541
317,-0.0729389191
318,-0.101645023
319,-0.176546782
320,0.185553551
321,-0.221673533
322,-0.108046815
323,0.00266340771
324,-0.208091274
325,0.0279541481
326,-0.0855649337
327,-0.173424497
328,0.0238173231
329,-0.113185078
330,0.163111195
331,-0.0143138906
332,-0.0853788778
333,-0.145218432
334,-0.023033293
335,0.0430517346
336,-0.0940798372
337,0.0284739621
338,-0.19668445
339,-0.217583165
340,-0.0134933293
341,-0.459294319
342,-0.00222946913
343,-0.065728493
344,-0.210547507
345,-0.0959376097
346,-0.151956618
347,-0.170285329
348,-0.0537574105
349,-0.171468824
350,-0.122856721
351,-0.0557682961
352,-0.270129949
353,-0.00428730296
354,-0.14929536
355,-0.359482646
356,-0.0176995844
357,0.0384875499
358,-0.0116795097
359,-0.136146605
360,-0.32787922
361,-0.2107068
362,-0.153239548
363,-0.141640693
364,0.0425979421
365,0.0967871398
366,-0.0272427257
367,-0.0938541293
368,-0.0508760847
369,0.031711746
370,-0.129334077
371,-0.0222625136
372,-0.0638128817
373,0.0915139839
374,0.258753031
375,-0.00165487616
376,-0.184638917
377,0.0437775776
378,0.0854222998
379,-0.162695318
380,0.0637950227
381,-0.135956049
382,0.0562715381
383,-0.124427967
384,0.0816470385
385,0.0692169443
386,0.326818496
387,-0.0826794878
388,-0.116628021
389,0.0901221111
390,-0.0293411333
391,-0.107499905
392,-0.264549434
393,-0.118439876
394,-0.0731641129
395,-0.060446769
396,-0.0991019309
397,-0.140072823
398,-0.0174988676
399,-0.0202112645
400,0.0180482641
401,-0.184091404
402,-0.0155875338
403,0.237997875
404,-0.266553879
405,0.0564190932
406,0.300545961
407,-0.0446991585
408,-0.0213700626
409,0.0434582867
410,0.0408878662
411,-0.0888460055
412,-0.18570523
413,-0.162429392
414,0.0821518078
415,-0.335996687
416,0.089556016
417,0.0718690008
418,0.0801656097
419,0.128962412
420,0.173529163
421,0.0831549093
422,-0.0208777636
423,-0.0290976614
424,0.0911800265
425,-0.0298161451
426,0.122284941
427,0.0529961213
428,-0.0311897844
429,-0.00390395033
430,0.229553357
431,0.060751956
432,-0.307147712
433,0.0726448148
434,-0.301009715
435,-0.197703451
436,-0.0699718297
437,-0.033929415
438,0.319741249
439,-0.206157371
440,0.154315889
441,0.0580404215
442,-0.0509372205
443,-0.36001426
444,-0.202864721
445,0.0692835152
446,0.0127171846
447,0.032004118
448,-0.285479337
449,0.096905306
450,-0.109818883
451,0.0245477576
452,0.240317091
453,-0.0304087289
454,-0.373077393
455,0.186677188
456,-0.19935292
457,-0.11361178
458,-0.16272673
459,0.0660458058
460,-0.135611713
461,0.0870165899
462,-0.0915690809
463,-0.250290334
464,0.138395756
465,0.0564728864
466,-0.0560958125
467,-0.00442397641
468,-0.0302453339
469,0.125988141
470,-0.167221949
471,0.015924735
472,0.0843287185
473,0.0558165796
474,0.0401604697
475,0.0688772649
476,0.0433869734
477,-0.126528934
478,0.00254399586
479,-0.132932365
480,-0.333477199
481,-0.132388309
482,-0.05193872
483,0.0406557322
484,-0.000368871464
485,-0.125044003
486,-0.122627616
487,-0.0984516665
488,-0.0231553726
489,-0.175506294
490,0.0803417191
491,-0.149192736
492,0.0269685294
493,0.0703849196
494,-0.0715091974
495,-0.0905730501
496,0.100144587
497,-0.208419368
498,0.179245889
499,-0.0946883559
500,-0.061434567
501,-0.70388037
502,-0.0971764624
503,-0.0547360219
504,-0.028395908
505,-0.133332133
506,0.158551022
507,-0.0645201951
508,0.214537889
509,0.252867401
510,0.0847809538
511,-0.0328393057
512,-0.258421957
513,-0.0169686675
514,0.108063065
515,-0.0978045389
516,-0.102043256
517,-0.173150852
518,-0.202996001
519,-0.138231397
520,-0.233039126
521,-0.128907666
522,-0.235289112
523,-0.317310721
524,-0.0238817353
525,-0.0342087112
526,-0.211839885
527,-0.0933017358
528,0.094177492
529,-0.0720237717
530,0.0145777082
531,0.136309147
532,-0.0376201309
533,0.00330646266
534,0.118344374
535,-0.00406197039
536,-0.203414515
537,-0.0821373239
538,-0.0165824778
539,-0.0208078604
540,-0.105301559
541,-0.252974063
542,0.126493931
543,0.0745461881
544,0.210479125
545,-0.170661479
546,0.212885216
547,-0.125840187
548,0.0577046946
549,0.0241282079
550,-0.0122531755
551,0.17930302
552,0.0488208905
553,-0.0114751142
554,-0.113692358
555,0.0237018727
556,-0.113116086
557,0.0248648897
558,0.0135690216
559,-0.138941377
560,0.0549539886
561,-0.106143214
562,-0.098328568
563,-0.192528203
564,-0.130967736
565,0.129424348
566,-0.454561472
567,-0.187826023
568,-0.0467966571
569,-0.105890758
570,0.13353543
571,-0.00792428758
572,0.0125024486
573,-0.0428935066
574,0.187417984
575,-0.0281345882
576,-0.0495645925
577,0.0453431644
578,-0.157728955
579,-0.147677466
580,0.178064212
581,-0.112468809
582,0.219864368
583,-0.0493740775
584,-0.200521797
585,0.0368189737
586,0.0193037987
587,-0.15605998
588,-0.215769753
589,-0.0486095734
590,0.0117785279
591,-0.0689130723
592,0.101375222
593,0.0189345386
594,-0.113842003
595,-0.126968712
596,0.00137404469
597,-0.0659036264
598,-0.315331519
599,0.393743187
600,0.0202874802
601,0.483923882
602,-0.397478551
603,0.0626362786
604,0.183443308
605,-0.0600894578
606,0.0736169666
607,-0.0768608078
608,-0.349361837
609,-0.104646243
610,-0.215719759
611,0.0221186858
612,-0.138821781
613,0.0577917919
614,-0.191157967
615,0.160623163
616,-0.188668147
617,0.0671200529
618,0.165159628
619,-0.294166833
620,-0.158687025
621,-0.0884335488
622,-0.105232261
623,0.189672187
624,0.028739294
625,-0.284503996
626,0.0405937955
627,-0.295260429
628,-0.0721916258
629,0.0931471437
630,-0.030389512
631,-0.239518091
632,0.144293398
633,-0.0596180707
634,-0.579441547
635,-0.0804694965
636,0.146950454
637,-0.332908273
638,0.138260379
639,-0.112999916
640,-0.246804178
641,-0.173252538
642,0.305326045
643,0.00344904675
644,0.0407688096
645,-0.126965597
646,0.132633537
647,-0.163290352
648,-0.0168159287
649,0.175634786
650,-0.136686638
651,-0.153695971
652,-0.0106823854
653,-0.0362544917
654,-0.0603790283
655,-0.225051627
656,0.143506601
657,0.250582337
658,-0.153363124
659,0.215400234
660,-0.29086253
661,-0.18529655
662,0.0127624879
663,-0.234563231
664,-0.177559346
665,0.103995994
666,0.185625345
667,-0.0458798893
668,-0.0960179418
669,-0.0731164292
670,0.0964658633
671,-0.681058884
672,-0.141310304
673,-0.0186813138
674,-0.0311310031
675,0.0232657846
676,0.100724779
677,-0.130470514
678,0.0342436135
679,0.325071245
680,-0.0709213465
681,0.0348914564
682,-0.141680717
683,0.021373162
684,0.0952007696
685,-0.17072314
686,0.0710394979
687,-0.0353536084
688,-0.079380624
689,0.00735349953
690,-0.204116583
691,-0.12218035
692,0.00319929328
693,-0.166473761
694,-0.14152135
695,0.107147589
696,-0.203856304
697,0.0662423894
698,-0.015657885
699,-0.129187644
700,-0.0372086987
701,0.0138314059
702,-0.213961065
703,-0.214717939
704,-0.189768314
705,-0.112333149
706,0.088584356
707,-0.053167887
708,0.115256712
709,-0.0288543086
710,-0.0863940343
711,-0.0545132123
712,-0.0780901387
713,0.209403113
714,0.0409298502
715,0.147819966
716,0.0759821758
717,0.109827161
718,-0.0701446086
719,0.104611017
720,0.015877055
721,0.130680799
722,0.150354668
723,0.0463025793
724,0.170458078
725,0.126821652
726,-0.035365779
727,0.0695298761
728,0.089204073
729,-0.0772103667
730,-0.0479420796
731,-0.0168181416
732,0.189929187
733,0.0112469187
734,-0.0877050161
735,0.0727819353
736,-0.152519256
737,0.162629604
738,-0.113771193
739,-0.00691295834
740,-0.00393760484
741,-0.0422705114
742,-0.153162703
743,0.0758156851
744,-0.430971354
745,-0.307802051
746,-0.202610642
747,-0.170445219
748,-0.10051012
749,0.0636626184
750,-0.109831437
751,0.300744772
752,0.0407310277
753,-0.034461461
754,-0.162337467
755,0.0507425368
756,0.0353156514
757,0.0614552014
758,0.101360552
759,-0.157998592
760,-0.104839884
761,0.232337907
762,-0.265998989
763,0.0232895352
764,0.0872828141
765,-0.0477416143
766,-0.178644985
767,-0.0389754176
768,-0.251648039
769,-0.0455923118
770,0.0312153623
771,0.0437963195
772,0.0980335325
773,0.0492882505
774,-0.0112885078
775,-0.0124760903
776,0.0254261158
777,-0.0641983598
778,0.0231518298
779,0.149614245
780,0.0299357157
781,-0.26167351
782,-0.163596392
783,0.0589532815
784,-0.163034141
785,-0.533302486
786,-0.456091553
787,-0.147493988
788,-0.169844523
789,-0.0122425742
790,-0.0863238871
791,0.2961815
792,-0.123355895
793,0.304870367
794,-0.128936887
795,-0.321287394
796,0.0908068269
797,0.208403915
798,-0.349008858
799,-0.0871178657
800,-0.0304676816
801,-0.12044353
802,0.00986385718
803,-0.182877868
804,0.00925659109
805,0.113295436
806,-0.104779527
807,-0.146854222
808,-0.237382561
809,-0.00737318164
810,-0.125886783
811,-0.26989305
812,0.132407114
813,-0.15876694
814,-0.278382957
815,-0.224726409
816,0.0872028396
817,-0.27715534
818,-0.0845358893
819,0.0788265392
820,-0.0855895728
821,-0.140216589
822,-0.111472756
823,-0.224768624
824,0.0551181585
825,0.0591596626
826,-0.0828748643
827,-0.575032473
828,-0.120799504
829,-0.0803577155
830,-0.0377114154
831,0.119796537
832,-0.110858954
833,-0.117709883
834,-0.0487882048
835,-0.34858045
836,0.0551291406
837,-0.280755997
838,-0.00159638096
839,-0.138606817
840,-0.0994319543
841,-0.160007954
842,0.181861043
843,-0.405574858
844,-0.164159626
845,-0.261349261
846,-0.140763745
847,-0.355323553
848,-0.0384858102
849,-0.299112707
850,0.0765960962
851,0.0270597432
852,-0.0497211032
853,-0.165762588
854,0.289906889
855,-0.15423815
856,0.00323347817
857,0.0656390712
858,-0.0751257911
859,-0.0427600406
860,-0.0668428242
861,0.0865717381
862,-0.0669092834
863,-0.180233151
864,0.015019984
865,-0.178356275
866,0.103950314
867,-0.240304872
868,-0.047164984
869,-0.0287648682
870,0.142632827
871,-0.0508184619
872,-0.107558914
873,-0.135462806
874,-0.380595505
875,-0.046432063
876,-0.0755997896
877,-0.735966444
878,0.309740543
879,0.233101904
880,0.143556863
881,0.00304182456
882,-0.0386697501
883,-0.196567103
884,-0.124177523
885,-0.260542125
886,0.192969352
887,-0.0807603225
888,-0.000269456941
889,0.102468908
890,-0.0392447114
891,-0.112970062
892,-0.138669804
893,-0.0206584856
894,-0.0708420724
895,0.201125339
896,0.00778126065
897,-0.210165128
898,-0.00638385024
899,0.306938529
900,0.0398457497
901,-0.0326834209
902,0.108102188
903,0.516313612
904,-0.0698975623
905,0.211412743
906,-0.171543047
907,0.0231062286
908,0.0132221077
909,-0.397388756
910,-0.0929092914
911,-0.120977648
912,0.0157417245
913,-0.0562229566
914,0.0826870278
915,0.126873612
916,-0.0186086521
917,-0.0530853085
918,-0.120739318
919,0.0284753442
920,0.129363239
921,-0.0996003076
922,-0.0638189763
923,0.0964368731
924,-0.0404145345
925,-0.348645627
926,0.366460115
927,-0.134378552
928,0.0232658032
929,0.0900374427
930,-0.0263235588
931,0.219462723
932,0.00678642467
933,-0.102085315
934,0.0144660575
935,0.0195839014
936,0.0390030295
937,-0.305782676
938,-0.0252510421
939,0.00753198052
940,0.055882331
941,0.0564152859
942,0.122775823
943,-0.0855337754
944,0.119945228
945,-0.141314641
946,0.132348165
947,-0.17352353
948,0.0291545726
949,-0.113536999
950,-0.0874050856
951,0.0883033872
952,-0.0921059176
953,-0.0358987711
954,-0.293694288
955,-0.155212358
956,-0.0715934709
957,-0.248351485
958,-0.207597077
959,-0.23103565
960,-0.0100441873
961,-0.0797974616
962,-0.162586406
963,0.0683810115
964,0.0702459291
965,-0.0989761278
966,-0.139663354
967,-0.00731582474
968,-0.0174956173
969,0.00320613291
970,0.0138807539
971,0.0478413329
972,0.0538116954
973,-0.10711842
974,-0.027355589
975,0.143173978
976,-0.0714895353
977,0.873938143
978,-0.08868099
979,0.0353855789
980,-0.00838659797
981,-0.168692842
982,-0.0502842888
983,-0.185924947
984,0.104568116
985,-0.112205282
986,-0.157368287
987,-0.0153124593
988,0.106467687
989,-0.0273304246
990,-0.17884028
991,-0.0404794514
992,-0.258278877
993,0.175326183
994,-0.0628764778
995,0.0651665479
996,-0.193490043
997,0.146416903
998,-0.130315617
999,0.154629856
1000,-0.214975089
1001,-0.144312993
1002,-0.000797722139
1003,0.0478452742
1004,-0.0904310495
1005,-0.310945451
1006,-0.0923176184
1007,0.149673551
1008,0.00333546964
1009,0.0684053749
1010,0.116357461
1011,0.0220239442
1012,0.0975869298
1013,0.0424803384
1014,-0.0387794934
1015,-0.00635759905
1016,-0.0607228838
1017,-0.38188529
1018,-0.00959569588
1019,-0.142602712
1020,-0.136252612
1021,-0.228501752
1022,0.0336062014
1023,-0.205036104
1024,0.126601994
1025,-0.0633342266
1026,-0.0346004888
1027,0.0981383324
1028,0.0256134141
1029,0.0911158472
1030,-0.164405346
1031,-0.127737179
1032,-0.147683278
1033,-0.0263215303
1034,-0.103929795
1035,0.0625680983
1036,-0.0226353593
1037,-0.149231821
1038,-0.0322813094
1039,-0.0784795508
1040,0.0189683884
1041,0.221421033
1042,0.201294675
1043,-0.412691146
1044,-0.148581788
1045,-0.183957845
1046,-0.0297529325
1047,-0.172332153
1048,0.173351854
1049,0.00341668678
1050,0.0895623192
1051,-0.012541688
1052,-0.324275047
1053,0.100506492
1054,-0.013307347
1055,0.337219387
1056,0.0208434407
1057,0.199922159
1058,-0.0615757629
1059,0.0635429472
1060,0.140177384
1061,0.10281653
1062,-0.0521653928
1063,-0.158704311
1064,0.0167595986
1065,-0.233810201
1066,0.0269286577
1067,-0.0402772129
1068,0.0255846847
1069,0.0983334929
1070,-0.156078935
1071,0.0393634178
1072,-0.199261621
1073,-0.0638964474
1074,-0.13117522
1075,0.608633518
1076,-0.0147405481
1077,0.0785067603
1078,-0.18637237
1079,0.0879418328
1080,-0.0128030935
1081,0.112309828
1082,-0.00606370205
1083,-0.15717794
1084,0.301063567
1085,0.34332034
1086,0.250567108
1087,-0.0917260349
1088,0.0169947203
1089,0.099309355
1090,0.413486898
1091,-0.136117488
1092,-0.137369618
1093,-0.0291685648
1094,-0.0967514664
1095,0.0696595982
1096,0.0210822485
1097,0.0820331275
1098,0.0361586027
1099,0.0788891688
1100,0.081273362
1101,-0.0330876112
1102,0.0480041467
1103,-0.128996044
1104,-0.134100601
1105,0.0993347466
1106,-0.179069296
1107,0.0507390015
1108,0.0005947561
1109,0.146426946
1110,-0.214183465
1111,-0.24257417
1112,-0.120005213
1113,-0.0498476662
1114,-0.101644993
1115,0.00507291127
1116,-0.0857704058
1117,0.000141979021
1118,0.008886775
1119,0.102549478
1120,-0.0487313904
1121,-0.00422963267
1122,0.0297187213
1123,-0.0152152805
1124,-0.0372658297
1125,0.347551554
1126,-0.129820138
1127,-0.0157921836
1128,0.095674023
1129,-0.0553312004
1130,0.20721598
1131,-0.31116873
1132,0.152500555
1133,-0.15417318
1134,0.126036495
1135,0.0438405126
1136,0.0507707633
1137,-0.224499121
1138,0.0750963017
1139,0.291648686
1140,0.0988814682
1141,-0.343246847
1142,-0.0033261939
1143,-0.166235
1144,0.110775493
1145,0.11056333
1146,0.04970029
1147,0.0518736243
1148,-0.218632802
1149,0.181481376
1150,-0.0298364162
1151,-0.0427247435
1152,-0.069994688
1153,-0.0110861789
1154,0.0874652714
1155,0.00251186593
1156,0.0908602029
1157,-0.0181853287
1158,-0.314891636
1159,0.0248888172
1160,0.0219928622
1161,-0.178071499
1162,-0.145708948
1163,-0.131701902
1164,0.125577658
1165,0.00120190182
1166,-0.011330178
1167,0.0850944072
1168,-0.126429006
1169,0.0616308488
1170,0.0275180228
1171,-0.301407903
1172,-0.121268027
1173,-0.0198665746
1174,0.00471380912
1175,-0.150729358
1176,0.0500760153
1177,-0.278323591
1178,-0.283292472
1179,0.114588544
1180,-0.0780520067
1181,-0.368892789
1182,-0.142778143
1183,-0.057590086
1184,-0.0558714904
1185,-0.0157621708
1186,0.0583365113
1187,0.223206311
1188,-0.0266742706
1189,0.0691043586
1190,0.158747688
1191,0.0108178174
1192,0.116570458
1193,-0.108466864
1194,0.205891564
1195,0.0860618427
1196,-0.029256545
1197,-0.179405615
1198,0.24801065
1199,0.182729766
1200,-0.10690362
1201,0.0604693256
1202,-0.225356638
1203,0.126089811
1204,-0.141002715
1205,-0.055303745
1206,-0.149992004
1207,-0.196916923
1208,-0.0151348766
1209,-0.112251773
1210,-0.233498871
1211,0.0954538807
1212,-0.11925409
1213,-0.0641997978
1214,-0.0543804877
1215,0.0213080123
1216,-0.118098766
1217,-0.309858561
1218,0.0793956518
1219,-0.145403892
1220,0.107371077
1221,0.0653305501
1222,-0.0112735061
1223,0.124339208
1224,-0.268280834
1225,-0.230131581
1226,-0.0660927817
1227,-0.158898041
1228,0.132589296
1229,-0.0937982202
1230,-0.339681625
1231,-0.0419026949
1232,-0.0496945493
1233,0.0838858262
1234,-0.0609942116
1235,0.0218871236
1236,-0.172855973
1237,-0.0574282333
1238,0.0293160453
1239,0.0556944124
1240,0.0955981687
1241,-0.223193243
1242,-0.514739513
1243,-0.00134210079
1244,0.20074001
1245,-0.142010897
1246,0.121028736
1247,0.141346276
1248,-0.319271713
1249,-0.0216874331
1250,-0.213223726
1251,0.164816335
1252,-0.0955768675
1253,0.186310396
1254,-0.100846425
1255,0.0170452371
1256,-0.245830521
1257,-0.0215600487
1258,-0.190193623
1259,-0.256053686
1260,-0.1962623
1261,0.0599811785
1262,-0.166454688
1263,0.121615827
1264,0.112953559
1265,-0.392243266
1266,-0.0357892215
1267,-0.135015041
1268,-0.172223195
1269,0.0498572215
1270,0.0863045454
1271,-0.208164886
1272,0.0186640583
1273,0.0468363948
1274,0.0312222596
1275,-0.108265765
1276,0.141635522
1277,-0.16324763
1278,-0.610687494
1279,-0.0530605651
1280,-0.0343873985
1281,0.179715872
1282,0.415382743
1283,-0.0198135208
1284,0.0954138935
1285,0.312066317
1286,-0.257420152
1287,0.153862834
1288,0.597681999
1289,-0.27808702
1290,0.0932225287
1291,0.0749723464
1292,0.0827928856
1293,0.321304381
1294,-0.0898237079
1295,0.128753439
1296,-0.0273548868
1297,0.0945698246
1298,-0.183808744
1299,0.00310191326
1300,-0.211443469
1301,0.227347419
1302,-0.0430931561
1303,0.106544159
1304,0.0612077564
1305,-0.113177218
1306,-0.178384259
1307,0.351258337
1308,-0.171928674
1309,-0.340847492
1310,-0.00144830137
1311,0.275981992
1312,-0.241787583
1313,-0.036493741
1314,0.235553697
1315,-0.0338049047
1316,0.155800998
1317,-0.278731406
1318,0.0191617887
1319,-0.0734877139
1320,-0.0746586248
1321,0.0332322121
1322,-0.181798354
1323,-0.104169957
1324,-0.166379973
1325,-0.367357671
1326,-0.0399197005
1327,0.212889448
1328,0.0110286186
1329,0.115882851
1330,-0.299103528
1331,0.00394548383
1332,-0.0615256839
1333,-0.396641016
1334,-0.137609899
1335,0.0849357247
1336,0.0399748087
1337,-0.387827754
1338,0.363331556
1339,-0.220915824
1340,0.0156455729
1341,-0.148506984
1342,-0.14955084
1343,-0.116544798
1344,-0.105248772
1345,0.105438434
1346,-0.112266883
1347,-0.0793501809
1348,0.0254428815
1349,-0.232517883
1350,0.149044871
1351,-0.129729152
1352,-0.0485160761
1353,-0.231115744
1354,0.0606892444
1355,0.0157167688
1356,-0.175473586
1357,0.0452287272
1358,0.114821725
1359,0.0409881324
1360,-0.154640183
1361,-0.0353946909
1362,0.0342512354
1363,-0.0551573336
1364,-0.0447656997
1365,0.127026781
1366,0.363586158
1367,0.21101734
1368,0.0236146096
1369,0.108861357
1370,0.302078009
1371,0.0718948171
1372,0.129522994
1373,0.0889239088
1374,-0.246513456
1375,0.138751
1376,0.00776699046
1377,0.216650784
1378,0.241523474
1379,0.12878418
1380,-0.211800516
1381,-0.0515846498
1382,-0.00449731201
1383,-0.0161327366
1384,-0.284492999
1385,-0.0644766018
1386,-0.322009623
1387,0.100150019
1388,-0.0707658231
1389,0.0809853449
1390,-0.0936832279
1391,-0.0990544409
1392,-0.048459556
1393,0.039094191
1394,-0.135855556
1395,-0.0514892153
1396,0.00975003559
1397,-0.334899992
1398,-0.0923257619
1399,0.057778731
1400,-0.0596875958
1401,-0.00221610023
1402,-0.2406708
1403,-0.423972756
1404,-0.0721576884
1405,0.297081351
1406,-0.239270121
1407,-0.174501643
1408,-0.107735373
1409,-0.167075634
1410,0.0461867712
1411,-0.140487418
1412,-0.0024233358
1413,-0.0106871892
1414,0.0140052335
1415,0.000726707629
1416,-0.120834373
1417,0.0499741845
1418,0.0640463606
1419,-0.21325016
1420,-0.141181633
1421,-0.211843938
1422,-0.118964501
1423,-0.246913373
1424,-0.10593681
1425,0.149528459
1426,-0.444405168
1427,0.198695302
1428,-0.153599501
1429,-0.129224181
1430,-0.140929714
1431,-0.244603187
1432,-0.00321988598
1433,0.123505823
1434,0.175361544
1435,-0.205620348
1436,0.0173141249
1437,-0.145401433
1438,-0.199523345
1439,-0.272148728
1440,0.079016827
1441,0.0665278286
1442,-0.150894597
1443,-0.0627867281
1444,0.0944613591
1445,-0.197002351
1446,0.264739633
1447,-0.377680689
1448,-0.0956285
1449,-0.0285029113
1450,-0.135586128
1451,-0.0971880034
1452,-0.011634212
1453,-0.371512681
1454,-0.185619935
1455,-0.00100914564
1456,-0.0617920682
1457,-0.223334119
1458,-0.0717403814
1459,-0.154862046
1460,-0.183496043
1461,-0.102061152
1462,-0.198150098
1463,0.194652259
1464,0.0695419535
1465,0.0714165941
1466,-0.133705035
1467,-0.588267207
1468,-0.255321562
1469,-0.072032243
1470,0.167708769
1471,0.175544962
1472,-0.0701640472
1473,-0.319577128
1474,0.0303923357
1475,-0.0989607424
1476,0.0392278507
1477,0.168752924
1478,0.00589793082
1479,-0.146826342
1480,0.105849721
1481,-0.371876389
1482,0.0508157946
1483,-0.113869026
1484,-0.0760869086
1485,0.0554007292
1486,0.164493293
1487,-0.338216692
1488,-0.101428367
1489,-0.0604964606
1490,0.145623073
1491,0.0879516006
1492,0.0674188212
1493,-0.159725755
1494,-0.0615015738
1495,-0.130796492
1496,-0.14052169
1497,0.101462893
1498,0.0370885916
1499,0.1015753
1500,-0.0648573413
1501,-0.21681577
1502,-0.11211101
1503,0.0956009105
1504,0.00938427355
1505,-0.355497688
1506,-0.302800596
1507,0.156559527
1508,-0.0118854837
1509,0.0869721472
1510,-0.248359859
1511,-0.00334678451
1512,-0.0911125094
1513,0.0537435412
1514,0.115049995
1515,0.0968715921
1516,-0.143318847
1517,-0.594068587
1518,-0.0106144333
1519,0.187168449
1520,0.0795077905
1521,0.0844343454
1522,0.0673684105
1523,-0.307834476
1524,0.100232713
1525,-0.0217312854
1526,-0.00634759106
1527,-0.00163392513
1528,-0.207841426
1529,-0.0131681832
1530,-0.0455843993
1531,-0.105505675
1532,0.0411931463
1533,0.0855737701
1534,0.106314793
1535,0.0645011887
1536,-0.0579915643
1537,-0.190538704
1538,0.147197649
1539,-0.0857577026
1540,-0.136412233
1541,-0.100433789
1542,0.0115484195
1543,-0.222276539
1544,-0.0713645071
1545,0.0534978248
1546,-0.108624853
1547,0.0136883585
1548,-0.166992262
1549,0.190491319
1550,0.0405097269
1551,-0.0161738917
1552,-0.0307994019
1553,-0.0725438967
1554,-0.0616382062
1555,-0.0609753616
1556,-0.135838196
1557,0.0618236773
1558,0.031573195
1559,-0.0618201233
1560,-0.41469422
1561,0.105483815
1562,0.0839116424
1563,0.0245715231
1564,-0.0313121155
1565,0.0831002593
1566,-0.0725927949
1567,-0.0357060283
1568,-0.108062029
1569,-0.0502658971
1570,-0.213897929
1571,0.118168734
1572,0.0581462383
1573,-0.0184100755
1574,-0.0714417696
1575,-0.0919548795
1576,0.0234225448
1577,-0.32260865
1578,0.0335817933
1579,0.0896065608
1580,0.045148056
1581,0.2462468
1582,0.271500736
1583,-0.259260952
1584,-0.268423915
1585,0.119020574
1586,0.0715403408
1587,0.0538802855
1588,0.253121555
1589,-0.210187599
1590,-0.0521674231
1591,0.0522471145
1592,0.0452747978
1593,0.0902259275
1594,-0.143069893
1595,-0.21132873
1596,0.00386782503
1597,0.0343104564
1598,-0.151656434
1599,-0.157715574
1600,0.000342157669
1601,0.070167169
1602,-0.185488701
1603,-0.0536858588
1604,-0.101770684
1605,0.114089414
1606,-0.0807558447
1607,0.0591405556
1608,0.0216741413
1609,0.0736694187
1610,0.0929790363
1611,-0.0734978914
1612,0.149828359
1613,-0.167301476
1614,-0.0317641869
1615,-0.117287561
1616,0.0188894868
1617,0.0575211905
1618,0.0294945743
1619,-0.235557035
1620,-0.167522132
1621,-0.244714275
1622,0.0445307381
1623,-0.247845724
1624,-0.0972386748
1625,0.0035497942
1626,-0.239363298
1627,0.109186411
1628,0.165071994
1629,-0.0524168573
1630,-0.0468830131
1631,-0.20637098
1632,-0.223773882
1633,-0.195045561
1634,-0.0803382397
1635,0.0777591467
1636,-0.28952238
1637,0.0172673538
1638,0.0645871535
1639,-0.107411586
1640,0.0909179598
1641,-0.121164724
1642,-0.261498064
1643,0.119005486
1644,0.127408594
1645,-0.0424114168
1646,-0.0425272696
1647,-0.211991966
1648,-0.114687413
1649,-0.0653128773
1650,-0.033485733
1651,-0.0190092809
1652,0.0961215347
1653,-0.301049739
1654,-0.0756111071
1655,-0.0132914884
1656,-0.0269168001
1657,-0.390258759
1658,-0.126794487
1659,0.0453547388
1660,0.282785356
1661,-0.0607092418
1662,0.0956440642
1663,-0.140934154
1664,0.0316148438
1665,0.257122636
1666,0.101237804
1667,0.0508041941
1668,-0.224039048
1669,-0.164024457
1670,-0.0258632321
1671,-0.178916991
1672,0.152322784
1673,-0.0271851346
1674,-0.138221934
1675,-0.0854604766
1676,-0.146970764
1677,-0.29702124
1678,-0.00784617197
1679,-0.0393361412
1680,0.0859345272
1681,0.0708513483
1682,-0.175235614
1683,-0.314745635
1684,0.199092075
1685,-0.298339546
1686,0.242202029
1687,-0.0588961318
1688,-0.174998984
1689,-0.379259706
1690,-0.137455434
1691,-0.122863777
1692,-0.213585392
1693,0.404498637
1694,0.400827825
1695,-0.0687801987
1696,0.0774239898
1697,0.0324970111
1698,0.00449368963
1699,-0.138768062
1700,0.0277326889
1701,-0.149031341
1702,-0.104441956
1703,-0.201386631
1704,0.229502812
1705,0.153686017
1706,0.162370369
1707,-0.0871482566
1708,0.0312233176
1709,0.08652661
1710,0.132250264
1711,0.153138533
1712,-0.100128196
1713,-0.0243774485
1714,-0.502996266
1715,-0.0251035243
1716,-0.0103289317
1717,0.236937612
1718,0.34541896
1719,-0.304081738
1720,0.00305283652
1721,-0.022848025
1722,-0.0273590609
1723,0.0398906469
1724,-0.228643641
1725,-0.122867398
1726,0.0938066542
1727,-0.0748208389
1728,0.0397545844
1729,-0.0189008713
1730,-0.0595252961
1731,0.0862364471
1732,0.00920819864
1733,-0.0747203976
1734,-0.0808967873
1735,0.0820140541
1736,-0.0562911816
1737,-0.174396232
1738,-0.0105673447
1739,-0.0384218954
1740,0.0130640529
1741,0.151022494
1742,-0.162059724
1743,0.0893172771
1744,0.18143554
1745,0.218300059
1746,0.192119867
1747,-0.0419002585
1748,0.00487455726
1749,-0.111550145
1750,0.126977116
1751,0.0154705755
1752,-0.170985892
1753,-0.208061486
1754,-0.065845266
1755,-0.0403703451
1756,0.00817413069
1757,-0.259005755
1758,-0.0314207934
1759,-0.142615467
1760,-0.112052828
1761,0.146745652
1762,-0.0944337398
1763,-0.276287168
1764,-0.257258058
1765,0.0906417593
1766,-0.205267891
1767,0.0391338393
1768,-0.061050076
1769,-0.125443056
1770,0.269231528
1771,-0.054249499
1772,0.0821443796
1773,0.0419499464
1774,0.159989297
1775,-0.197347894
1776,-0.152910814
1777,-0.151465416
1778,0.104941234
1779,-0.00507102488
1780,-0.193340689
1781,-0.264864951
1782,-0.11909426
1783,0.0757060573
1784,-0.00886010379
1785,-0.116967171
1786,0.157547623
1787,0.0515138693
1788,0.0374385677
1789,-0.0697983801
1790,0.110493273
1791,0.0203289259
1792,-0.0868787095
1793,0.0732733905
1794,-0.443720132
1795,0.0752109885
1796,-0.0750227049
1797,-0.0969278887
1798,-0.0616152622
1799,-0.0143572986
1800,-0.223336369
1801,-0.0381249301
1802,-0.234350145
1803,-0.348793894
1804,0.244934142
1805,-0.280752361
1806,-0.00692092162
1807,0.125430867
1808,-0.324782401
1809,0.0474279746
1810,0.169838771
1811,-0.242399663
1812,0.0875878036
1813,-0.0862026811
1814,-0.158966318
1815,-0.101707533
1816,0.118713439
1817,-0.413212717
1818,0.144881755
1819,-0.18267563
1820,0.0215451159
1821,-0.187035248
1822,0.0768466964
1823,0.0543929935
1824,-0.0087561328
1825,-0.245106831
1826,0.234175161
1827,-0.134825051
1828,0.000198309077
1829,0.123365745
1830,-0.0688017085
1831,0.158520639
1832,-0.0996683314
1833,-0.10023585
1834,0.360448539
1835,-0.0816128626
1836,-0.208797589
1837,0.0263612643
1838,0.0157041494
1839,-0.101538926
1840,-0.00324259978
1841,0.0785393044
1842,-0.164107516
1843,0.158988684
1844,-0.069513768
1845,0.0533171892
1846,-0.226065204
1847,-0.00907489099
1848,-0.0617473051
1849,0.12970674
1850,-0.203165725
1851,-0.100556225
1852,0.104972333
1853,-0.143571019
1854,-0.0370324664
1855,0.135977119
1856,-0.346247852
1857,0.191893101
1858,0.0871144682
1859,-0.0306930467
1860,0.206572264
1861,-0.0177643877
1862,-0.104194023
1863,0.0598926805
1864,-0.259595305
1865,0.185124338
1866,-0.318989873
1867,-0.033546824
1868,0.239781454
1869,0.00392631302
1870,-0.269759357
1871,-0.00272951275
1872,-0.0586202145
1873,-0.120246388
1874,-0.0996510535
1875,-0.195598096
1876,-0.133821785
1877,0.103703357
1878,-0.294917136
1879,-0.0764621794
1880,0.0680909902
1881,-0.104030751
1882,-0.247796834
1883,-0.179232985
1884,0.277790248
1885,0.0997867882
1886,-0.0047686249
1887,-0.150726601
1888,-0.222538561
1889,-0.187098384
1890,-0.140682414
1891,-0.128267139
1892,0.0737475008
1893,-0.109662496
1894,0.00339395413
1895,0.0520644002
1896,-0.10745395
1897,-0.0629091263
1898,-0.0874939337
1899,-0.182793647
1900,-0.0797752291
1901,0.0620662123
1902,-0.221001357
1903,-0.138234288
1904,0.0298842266
1905,-0.0572068505
1906,0.165513486
1907,0.0663376302
1908,0.100989431
1909,0.1292651
1910,0.127047449
1911,0.0440008231
1912,0.00978493504
1913,-0.142449751
1914,0.339518011
1915,0.264345765
1916,-0.0255297981
1917,-0.0347295702
1918,0.14725183
1919,-0.241320208
1920,0.28158325
1921,0.0200860444
1922,-0.130544156
1923,-0.119445287
1924,-0.228489667
1925,0.140511051
1926,-0.119453847
1927,-0.0941011831
1928,-0.379815906
1929,-0.0239190273
1930,-0.151356176
1931,-0.0782903582
1932,0.0154361269
1933,-0.0166275389
1934,0.0445791893
1935,-0.0375628248
1936,0.152625337
1937,-0.249050722
1938,-0.0213185661
1939,0.180000946
1940,-0.0215507112
1941,0.0886468887
1942,-0.00498034991
1943,-0.0792151168
1944,-0.00779138459
1945,-0.0607274845
1946,-0.162658349
1947,0.257301122
1948,-0.0588089041
1949,0.0890224129
1950,-0.173356056
1951,-0.0268192273
1952,-0.148681536
1953,0.103887416
1954,0.0961779654
1955,0.145272732
1956,-0.162130311
1957,-0.136214241
1958,-0.244981363
1959,-0.288141638
1960,-0.347196966
1961,0.152178362
1962,-0.246735692
1963,0.0285607371
1964,-0.160712481
1965,0.139573023
1966,-0.0207419116
1967,0.0627290681
1968,-0.131275088
1969,-0.0455791131
1970,0.033382535
1971,-0.190500855
1972,-0.0711873025
1973,-0.0179048087
1974,0.0998051092
1975,0.148629144
1976,0.197609529
1977,-0.182140425
1978,0.0643016249
1979,0.0297066253
1980,-0.278399795
1981,-0.205248594
1982,0.157280803
1983,0.100599118
1984,0.0737123638
1985,0.0752284527
1986,-0.0767201036
1987,0.0505694039
1988,-0.0264856629
1989,0.0682638958
1990,-0.0409027636
1991,0.0200728923
1992,0.0116742095
1993,0.0549293905
1994,0.230544001
1995,-0.00459222542
1996,0.10571301
1997,-0.0458649099
1998,0.0958122686
1999,0.0370512754
2000,0.128232449
2001,-0.0132992892
2002,0.105699204
2003,0.136233568
2004,0.014169951
2005,0.135848314
2006,-0.0304969866
2007,0.236664474
2008,0.203498498
2009,0.090341188
2010,0.205731168
2011,0.134445325
2012,-0.0270590633
2013,0.0274226349
2014,-0.144967094
2015,0.000889966264
2016,0.255236506
2017,0.21714291
2018,-0.0604814887
2019,-0.133139253
2020,0.0272639338
2021,0.0130131636
2022,-0.0803578198
2023,-0.1143701
2024,0.0392715037
2025,0.123191565
2026,-0.0265065674
2027,-0.0187234078
2028,-0.0714282244
2029,-0.225191906
2030,-0.0278726183
2031,-0.226772949
2032,0.0495725535
2033,0.00600503664
2034,-0.177356079
2035,-0.326209366
2036,-0.00199475186
2037,-0.242657363
2038,0.170277461
2039,-0.0508469269
2040,-0.239265233
2041,0.108107068
2042,-0.258475184
2043,0.0656806976
2044,-0.112037338
2045,0.0589192808
2046,-0.0525897481
2047,0.0550945625
2048,0.0615320541
2049,-0.143808141
2050,-0.0520914011
2051,-0.0849007219
2052,0.0909614787
2053,-0.157729521
2054,-0.0765128583
2055,0.181887567
2056,-0.329998881
2057,0.0906291455
2058,0.15200004
2059,-0.0819174349
2060,0.0259034969
2061,0.207141623
2062,-0.149443671
2063,0.0765234455
2064,-0.135679737
2065,0.00719672954
2066,-0.31793046
2067,0.136620969
2068,-0.306469887
2069,-0.279201031
2070,0.0519664437
2071,0.0759512931
2072,-0.364411056
2073,-0.246356472
2074,0.154239148
2075,-0.178567439
2076,-0.138581872
2077,-0.0014823114
2078,0.0513620824
2079,0.0426275991
2080,-0.41463846
2081,0.0343384109
2082,0.545823038
2083,0.0342942439
2084,0.0150668016
2085,-0.0434321724
2086,-0.131172091
2087,-0.592892349
2088,0.0908526182
2089,-0.100678012
2090,0.100038029
2091,-0.279824078
2092,0.0164999422
2093,-0.00120268669
2094,-0.103175834
2095,-0.0774382725
2096,-0.056749776
2097,0.056995146
2098,-0.16199398
2099,-0.132347092
2100,-0.110288501
2101,0.142689243
2102,0.0677163452
2103,0.279716164
2104,0.0113374004
2105,0.0725144446
2106,0.009434768
2107,0.0575861968
2108,0.0276402682
2109,-0.0250500105
2110,-0.0592577457
2111,-0.06524802
2112,-0.142379478
2113,0.29548803
2114,-0.0634070635
2115,-0.135499403
2116,-0.030633986
2117,0.0650297925
2118,-0.0210856907
2119,-0.335547835
2120,-0.00349772535
2121,0.134323463
2122,0.153933153
2123,0.114390671
2124,0.0947627947
2125,-0.195315465
2126,-0.0785808787
2127,-0.14067325
2128,-0.195904791
2129,0.129106387
2130,0.0410843641
2131,-0.0612085164
2132,-0.234849229
2133,0.251446009
2134,0.221738473
2135,0.166719079
2136,-0.124495722
2137,-0.164709806
2138,-0.0571893528
2139,0.219592184
2140,0.00924758706
2141,0.238236681
2142,0.00240279036
2143,0.0755851865
2144,-0.328652292
2145,-0.16706267
2146,-0.136922166
2147,-0.139011741
2148,-0.18351762
2149,0.234086469
2150,-0.00763838738
2151,0.128110871
2152,-0.130954236
2153,0.353040576
2154,-0.0315574594
2155,0.0538068824
2156,0.10299024
2157,-0.159641519
2158,-0.171638772
2159,0.0338913612
2160,-0.150378704
2161,-0.0138955796
2162,-0.202619016
2163,0.0724733621
2164,0.120056726
2165,-0.0634355918
2166,0.127558649
2167,-0.0085801091
2168,0.121257156
2169,-0.271765471
2170,-0.180085197
2171,-0.270894051
2172,-0.160025999
2173,0.100873351
2174,-0.0579844415
2175,-0.252503604
2176,-0.332616389
2177,0.0720670372
2178,-0.13545908
2179,0.154993489
2180,0.0619134307
2181,0.0504843444
2182,-0.105960101
2183,0.0267231893
2184,-0.126048669
2185,0.017213298
2186,0.0206928328
2187,-0.0987431481
2188,-0.164788797
2189,-0.402205735
2190,-0.110466488
2191,-0.319587857
2192,0.0526379421
2193,0.123672746
2194,0.0113790669
2195,0.0668464825
2196,-0.13677302
2197,0.00391426263
2198,-0.148962259
2199,0.0813056529
2200,-0.0247831643
2201,-0.21435003
2202,-0.0847295672
2203,-0.0489216968
2204,0.0873891339
2205,-0.30501017
2206,-0.285305023
2207,0.0180971473
2208,0.168463945
2209,0.120758757
2210,-0.111914836
2211,0.090454407
2212,0.0489565469
2213,-0.210263297
2214,-0.157096758
2215,0.0512994565
2216,-0.295853168
2217,-0.10866674
2218,-0.15966551
2219,-0.163503602
2220,-0.173010781
2221,0.0112060299
2222,0.194850072
2223,0.0730119869
2224,0.0470116772
2225,0.041319821
2226,-0.195318937
2227,-0.0165920015
2228,0.329499841
2229,-0.193379804
2230,-0.128976688
2231,-0.141638845
2232,-0.0511102974
2233,0.281770378
2234,0.101698726
2235,0.0950946584
2236,0.0658175945
2237,0.0671428367
2238,-0.24115397
2239,0.0181948543
2240,-0.164737597
2241,-0.196335092
2242,-0.12908712
2243,-0.0490748361
2244,-0.0238545649
2245,-0.053632386
2246,-0.0588409416
2247,-0.199443251
2248,0.0505938232
2249,-0.0326705314
2250,-0.0217406005
2251,0.00852796342
2252,0.0784020126
2253,-0.00427738577
2254,-0.153239563
2255,-0.0545700565
2256,0.0692877918
2257,-0.180645183
2258,0.0993287563
2259,-0.0142924441
2260,-0.0656132624
2261,-0.0192937553
2262,-0.0600278042
2263,0.0913535729
2264,-0.215568811
2265,0.0329895578
2266,-0.270831257
2267,-0.0394236781
2268,-0.293418854
2269,-0.246250093
2270,0.046841599
2271,-0.0328303687
2272,-0.0628230795
2273,0.0414652973
2274,-0.0146071641
2275,0.0345262177
2276,0.0309420004
2277,0.0859071463
2278,0.370249957
2279,-0.112969637
2280,-0.127163097
2281,0.247972906
2282,-0.0213385262
2283,0.153921425
2284,-0.0291338954
2285,-0.200372323
2286,-0.0561041608
2287,-0.152013928
2288,0.0297237076
2289,-0.0238075685
2290,-0.0794404298
2291,0.05269555
2292,0.0189365428
2293,-0.195434213
2294,-0.13625665
2295,0.0515415668
2296,-0.205746636
2297,0.026311826
2298,-0.147770703
2299,0.0812039003
2300,-0.0734363571
2301,-0.165255547
2302,0.106747463
2303,-0.0612382591
2304,0.0533459969
2305,-0.000920182443
2306,-0.0160605088
2307,0.184233651
2308,-0.0376012251
2309,0.0354132764
2310,-0.0294374824
2311,-0.0581082925
2312,0.00331789488
2313,0.140749678
2314,-0.0576861128
2315,0.140114322
2316,-0.0898326337
2317,-0.0628254935
2318,-0.0245811343
2319,0.243814796
2320,0.182568535
2321,-0.539622784
2322,-0.332638443
2323,0.0419803523
2324,-0.00256571639
2325,-0.0207182933
2326,-0.243206352
2327,-0.188292027
2328,0.171108633
2329,-0.0329682492
2330,-0.111400343
2331,-0.13175942
2332,-0.0158856288
2333,-0.131097525
2334,-0.0547834784
2335,-0.0671877041
2336,0.14459154
2337,-0.03126432
2338,-0.0754071847
2339,0.173530608
2340,-0.0307899248
2341,-0.58878243
2342,-0.0585566834
2343,-0.247342452
2344,0.038728524
2345,-0.0101111978
2346,-0.149354994
2347,0.0740279704
2348,-0.078915365
2349,0.0507311411
2350,-0.164703444
2351,-0.150960013
2352,-0.186625928
2353,-0.12348453
2354,-0.188701332
2355,0.260467142
2356,-0.126009554
2357,-0.190042362
2358,0.0955303535
2359,-0.000645077438
2360,0.0977461487
2361,0.0303681232
2362,0.106060959
2363,-0.0533337072
2364,-0.0352601334
2365,-0.109011218
2366,0.00357787171
2367,0.123335831
2368,0.110784151
2369,-0.042872224
2370,0.12289644
2371,0.120575383
2372,-0.115161948
2373,-0.0243915115
2374,-0.395453125
2375,-0.0207977928
2376,-0.213063538
2377,-0.00877946522
2378,0.11785616
2379,0.0404436402
2380,-0.0383495949
2381,0.0532781407
2382,0.183809459
2383,-0.228776708
2384,0.0489580259
2385,0.133697763
2386,0.253216833
2387,-0.110652357
2388,0.0622212999
2389,-0.0321563631
2390,0.0356952958
2391,-0.20011577
2392,-0.0266690999
2393,-0.191195562
2394,0.0705383569
2395,0.098533392
2396,-0.0739807785
2397,0.00837387796
2398,-0.0854104385
2399,-0.0200497638
2400,-0.0819746554
2401,-0.286715806
2402,0.145452335
2403,-0.106945656
2404,0.130775884
2405,-0.116231486
2406,0.0320296921
2407,-0.0267486554
2408,-0.0928698033
2409,-0.047798384
2410,0.0456580073
2411,-0.0762158185
2412,0.151434526
2413,-0.12898156
2414,0.0583254918
2415,0.00531417411
2416,0.0313585289
2417,-0.171653107
2418,-0.144987464
2419,0.104117572
2420,-0.181352288
2421,-0.431467444
2422,-0.070216924
2423,0.128329977
2424,-0.0658982098
2425,-0.117575392
2426,0.0299035665
2427,0.0966415927
2428,-0.115367383
2429,-0.0744223073
2430,-0.189010218
2431,0.231828943
2432,-0.1261089
2433,-0.338517159
2434,0.153247684
2435,-0.126530215
2436,-0.177707806
2437,0.0527221933
2438,-0.124354266
2439,-0.0795666575
2440,-0.107318297
2441,-0.00662583858
2442,-0.226799905
2443,-0.027893953
2444,-0.0362644158
2445,-0.0759080723
2446,0.0618490465
2447,0.035769131
2448,-0.01797981
2449,-0.061157722
2450,0.0079125138
2451,-0.10151431
2452,-0.0368607752
2453,-0.222418174
2454,-0.0416095555
2455,-0.0195131805
2456,-0.384006619
2457,-0.125429392
2458,-0.142554909
2459,-0.00577491196
2460,-0.0531990379
2461,-0.0794904754
2462,0.0867523849
2463,-0.0877712667
2464,0.186484188
2465,-0.209617883
2466,0.229992449
2467,-0.0570279174
2468,-0.166233689
2469,-0.00867756177
2470,-0.172924191
2471,0.0787206143
2472,0.0842250139
2473,-0.0487979762
2474,0.304682523
2475,-0.115251645
2476,-0.268359661
2477,0.0150847221
2478,-0.0231793895
2479,-0.0378813483
2480,-0.198410735
2481,0.120492041
2482,-0.326943576
2483,-0.154430404
2484,-0.162025243
2485,0.0503661595
2486,-0.213653997
2487,0.0717741176
2488,-0.0843161568
2489,0.0816770643
2490,0.0442464873
2491,0.0469645672
2492,-0.0308993477
2493,0.0345984623
2494,-0.112049296
2495,-0.0359149165
2496,-0.008955542
2497,0.00293643191
2498,0.14134644
2499,0.00522183953
2500,0.337495506
2501,0.180457041
2502,-0.205920726
2503,0.0971297026
2504,-0.106343128
2505,-0.13719663
2506,-0.269656241
2507,-0.00414708629
2508,-0.262390405
2509,-0.0221114866
2510,-0.16433154
2511,8.46907496e-05
2512,-0.0648462027
2513,0.139504567
2514,-0.255923241
2515,-0.16119045
2516,-0.0772000551
2517,-0.19207269
2518,-0.205433547
2519,0.0671851337
2520,-0.222668096
2521,-0.0503922589
2522,-0.181016788
2523,-0.0396888703
2524,-0.287289441
2525,0.0381444506
2526,-0.197643846
2527,-0.0452808514
2528,0.0514823794
2529,0.109038375
2530,0.0376308076
2531,-0.0567965209
2532,-0.131407782
2533,0.0212182589
2534,-0.188470215
2535,-0.125014767
2536,-0.277092129
2537,-0.107136443
2538,0.0432907045
2539,-0.252533227
2540,0.0088436408
2541,0.0995105729
2542,0.0262827761
2543,-0.0302910227
2544,-0.117445819
2545,-0.0328260697
2546,0.08934737
2547,-0.522199869
2548,0.187076554
2549,0.178011283
2550,0.161663637
2551,-0.0391018279
2552,-0.0577302352
2553,0.317153275
2554,0.176744685
2555,0.395362437
2556,-0.289999604
2557,-0.174335778
2558,-0.0264532417
2559,-0.721116722
2560,-0.253220856
2561,0.0282046907
2562,0.0167412013
2563,-0.0638106763
2564,-0.35450685
2565,-0.368994027
2566,-0.331707269
2567,-0.0403396375
2568,-0.242685303
2569,-0.0816166699
2570,-0.205695599
2571,-0.173498884
2572,-0.0422796868
2573,0.187471464
2574,0.102754883
2575,-0.275039107
2576,0.370033681
2577,-0.313681692
2578,-0.21368295
2579,0.0928611159
2580,-0.0700531751
2581,0.111685224
2582,-0.292297095
2583,-0.16616638
2584,-0.457977682
2585,-0.138231948
2586,-0.263719261
2587,-0.0682700202
2588,-0.0781217813
2589,-0.10394071
2590,-0.175386727
2591,-0.759575903
2592,-0.232862264
2593,-0.0635204166
2594,0.135028616
2595,-0.244777456
2596,-0.187904403
2597,0.078997016
2598,-0.133716017
2599,0.330435276
2600,-0.140132919
2601,0.213598207
2602,-0.0458519422
2603,0.071494773
2604,-0.193710923
2605,0.037703611
2606,0.0249687918
2607,0.185706079
2608,0.0196318515
2609,-0.095231384
2610,-0.0683166832
2611,-0.0839339122
2612,0.000363994157
2613,0.0720209479
2614,0.0450441018
2615,-0.0896894038
2616,0.00533549394
2617,0.0787966624
2618,-0.0381710529
2619,-0.0785358399
2620,-0.0706114918
2621,-0.166369602
2622,-0.0669090897
2623,0.239973709
2624,-0.0786576197
2625,-0.0394128375
2626,-0.113568954
2627,0.171663284
2628,0.0301895551
2629,0.241537809
2630,-0.191260517
2631,-0.0308474172
2632,0.0643764734
2633,0.0979981273
2634,0.0711070001
2635,0.0553482957
2636,0.00704646762
2637,0.107905217
2638,0.383506596
2639,-0.0329473577
2640,-0.168623954
2641,0.113450743
2642,0.0741907507
2643,0.128512144
2644,-0.0363273025
2645,0.10112346
2646,0.065472953
2647,0.0691879913
2648,-0.0870527253
2649,-0.0215953551
2650,0.179816842
2651,0.102582887
2652,0.0573775135
2653,-0.0734058544
2654,-0.143165022
2655,0.0370311402
2656,-0.0554021448
2657,0.211048067
2658,-0.0984178558
2659,-0.18751131
2660,-0.023641061
2661,0.132521838
2662,-0.175040707
2663,-0.0729017481
2664,0.000750357169
2665,-0.0135802953
2666,-0.0410482101
2667,0.0181275774
2668,-0.0472324453
2669,0.0171300042
2670,-0.109076165
2671,0.162131906
2672,0.257423997
2673,-0.128360599
2674,-0.186443135
2675,0.205455855
2676,-0.219305947
2677,-0.0622971058
2678,0.0593413934
2679,-0.381591946
2680,-0.0289107487
2681,0.0361985229
2682,-0.102941602
2683,0.00479961606
2684,-0.129398987
2685,-0.158763766
2686,-0.0330150537
2687,0.043947462
2688,-0.146617457
2689,-0.0817239359
2690,-0.00655871257
2691,-0.0169829112
2692,-0.125219762
2693,0.128379911
2694,-0.0747313797
2695,0.0464219749
2696,-0.112242289
2697,-0.164144784
2698,0.111186855
2699,0.235547006
2700,0.139730349
2701,0.127563164
2702,-0.285593331
2703,-0.165875301
2704,-0.260065436
2705,0.411463797
2706,-0.212144062
2707,0.232662007
2708,-0.389571577
2709,-0.0629190654
2710,0.0220311582
2711,-0.396133304
2712,-0.286275268
2713,0.0476280041
2714,0.467319429
2715,0.188248619
2716,0.268648297
2717,0.211048931
2718,-0.0352436677
2719,0.140060246
2720,-0.0808653906
2721,-0.0984165296
2722,-0.0228697788
2723,0.264035106
2724,-0.0052405484
2725,0.00639214693
2726,0.0350685976
2727,-0.47111848
2728,-0.0887469575
2729,-0.0486249439
2730,-0.085437417
2731,-0.193963036
2732,-0.0498310514
2733,0.0138724577
2734,-0.266031623
2735,-0.134700269
2736,0.117565177
2737,0.0924578533
2738,-0.00348918512
2739,0.0594134405
2740,-0.110165857
2741,0.0809906051
2742,-0.227187932
2743,0.160462454
2744,-0.131237894
2745,-0.120261975
2746,0.106166728
2747,-0.622155309
2748,-0.17096585
2749,-0.110125244
2750,-0.160672292
2751,0.0217116922
2752,-0.144281045
2753,0.0275904015
2754,-0.0532632731
2755,-0.194878101
2756,0.207922727
2757,-0.242652223
2758,-0.139200732
2759,-0.249993756
2760,0.0768746883
2761,0.00575564941
2762,-0.0430275202
2763,0.220707476
2764,0.126560926
2765,-0.250010788
2766,-0.227988601
2767,-0.0276593491
2768,-0.162325367
2769,0.07100261
2770,-0.15170756
2771,0.0312619433
2772,0.0920590684
2773,-0.164037123
2774,0.104385771
2775,0.193278193
2776,0.00564705348
2777,0.0342218056
2778,-0.0849151835
2779,0.0488585718
2780,-0.130217165
2781,0.103123747
2782,-0.148912579
2783,0.0664155334
2784,-0.224470332
2785,0.0655623451
2786,-0.0304236021
2787,-0.0769022852
2788,-0.246552885
2789,-0.190647885
2790,-0.219513863
2791,0.0409348682
2792,-0.159356683
2793,0.105966642
2794,0.155364141
2795,-0.0757016689
2796,0.0607908964
2797,-0.108933523
2798,-0.111702867
2799,0.12695621
2800,-0.196350023
2801,0.307945907
2802,-0.187783986
2803,-0.044552248
2804,-0.0738073513
2805,-0.15568009
2806,0.162918538
2807,0.0679894686
2808,-0.444544613
2809,-0.0629587173
2810,0.0176721681
2811,-0.273513108
2812,-0.227442548
2813,0.0649616867
2814,0.242716581
2815,0.0169061385
2816,-0.125830784
2817,-0.255210429
2818,-0.0947878063
2819,0.0752371177
2820,0.0467672013
2821,-0.079273656
2822,0.0501517095
2823,0.13785255
2824,-0.0869576111
2825,-0.10089612
2826,0.00567073282
2827,0.112873003
2828,0.022041155
2829,0.313735604
2830,0.0253962465
2831,-0.367642879
2832,0.0448554382
2833,-0.00745867798
2834,-0.0841259584
2835,-0.0303646252
2836,-0.035788171
2837,0.0711130351
2838,-0.117518686
2839,-0.217631519
2840,0.0179247446
2841,-0.212329686
2842,-0.133600205
2843,0.0224762
2844,0.0573278666
2845,0.204608113
2846,-0.173154891
2847,0.0838665962
2848,0.0335953049
2849,-0.0182355642
2850,0.0411828868
2851,-0.297362238
2852,-0.105291978
2853,-0.0470473021
2854,-0.00127469352
2855,-0.250163257
2856,-0.0365729406
2857,-0.2198309
2858,-0.0677124932
2859,0.166398257
2860,-0.14478685
2861,-0.0115265278
2862,0.168844
2863,-0.0927211493
2864,-0.0333650187
2865,0.0221188553
2866,-0.353406996
2867,-0.0961141065
2868,-0.18266198
2869,-0.267360836
2870,-0.101143658
2871,0.0622640848
2872,-0.0859022886
2873,0.181471556
2874,0.162761822
2875,-0.0589528643
2876,0.0863508731
2877,-0.232979745
2878,-0.0499654971
2879,-0.314976305
2880,-0.218814328
2881,0.0607389063
2882,-0.0511649847
2883,0.0217947233
2884,0.0378143005
2885,-0.0118459882
2886,-0.176425144
2887,0.00730487145
2888,-0.0219684877
2889,-0.0587330759
2890,-0.199410543
2891,-0.0207541473
2892,0.141107678
2893,0.0172527004
2894,-0.0440177359
2895,-0.0415173396
2896,-0.126134098
2897,0.232916206
2898,0.0276887883
2899,-0.0433818661
2900,-0.158274382
2901,-0.0602715276
2902,0.0649361387
2903,-0.0326079205
2904,0.0688971207
2905,-0.0435683429
2906,-0.143682078
2907,0.0116219278
2908,-0.188851625
2909,-0.144108608
2910,-0.135148093
2911,0.107880935
2912,-0.0054195011
2913,-0.0796039477
2914,-0.102464885
2915,-0.0168200508
2916,-0.0972793549
2917,-0.283767104
2918,0.072640799
2919,-0.0152182868
2920,-0.133537903
2921,0.0422376096
2922,-0.164910182
2923,0.199587226
2924,-0.00761263538
2925,-0.27633363
2926,-0.222028419
2927,0.0417210385
2928,-0.124394789
2929,0.0951595828
2930,0.141063631
2931,0.00989641994
2932,-0.071666494
2933,0.265386134
2934,-0.259533346
2935,-0.140906453
2936,0.0282334443
2937,-0.130120859
2938,-0.0348169319
2939,-0.0324507318
2940,-0.256499708
2941,0.00114678498
2942,0.162784576
2943,-0.188238367
2944,-0.123903982
2945,0.187052876
2946,-0.0680622607
2947,0.046800822
2948,-0.32611528
2949,-0.194521114
2950,-0.0517162308
2951,-0.131896555
2952,0.0244883113
2953,-0.0573185012
2954,0.0195126515
2955,0.0106087066
2956,-0.310669869
2957,-0.354536235
2958,-0.00532823848
2959,-0.00312098349
2960,-0.0800096914
2961,-0.150068253
2962,0.0820482746
2963,0.0992716476
2964,-0.0651676282
2965,0.0777714029
2966,-0.212270364
2967,-0.0569650829
2968,-0.00109412149
2969,-0.0203934666
2970,-0.0884214342
2971,-0.147709489
2972,0.0174110904
2973,-0.130358383
2974,0.141026378
2975,-0.133863509
2976,-0.030849779
2977,0.109728411
2978,-0.226837695
2979,-0.119269602
2980,-0.122830294
2981,-0.321628392
2982,-0.0557746589
2983,-0.0720372051
2984,0.0312962756
2985,0.130410597
2986,-0.0401570424
2987,-0.0885172635
2988,0.0713586509
2989,-0.0648999214
2990,-0.356733382
2991,-0.292853445
2992,-0.160610288
2993,0.0749027431
2994,-0.0192210544
2995,-0.376551956
2996,0.052862294
2997,0.032063663
2998,0.00614594528
2999,-0.0432268679
3000,0.0404184312
3001,0.19340907
3002,-0.0232488662
3003,-0.150211036
3004,0.0924871042
3005,0.366854906
3006,-0.343898445
3007,0.00107871427
3008,0.169767827
3009,-0.0389645696
3010,0.110490642
3011,0.0499889255
3012,0.0280013271
3013,-0.093297407
3014,-0.308329254
3015,-0.144382104
3016,-0.156525135
3017,-0.187132537
3018,-0.284547091
3019,0.00204476621
3020,-0.0598707572
3021,-0.433452189
3022,0.0674309209
3023,0.0666526258
3024,-0.00746559817
3025,0.33719784
3026,-0.000826709555
3027,0.0316382013
3028,-0.0468633138
3029,0.101421617
3030,-0.115003847
3031,-0.505470991
3032,-0.0728940517
3033,0.163568184
3034,-0.0572366305
3035,-0.113503955
3036,0.00780478772
3037,-0.0832821131
3038,-0.0512961186
3039,-0.0391361527
3040,-0.101988181
3041,-0.0684624389
3042,0.300982177
3043,-0.0578877181
3044,-0.052959118
3045,-0.0460974723
3046,-0.0355948843
3047,-0.0136441514
3048,0.0130054504
3049,-0.10306184
3050,0.0241461992
3051,-0.249374494
3052,0.0513021126
3053,-0.103762016
3054,0.104952887
3055,-0.0801475942
3056,-0.0557341836
3057,-0.216903716
3058,-0.230982304
3059,0.0664321259
3060,-0.413390428
3061,-0.172120512
3062,-0.0567481965
3063,0.0286145676
3064,-0.0993746296
3065,-0.29842636
3066,0.133146673
3067,-0.088568002
3068,0.204750076
3069,-0.0538538173
3070,0.0796960443
3071,-0.338922501
3072,-0.162445202
3073,0.281915694
3074,-0.0156717598
3075,-0.311873555
3076,0.0226896238
3077,-0.0196095463
3078,-0.162761763
3079,0.0613413937
3080,0.00253813993
3081,-0.144849434
3082,-0.193337768
3083,0.0248746313
3084,-0.170567408
3085,-0.00191975851
3086,0.0412405394
3087,0.0130680883
3088,-0.191245899
3089,0.00672937836
3090,0.0971206501
3091,-0.350370318
3092,-0.0514341407
3093,-0.259834558
3094,0.0811909735
3095,-0.204517782
3096,-0.081051439
3097,0.117084146
3098,-0.116924748
3099,-0.00305501232
3100,-0.0327355079
3101,-0.149557188
3102,-0.345704466
3103,0.122440509
3104,-0.355113745
3105,-0.143529937
3106,-0.00494973734
3107,0.057791736
3108,0.0331618637
3109,0.0322109275
3110,-0.0654831976
3111,-0.262670606
3112,-0.0351959467
3113,-0.0346497074
3114,0.137777641
3115,-0.0698208734
3116,0.0822709128
3117,0.0398551077
3118,0.130657211
3119,0.175285146
3120,-0.00890192296
3121,0.25883311
3122,-0.292730778
3123,-0.0328043848
3124,-0.309292436
3125,-0.112219028
3126,-0.0870812163
3127,0.015216602
3128,-0.175574541
3129,-0.00351502676
3130,-0.0411657318
3131,0.568911672
3132,-0.107727818
3133,0.065195635
3134,0.0217855517
3135,0.0231489595
3136,-0.0328609906
3137,0.114077553
3138,-0.0525762588
3139,-0.165246964
3140,0.0738959983
3141,0.154868394
3142,0.0929266959
3143,0.0546716712
3144,0.0477461331
3145,-0.157715678
3146,-0.0185841043
3147,0.124462165
3148,0.00883897301
3149,-0.0787278414
3150,0.103234626
3151,0.264496535
3152,-0.0172767956
3153,-0.0672493279
3154,-0.192523971
3155,0.0799571201
3156,-0.156122044
3157,-0.138983399
3158,-0.0179186072
3159,-0.202867255
3160,-0.215882391
3161,-0.0521288179
3162,-0.402777255
3163,-0.047197666
3164,-0.203422368
3165,-0.0276231691
3166,-0.0375522338
3167,0.182647735
3168,-0.199178755
3169,0.0354524441
3170,0.000839108252
3171,0.0712940991
3172,-0.096557349
3173,-0.0627993047
3174,0.0442035273
3175,0.0334195942
3176,-0.176972345
3177,0.0547078475
3178,-0.224426582
3179,-0.152373061
3180,0.0379366241
3181,-0.242033198
3182,-0.393279999
3183,0.0452547483
3184,-0.130058244
3185,-0.139603376
3186,0.106677711
3187,-0.329435855
3188,-0.074276261
3189,-0.101851746
3190,0.127922222
3191,-0.588601589
3192,-0.121466115
3193,-0.0991940349
3194,-0.190037891
3195,-0.29964453
3196,0.155174777
3197,-0.106941022
3198,-0.203366429
3199,0.030774178
3200,-0.0181726031
3201,-0.263636082
3202,0.197422758
3203,0.0780527741
3204,0.210949078
3205,-0.040138673
3206,-0.101896919
3207,-0.254932851
3208,-0.229884848
3209,-0.0102694966
3210,-0.10994231
3211,0.0573863499
3212,0.229899198
3213,0.206501424
3214,-0.076933749
3215,-0.0928163007
3216,0.0852568299
3217,-0.351737589
3218,-0.443918377
3219,-0.115527764
3220,-0.260534585
3221,0.0256949905
3222,0.0677544177
3223,0.161343768
3224,-0.222383797
3225,-0.143538982
3226,-0.113547176
3227,0.0312519185
3228,-0.0783396289
3229,-0.20195277
3230,-0.610884249
3231,-0.089209117
3232,-0.125260353
3233,0.0148636866
3234,0.0325122438
3235,-0.17816487
3236,0.0386315063
3237,-0.0782970935
3238,-0.192468435
3239,-0.0528051816
3240,-0.104449213
3241,0.290516347
3242,-0.0164928678
3243,0.126099259
3244,0.211929008
3245,-0.301804185
3246,0.0564331003
3247,-0.0373838171
3248,-0.165015101
3249,-0.0629969612
3250,-0.334364831
3251,-0.175228685
3252,-0.10164801
3253,0.0620140284
3254,0.0727159902
3255,-0.00161459297
3256,-0.0785209462
3257,-0.0417498238
3258,-0.240492776
3259,-0.515891731
3260,-0.181192338
3261,-0.237714171
3262,0.256906062
3263,0.0519461483
3264,-0.110442132
3265,0.0090817716
3266,-0.193475053
3267,0.0692521706
3268,-0.00584872346
3269,-0.0794951245
3270,-0.234051868
3271,-0.116111159
3272,0.14265345
3273,0.0431874692
3274,0.0528481826
3275,0.0935086757
3276,-0.119524971
3277,0.347049564
3278,-0.0551575869
3279,0.0603394173
3280,0.351695925
3281,-0.223898992
3282,-0.0545770749
3283,0.131209746
3284,0.305967748
3285,-0.122171782
3286,-0.304214239
3287,0.0141846761
3288,-0.230031818
3289,-0.0390589759
3290,0.243426174
3291,0.126993567
3292,0.109890826
3293,-0.138288245
3294,0.277668595
3295,0.0683921427
3296,-0.0695568621
3297,-0.0906132087
3298,0.164051801
3299,0.38576445
3300,0.0386447161
3301,-0.147280246
3302,-0.0515581481
3303,0.040100541
3304,-0.153532505
3305,-0.0717740282
3306,-0.121707723
3307,-0.0521635525
3308,-0.0427564345
3309,0.21443674
3310,-0.119574197
3311,-0.0876353234
3312,0.0599667504
3313,-0.211782649
3314,-0.195150271
3315,0.0840273723
3316,0.0080274865
3317,-0.359098732
3318,-0.292578042
3319,-0.103582524
3320,0.432626307
3321,0.106674723
3322,-0.07804548
3323,0.0436822027
3324,-0.0913423523
3325,-0.0718498081
3326,-0.134894207
3327,-0.314576089
3328,-0.0738483369
3329,-0.0179022364
3330,-0.215586528
3331,-0.191654697
3332,-0.0787202045
3333,-0.0419557877
3334,0.0125266835
3335,-0.0652568266
3336,-0.16328384
3337,0.0201119762
3338,-0.000372543465
3339,-0.0129313022
3340,0.0474031977
3341,-0.0787753463
3342,0.0849575251
3343,-0.179503471
3344,-0.280496866
3345,0.0602866672
3346,-0.403569311
3347,0.0350913592
3348,-0.670296729
3349,-0.2223638
3350,-0.375942916
3351,0.0401650481
3352,-0.123498134
3353,0.211605325
3354,-0.168826208
3355,-0.00870161504
3356,-0.1569428
3357,0.230953768
3358,-0.0558282211
3359,-0.103629038
3360,0.1231803
3361,-0.0285049211
3362,-0.188018948
3363,-0.151933402
3364,-0.0253694262
3365,-0.139577657
3366,-0.0653649941
3367,-0.354160011
3368,-0.0987387151
3369,-0.242469177
3370,-0.223864064
3371,-0.143600404
3372,-0.0352164842
3373,0.0191021618
3374,-0.156217828
3375,-0.0171875674
3376,-0.0146466605
3377,-0.291160673
3378,-0.0490836091
3379,0.137885571
3380,0.0874689147
3381,-0.0987056866
3382,-0.207544342
3383,-0.035779845
3384,-0.478471905
3385,0.113780007
3386,-0.0527105555
3387,-0.507210732
3388,-0.0621566437
3389,-0.22869952
3390,-0.0419306196
3391,0.0432860851
3392,-0.152972624
3393,-0.320356637
3394,0.128175646
3395,0.0733240098
3396,0.0569175668
3397,-0.00989881903
3398,0.0505914204
3399,-0.234779745
3400,-0.0374087915
3401,-0.0634140819
3402,-0.00143688091
3403,-0.11127013
3404,0.00210970524
3405,-0.379692107
3406,-0.137624413
3407,0.0918811187
3408,0.0538245551
3409,-0.0461658426
3410,0.115978628
3411,0.150897846
3412,-0.0775470957
3413,-0.2007875
3414,0.00486289151
3415,0.174878985
3416,-0.0853653029
3417,0.0471544527
3418,0.0349765643
3419,0.572943568
3420,0.0117302313
3421,-0.0530808419
3422,-0.0258122273
3423,0.196072772
3424,-0.154592678
3425,-0.145764261
3426,-0.0520952195
3427,-0.0678774789
3428,-0.155568525
3429,0.122471496
3430,-0.452417254
3431,0.0318178274
3432,-0.263344616
3433,0.439277768
3434,0.0713124722
3435,0.125470057
3436,0.0625529513
3437,-0.091705963
3438,-0.443575472
3439,-0.099713847
3440,-0.0517114326
3441,-0.0700142905
3442,0.167788908
3443,0.288482368
3444,0.11922247
3445,0.0132393762
3446,0.147267789
3447,0.0989581198
3448,-0.351275742
3449,-0.20558764
3450,-0.114160009
3451,-0.0514859483
3452,-0.227364257
3453,0.298445016
3454,0.0924631208
3455,0.0154012153
3456,-0.0454920009
3457,0.0104547888
3458,0.0415038988
3459,-0.205993086
3460,0.0383012667
3461,0.093497701
3462,-0.0834842324
3463,0.0374791026
3464,-0.19974038
3465,0.118108973
3466,-0.194176748
3467,-0.101097204
3468,0.0860237032
3469,0.480401307
3470,0.00587041629
3471,-0.147866875
3472,0.059981361
3473,0.260080814
3474,-0.101304658
3475,-0.00385113386
3476,-0.10562335
3477,0.00935609918
3478,-0.0326359197
3479,0.00173418107
3480,-0.165261105
3481,-0.0626682788
3482,-0.193394244
3483,0.0599948503
3484,0.0653988123
3485,-0.331265301
3486,-0.113925032
3487,-0.264560938
3488,0.0911400467
3489,-0.165455118
3490,-0.219108626
3491,0.115132779
3492,-0.0731800348
3493,-0.470651925
3494,-0.178002641
3495,-0.1866941
3496,0.128979132
3497,-0.423059672
3498,-0.0888798684
3499,-0.0891925022
3500,0.243171602
3501,0.0156473685
3502,-0.0968770236
3503,0.0611349978
3504,-0.0445782579
3505,-0.115479104
3506,0.146163195
3507,-0.0164989438
3508,-0.25646165
3509,0.0883970782
3510,-0.122865662
3511,-0.140117601
3512,-0.0812108889
3513,0.296043515
3514,0.168893114
3515,-0.247398525
3516,0.0177716184
3517,-0.220714822
3518,0.133932516
3519,0.0653112754
3520,0.0548990145
3521,0.0885229111
3522,0.00286926725
3523,-0.0400644876
3524,0.0725388974
3525,-0.12032561
3526,-0.127570316
3527,0.0153613295
3528,0.0168558639
3529,-0.0718447343
3530,-0.11432071
3531,0.104764774
3532,-0.067620337
3533,-0.0304337367
3534,0.101408437
3535,0.00554640871
3536,-0.0187397655
3537,-0.010762468
3538,-0.0261875391
3539,0.0063028736
3540,0.0441487208
3541,-0.296656102
3542,0.104719676
3543,0.177925199
3544,-0.18520391
3545,0.0344036594
3546,-0.214213967
3547,-0.0933789387
3548,-0.130451396
3549,0.103030235
3550,-0.23047857
3551,0.0548213832
3552,-0.136723235
3553,-0.0802702904
3554,-0.0347432531
3555,-0.0490708016
3556,-0.0673440769
3557,-0.150903225
3558,0.375172079
3559,-0.251115859
3560,-0.130519226
3561,-0.0375273079
3562,-0.0692872405
3563,0.0318129845
3564,-0.296701342
3565,-0.208899662
3566,0.0169860832
3567,-0.0312225036
3568,-0.113741934
3569,0.124157749
3570,-0.162271157
3571,0.127253979
3572,-0.0195333604
3573,-0.0786574483
3574,-0.161622673
3575,-0.0443648472
3576,0.0490690097
3577,-0.308381587
3578,-0.256271392
3579,-0.0188590828
3580,-0.00761944382
3581,0.0590208396
3582,0.601375043
3583,0.0627524927
3584,-0.0312500298
3585,0.137067199
3586,-0.116995856
3587,0.00427463511
3588,-0.0610108189
3589,-0.00255304156
3590,-0.110920556
3591,-0.0935763419
3592,-0.0608724132
3593,0.0781221613
3594,-0.0302123819
3595,-0.13359718
3596,-0.0952813104
3597,0.024601087
3598,-0.198445916
3599,0.0216781721
3600,-0.0851444155
3601,0.144997239
3602,0.105529137
3603,0.049558796
3604,0.387741596
3605,-0.0237031467
3606,-0.152389854
3607,-0.1156305
3608,0.0387491286
3609,-0.10783191
3610,-0.398186594
3611,-0.250884742
3612,0.0580478273
3613,-0.0273710415
3614,0.0179859418
3615,0.138817862
3616,0.207396016
3617,-0.219027638
3618,0.0581607036
3619,-0.0438993424
3620,0.129078194
3621,0.505100965
3622,-0.00238697929
3623,-0.253163189
3624,-0.0342548266
3625,-0.235491142
3626,0.013499313
3627,-0.0468353182
3628,-0.113211796
3629,-0.0262231771
3630,-0.250555187
3631,0.0250478126
3632,-0.123653486
3633,-0.130874157
3634,0.329325914
3635,0.248229071
3636,0.0958409011
3637,-0.175821409
3638,-0.100191869
3639,0.0336693376
3640,0.06726522
3641,0.0651931763
3642,-0.0716393217
3643,0.0354587212
3644,-0.134218037
3645,-0.0976321697
3646,0.0517115481
3647,0.0498255342
3648,0.180019557
3649,-0.144371197
3650,0.272068262
3651,0.15720129
3652,-0.0575104058
3653,-0.0999892354
3654,-0.189006984
3655,-0.0426026061
3656,0.00327352877
3657,0.0501320772
3658,-0.117688805
3659,0.0656751469
3660,-0.0330810063
3661,0.0623133816
3662,0.0576762445
3663,0.0608114935
3664,0.029862104
3665,0.0410164669
3666,0.143329248
3667,-0.106269553
3668,0.0463805608
3669,-0.158636704
3670,-0.239707008
3671,-0.258580476
3672,-0.00417786837
3673,-0.167897567
3674,-0.0434486456
3675,-0.0904479027
3676,0.0203253459
3677,-0.215394273
3678,0.097242035
3679,-0.0128884716
3680,0.000698437332
3681,0.0886183977
3682,-0.228925899
3683,-0.187709525
3684,-0.0210204404
3685,0.0933562592
3686,-0.0898945108
3687,0.0501235984
3688,0.0134313516
3689,-0.0499425903
3690,0.0617521927
3691,-0.0186241176
3692,-0.294684172
3693,-0.1968458
3694,-0.0225335415
3695,-0.0783895552
3696,-0.0677251816
3697,-0.25358057
3698,-0.25663358
3699,0.0801077485
3700,-0.131574422
3701,0.212500751
3702,-0.107989699
3703,0.114190422
3704,0.0307404716
3705,-0.200775951
3706,0.0911921561
3707,-0.624075711
3708,-0.0335052684
3709,-0.162234932
3710,-0.0237556417
3711,0.16378653
3712,-0.0354076102
3713,-0.0912635103
3714,0.1144168
3715,-0.0905301198
3716,-0.0486750044
3717,0.0344875418
3718,-0.0133263776
3719,-0.0207858998
3720,0.00515797548
3721,0.186400905
3722,0.22592333
3723,0.21412006
3724,0.152071401
3725,-0.0740993768
3726,0.105386734
3727,0.277653158
3728,0.0639186427
3729,-0.169660076
3730,0.125932217
3731,-0.0280036218
3732,-0.0265568905
3733,0.122157015
3734,-0.0252764225
3735,-0.170361549
3736,-0.0292098168
3737,0.0493677929
3738,-0.00143548939
3739,-0.630215347
3740,0.0302865542
3741,-0.16625455
3742,0.0893570706
3743,0.0732959062
3744,-0.0869807452
3745,-0.160991713
3746,0.212805733
3747,-0.0238012653
3748,0.0052189799
3749,-0.175781384
3750,-0.232842997
3751,0.0833896101
3752,0.0623338632
3753,-0.0160481595
3754,-0.34325093
3755,-0.281462759
3756,-0.0650853589
3757,-0.0490712784
3758,-0.191809684
3759,-0.0765871182
3760,-0.295021772
3761,-0.0434054472
3762,-0.0546717234
3763,-0.0182747357
3764,-0.176992446
3765,-0.0842761919
3766,-0.345835954
3767,-0.113735043
3768,-0.285902858
3769,0.200057223
3770,-0.120945573
3771,0.103561066
3772,-0.0464737937
3773,0.0782892033
3774,-0.109399498
3775,-0.00934771728
3776,-0.268217146
3777,0.0960168988
3778,0.121229693
3779,0.00134819292
3780,0.103081413
3781,-0.148129314
3782,-0.0507570356
3783,0.00980966538
3784,0.131060064
3785,-0.25870961
3786,-0.156956404
3787,-0.205098912
3788,-0.0791375116
3789,0.0350504592
3790,-0.189357951
3791,0.0607812479
3792,-0.0214183796
3793,0.18851082
3794,-0.139133915
3795,0.0011796956
3796,-0.0491366312
3797,-0.0940967724
3798,-0.0677096397
3799,-0.0342569277
3800,-0.225831568
3801,0.0451464504
3802,-0.158965722
3803,-0.0478933901
3804,0.00496452721
3805,0.0321433209
3806,-0.191651344
3807,0.0269930866
3808,-0.179874837
3809,-0.0723480359
3810,0.174252734
3811,-0.00976618938
3812,-0.00717737712
3813,-0.1469253
3814,-0.210518524
3815,0.121203959
3816,-0.0293721445
3817,0.147118926
3818,0.107768655
3819,-0.215532213
3820,-0.204924464
3821,0.226515353
3822,-0.234771401
3823,-0.436541408
3824,-0.11250671
3825,-0.345349312
3826,-0.0827413201
3827,-0.612538099
3828,-0.072498031
3829,-0.123038188
3830,0.224468306
3831,-0.293881863
3832,-0.0589626618
3833,-0.248105273
3834,0.374885857
3835,-0.179185286
3836,-0.00319823506
3837,-0.243637204
3838,0.0444122665
3839,0.414130569
3840,0.0545687973
3841,0.217697099
3842,-0.254605949
3843,-0.0216824915
3844,0.369007468
3845,-0.0552413017
3846,0.384717286
3847,0.0563722588
3848,-0.0573871806
3849,0.20446822
3850,0.100853637
3851,0.426742673
3852,0.32501328
3853,-0.259689361
3854,0.0566829629
3855,0.21050854
3856,-0.318243593
3857,0.124925643
3858,0.101312019
3859,0.0367267244
3860,0.158344418
3861,-0.352516502
3862,-0.0095345201
3863,0.0796671361
3864,0.0935029238
3865,0.0804218501
3866,0.287943214
3867,0.277271479
3868,0.153418124
3869,0.0227238089
3870,-0.164502189
3871,-0.0798333958
3872,-0.0583058409
3873,-0.112709619
3874,-0.0696396828
3875,0.11363247
3876,-0.587900102
3877,-0.058250688
3878,-0.351395816
3879,-0.0283255428
3880,-0.00471803453
3881,0.0318619795
3882,-0.114897907
3883,0.214242652
3884,0.196622536
3885,0.0170842186
3886,0.0170663055
3887,0.00800669566
3888,-0.174758181
3889,0.0312977172
3890,-0.083096303
3891,0.0183400214
3892,-0.140032098
3893,0.0205921978
3894,0.128171742
3895,-0.293458164
3896,0.13074562
3897,0.215286687
3898,-0.231787309
3899,0.170117632
3900,-0.210104719
3901,0.0926904902
3902,0.200356007
3903,0.0129127232
3904,-0.0238727797
3905,-0.143286094
3906,-0.113982186
3907,0.0612832159
3908,-0.0630567372
3909,-0.000173336375
3910,0.185167015
3911,0.0087954374
3912,0.150445357
3913,-0.00665066997
3914,-0.134012386
3915,-0.0167577248
3916,0.3090491
3917,-0.290168613
3918,-0.170035049
3919,-0.126072481
3920,0.247837797
3921,0.0754569843
3922,0.187005654
3923,0.0754996836
3924,0.309548914
3925,0.142067328
3926,0.368492991
3927,0.412819058
3928,0.27376166
3929,0.143406555
3930,0.224316493
3931,0.311772227
3932,0.120502524
3933,0.236359239
3934,0.206219673
3935,-0.188927174
3936,-0.508055866
3937,0.12559168
3938,0.373428047
3939,0.015875753
3940,-0.0748452619
3941,-0.141209707
3942,0.0235213805
3943,-0.0524595827
3944,-0.0812444612
3945,-0.2266213
3946,0.0512875803
3947,-0.0576554239
3948,-0.103895165
3949,-0.333447814
3950,-0.150792345
3951,-0.108835757
3952,0.0132546527
3953,-0.216463432
3954,-0.168586358
3955,-0.560732901
3956,0.0265897326
3957,0.0172203165
3958,-0.0765706226
3959,-0.0358583145
3960,0.236114785
3961,0.114983596
3962,0.164002016
3963,0.180598587
3964,-0.00519171869
3965,0.0199651644
3966,-0.10629715
3967,-0.0316453241
3968,-0.0550687797
3969,-0.134530038
3970,0.0158672594
3971,-0.0708261654
3972,0.146920308
3973,-0.321968764
3974,-0.0916234851
3975,0.139621943
3976,-0.104854822
3977,-0.0537751317
3978,-0.142942011
3979,0.298806399
3980,0.0041213464
3981,0.331760943
3982,-0.0743753165
3983,0.135839507
3984,0.00836713985
3985,-0.103879154
3986,-0.524666607
3987,-0.0728355721
3988,-0.076163508
3989,-0.367973924
3990,-0.0418409817
3991,-0.175943628
3992,-0.155261442
3993,-0.274499923
3994,0.0652431771
3995,0.104656406
3996,-0.353579998
3997,-0.117469162
3998,-0.0921140537
3999,-0.256216019
4000,-0.520369053
4001,0.0536183678
4002,-0.274346977
4003,-0.132413581
4004,-0.393303335
4005,0.0121538108
4006,0.0941493586
4007,-0.308133721
4008,0.0817538202
4009,-0.172658652
4010,0.222235069
4011,-0.138152152
4012,-0.0889812931
4013,-0.0994113088
4014,-0.364308596
4015,-0.14562355
4016,-0.0651902556
4017,0.12897782
4018,0.131850347
4019,0.0482988469
4020,-0.0538157374
4021,0.0575065278
4022,-0.0360790938
4023,-0.0148680443
4024,-0.0331805572
4025,0.137349516
4026,0.132266954
4027,-0.121455044
4028,0.149586096
4029,-0.111920469
4030,0.216397882
4031,-0.20363006
4032,0.189881235
4033,-0.143602118
4034,-0.0430617966
4035,-0.342288643
4036,-0.128356695
4037,0.215125203
4038,-0.0484734252
4039,0.0771413073
4040,-0.212701008
4041,0.0649910271
4042,0.0667323768
4043,-0.0838516206
4044,0.0268830601
4045,-0.121505029
4046,0.217170358
4047,-0.220941424
4048,-0.0699862689
4049,0.00118601834
4050,-0.196999297
4051,-0.145432651
4052,-0.127414286
4053,-0.311920643
4054,0.0214097444
4055,-0.10021276
4056,-0.324086756
4057,-0.157838598
4058,-0.0800083876
4059,0.148468241
4060,0.0164947677
4061,0.041314438
4062,-0.0841219276
4063,-0.0817675218
4064,0.236320794
4065,0.12579754
4066,0.44467029
4067,-0.252952427
4068,0.283279955
4069,0.0552200228
4070,-0.039921388
4071,0.0791395903
4072,-0.11508581
4073,0.00201003975
4074,-0.0666015074
4075,-0.133017212
4076,-0.305062413
4077,-0.0513291135
4078,0.0794615373
4079,-0.045238588
4080,0.0272882283
4081,0.0057164724
4082,0.0589391515
4083,-0.00773407472
4084,0.183504358
4085,0.0176205821
4086,0.0701200813
4087,-0.163413674
4088,-0.348050565
4089,0.0510958806
4090,0.0182859395
4091,-0.523097217
4092,0.0149717275
4093,-0.103567772
4094,0.209875599
4095,0.0140156047
4096,-0.172397956
4097,0.0804699957
4098,0.227311477
4099,0.130992636
4100,-0.214324325
4101,0.048735898
4102,-0.176634058
4103,0.189635545
4104,0.0659916848
4105,0.0613224804
4106,0.0406515487
4107,0.13451615
4108,0.0721574053
4109,-0.410414696
4110,0.0828171149
4111,0.227531627
4112,0.0440884307
4113,-0.00379903405
4114,-0.0920723975
4115,-0.184066758
4116,-0.0747821406
4117,0.0597571731
4118,0.17637372
4119,-0.0437489972
4120,-0.126223147
4121,-0.259131461
4122,0.113880716
4123,0.00637573516
4124,-0.0985687822
4125,-0.0707364008
4126,-0.0536335073
4127,-0.168674722
4128,-0.00821900181
4129,0.0203631949
4130,-0.123691201
4131,0.0333558284
4132,0.217629462
4133,-0.0442771874
4134,0.00791120436
4135,0.0453004539
4136,-0.0654601157
4137,-0.256069899
4138,-0.200719774
4139,-0.245617509
4140,0.126298204
4141,0.0463569388
4142,0.0338433683
4143,0.00589538319
4144,0.0724217892
4145,0.0089580901
4146,-0.0445535406
4147,0.157167003
4148,0.136452839
4149,-0.125179678
4150,0.166868135
4151,0.0189612862
4152,-0.169314161
4153,-0.147622555
4154,-0.00447632978
4155,0.139608651
4156,-0.0346433483
4157,0.0940411538
4158,0.00748239644
4159,0.126399145
4160,-0.146571621
4161,-0.195316866
4162,-0.114891291
4163,-0.0463144109
4164,0.0133313248
4165,-0.0883986503
4166,0.0254569389
4167,-0.0683931559
4168,0.000303227687
4169,-0.126055077
4170,0.0164770894
4171,0.0815785602
4172,0.0757825077
4173,-0.0613147318
4174,-0.173072875
4175,-0.284544855
4176,-0.0138855726
4177,-0.450375676
4178,-0.000385384366
4179,0.142657503
4180,-0.0897280872
4181,-0.0783250257
4182,-0.20773688
4183,-0.00361096021
4184,0.0461929999
4185,0.0834354535
4186,0.122283533
4187,-0.0230293516
4188,-0.117479026
4189,-0.184184179
4190,0.0663978234
4191,-0.0247858018
4192,-0.036829073
4193,-0.0536817871
4194,0.0277376156
4195,-0.1121452
4196,0.160520509
4197,0.0173895042
4198,0.0293603148
4199,0.174131975
4200,0.0330057442
4201,0.205574915
4202,0.0231428072
4203,-0.14261277
4204,-0.0846114159
4205,0.036937952
4206,0.12193583
4207,-0.270070255
4208,0.115823485
4209,-0.0800212547
4210,-0.120203838
4211,0.280094177
4212,0.0203087274
4213,0.215413094
4214,-0.311889648
4215,-0.271406353
4216,-0.0265923329
4217,0.122074887
4218,-0.172833577
4219,-0.0345434807
4220,-0.21571812
4221,0.0314824507
4222,-0.160817876
4223,0.0281803831
4224,0.0829709098
4225,-0.287274659
4226,-0.165365428
4227,0.0919826031
4228,0.016472226
4229,-0.0522635095
4230,0.000199860704
4231,-0.213672668
4232,-0.00152675365
4233,-0.0744002983
4234,-0.0123767089
4235,0.134991705
4236,-0.0790589377
4237,-0.154178321
4238,0.124149315
4239,-0.0643810108
4240,-0.36253655
4241,-0.0669819489
4242,-0.282066315
4243,-0.186648503
4244,-0.0245336387
4245,-0.0823208094
4246,0.110393219
4247,-0.135964632
4248,-0.0883601159
4249,0.0662863106
4250,-0.0493973903
4251,0.310932487
4252,-0.002129097
4253,-0.210674316
4254,0.0681076497
4255,-0.0750026703
4256,-0.330202132
4257,-0.0617529862
4258,0.392562568
4259,-0.150032878
4260,0.150318056
4261,0.11652451
4262,0.166835323
4263,-0.00714283623
4264,-0.0134072471
4265,0.135419458
4266,0.0762681141
4267,-0.0956889167
4268,-0.229644746
4269,-0.0809055343
4270,-0.0192514043
4271,0.0522745438
4272,-0.181178316
4273,-0.080890581
4274,-0.0228854194
4275,0.052388519
4276,-0.136792079
4277,-0.00659848657
4278,-0.0990059599
4279,0.143913493
4280,0.0841298625
4281,-0.280839443
4282,-0.184738398
4283,0.0890523866
4284,-0.202745736
4285,-0.109081082
4286,-0.192437008
4287,0.230063424
4288,0.328500599
4289,-0.19661364
4290,-0.0748224258
4291,-0.0152482875
4292,-0.175842121
4293,-0.122815602
4294,-0.0593830049
4295,-0.299817622
4296,-0.0191787053
4297,-0.0412217565
4298,-0.269311875
4299,-0.00991908088
4300,-0.150005341
4301,-0.113233142
4302,-0.0669225007
4303,-0.0292847324
4304,-0.0145962778
4305,-0.026079379
4306,-0.0689925253
4307,-0.226089507
4308,-0.115096144
4309,-0.127571538
4310,-0.260679096
4311,-0.0847770125
4312,-0.177115649
4313,0.0285228901
4314,-0.0788169801
4315,0.0485465899
4316,-0.377266496
4317,0.00847050548
4318,-0.334746331
4319,-0.39760524
4320,-0.0241512973
4321,0.181330711
4322,0.111245722
4323,0.0147271585
4324,0.0244672075
4325,-0.145492256
4326,-0.147701547
4327,0.0903635547
4328,-0.339710772
4329,0.0631565079
4330,0.00580854248
4331,0.0210686773
4332,-0.0255624168
4333,-0.165204063
4334,0.104528785
4335,0.0281864181
4336,-0.0991427302
4337,-0.208816007
4338,0.022708904
4339,-0.0480019636
4340,-0.117320552
4341,-0.466735452
4342,-0.138426691
4343,0.0712423027
4344,-0.108304836
4345,-0.286268562
4346,-0.149310172
4347,-0.232779562
4348,-0.146357596
4349,0.0746875107
4350,-0.160284266
4351,-0.00843743887
4352,0.0236273669
4353,0.352877527
4354,0.0711889341
4355,-0.310025871
4356,-0.136134401
4357,-0.0450066254
4358,-0.0431099012
4359,0.0512312204
4360,-0.196489707
4361,0.166142449
4362,-0.0552988388
4363,0.0335581638
4364,0.127637461
4365,-0.272561789
4366,0.0345525444
4367,0.115519799
4368,-0.191806793
4369,0.0222036131
4370,-7.86623277e-05
4371,-0.00681714248
4372,0.0480225608
4373,-0.141223893
4374,-0.0781815574
4375,0.339913219
4376,-0.0917651504
4377,-0.124155596
4378,0.0203047507
4379,-0.20995678
4380,0.230967507
4381,-0.162126601
4382,0.187414542
4383,-0.522188485
4384,0.0699961036
4385,-0.0273450445
4386,-0.130329892
4387,-0.220582098
4388,-0.0640267059
4389,-0.0489561968
4390,-0.121923514
4391,0.0291595273
4392,0.0424977206
4393,-0.0361965559
4394,0.0860473365
4395,0.121564634
4396,-0.475939512
4397,-0.0190040115
4398,-0.207481682
4399,0.0246249009
4400,-0.324728727
4401,0.152778283
4402,0.205703422
4403,0.0699423701
4404,0.0755361915
4405,-0.0827503428
4406,0.0408176035
4407,-0.0733447596
4408,-0.102613941
4409,0.00278565823
4410,-0.112528063
4411,0.00126608578
4412,-0.042033352
4413,-0.142346025
4414,0.00603991514
4415,-0.171299085
4416,-0.0440875255
4417,-0.00561243156
4418,0.00584312994
4419,0.105101176
4420,-0.308073223
4421,0.119418368
4422,-0.215272829
4423,-0.100935139
4424,-0.00380637357
4425,-0.0790492222
4426,0.268454373
4427,0.0490587838
4428,-0.0155308275
4429,-0.100319952
4430,0.00103825843
4431,-0.0456629917
4432,-0.132744491
4433,-0.095570609
4434,-0.120138355
4435,-0.394504964
4436,0.0976143181
4437,-0.0390510298
4438,0.362598091
4439,-0.127014309
4440,-0.137570053
4441,0.128622308
4442,0.057700105
4443,-0.0360582508
4444,-0.14666383
4445,0.139569387
4446,0.104128465
4447,0.0255096126
4448,-0.0836809576
4449,-0.0999312624
4450,0.054779958
4451,0.0484452397
4452,-0.0114922021
4453,0.0350123271
4454,-0.115514517
4455,0.0131195504
4456,-0.0739360675
4457,0.00413196115
4458,-0.173006043
4459,0.240274876
4460,-0.250400931
4461,0.0988220572
4462,-0.0687741116
4463,-0.271443993
4464,-0.216831714
4465,0.0272915643
4466,0.222410873
4467,-0.161360592
4468,0.259985149
4469,-0.0183788016
4470,-0.168287367
4471,0.00151118229
4472,-0.218002513
4473,-0.115220122
4474,-0.275916487
4475,0.0817785934
4476,0.0150168072
4477,-0.0658515319
4478,-0.347874224
4479,0.04525185
4480,-0.272710919
4481,0.142245904
4482,-0.0723060444
4483,0.00659708772
4484,-0.103720084
4485,-0.28612414
4486,-0.137462929
4487,0.168517604
4488,0.0419356152
4489,0.287002265
4490,0.0203911457
4491,-0.100237869
4492,0.036429137
4493,-0.0938740447
4494,-0.227939427
4495,-0.0611775443
4496,0.34363699
4497,0.133236974
4498,-0.0123447841
4499,0.0163561031
4500,0.0249809884
4501,-0.113925986
4502,-0.257510066
4503,-0.0298002288
4504,0.0370920524
4505,0.204082429
4506,-0.362010658
4507,-0.0836453214
4508,0.252387226
4509,0.236508399
4510,-0.0626060516
4511,-0.106572874
4512,0.0258401837
4513,-0.175786272
4514,-0.0376459733
4515,-0.110235415
4516,0.0012098127
4517,0.0588213131
4518,0.371837676
4519,0.362967849
4520,-0.024838021
4521,-0.0697160661
4522,-0.411437154
4523,-0.155522466
4524,-0.0359073915
4525,-0.0603710227
4526,-0.127079844
4527,-0.0270814225
4528,-0.107396625
4529,0.120105185
4530,-0.294790149
4531,0.0219340902
4532,0.146931827
4533,0.304583877
4534,-0.182593033
4535,-0.127904028
4536,0.0942952856
4537,0.0547982343
4538,-0.262424886
4539,0.0490142033
4540,-0.170526654
4541,0.0608659759
4542,0.12599954
4543,-0.0452160351
4544,0.102092259
4545,0.0600765496
4546,-0.0867598429
4547,-0.214311346
4548,-0.131578311
4549,-0.101425231
4550,-0.19285132
4551,-0.0156906862
4552,0.0237523895
4553,0.0594342723
4554,-0.118450418
4555,0.025263248
4556,-0.0462287739
4557,-0.0594260953
4558,0.125377819
4559,-0.147542804
4560,-0.0188737195
4561,0.152103767
4562,-0.00386483781
4563,-0.0739000142
4564,-0.0336642303
4565,0.0421462022
4566,0.21396479
4567,-0.13742505
4568,-0.011071627
4569,-0.271026462
4570,-0.334229171
4571,0.174432188
4572,-0.155059546
4573,0.175420582
4574,0.0822737217
4575,-0.0434641205
4576,-0.0679416731
4577,0.086858727
4578,0.613338232
4579,0.0418344624
4580,-0.0428063236
4581,-0.167106628
4582,-0.175210983
4583,-0.0780500844
4584,-0.030171195
4585,-0.0744584352
4586,0.0956237242
4587,-0.102886841
4588,-0.293512017
4589,-0.344348073
4590,0.0152296824
4591,-0.401607484
4592,-0.0848108903
4593,-0.428650886
4594,0.0902827978
4595,0.00203544274
4596,-0.161092952
4597,-0.0325756669
4598,-0.201782614
4599,-0.0172792356
4600,-0.0482664444
4601,-0.183716103
4602,0.114795536
4603,-0.0233883355
4604,0.104726918
4605,-0.0698119849
4606,-0.0263807941
4607,0.0050727604
4608,0.0423930623
4609,-0.0366713814
4610,0.025517147
4611,-0.0481540971
4612,0.152960107
4613,-0.165155768
4614,-0.248263419
4615,0.132128105
4616,0.0323777832
4617,-0.0327703953
4618,-0.258372366
4619,0.145969659
4620,-0.146821558
4621,0.214404732
4622,-0.0504889712
4623,-0.0489959978
4624,-0.108608708
4625,-0.154554248
4626,-0.288172334
4627,0.243343368
4628,-0.0167734027
4629,-0.0760679245
4630,0.25304997
4631,-0.556793869
4632,0.0607010871
4633,-0.216747105
4634,0.00922709517
4635,0.327722579
4636,-0.438058645
4637,0.0776935667
4638,-0.45484522
4639,-0.288136214
4640,-0.0224398635
4641,0.0460657664
4642,0.0803222731
4643,0.0497433022
4644,-0.114686549
4645,0.107575864
4646,-0.158278331
4647,-0.0710919499
4648,-0.111471862
4649,-0.0454592034
4650,0.0681591406
4651,-0.166164085
4652,-0.0482768305
4653,0.0487742946
4654,-0.273645461
4655,-0.176408723
4656,0.00207397714
4657,0.175773293
4658,-0.00181943725
4659,-0.48403579
4660,0.141371414
4661,0.357111841
4662,0.159562901
4663,0.260522574
4664,-0.229668304
4665,0.0743779689
4666,-0.193082988
4667,-0.333676845
4668,0.0197427496
4669,0.0952457488
4670,-0.137456954
4671,-0.139374301
4672,0.170721605
4673,0.140279308
4674,-0.133655563
4675,0.21455577
4676,-0.14708747
4677,0.177986607
4678,-0.104277447
4679,-0.0538267866
4680,0.0995354205
4681,0.288586527
4682,0.152623817
4683,-0.0358169079
4684,0.121037506
4685,-0.312491536
4686,-0.122125693
4687,-0.235129714
4688,-0.426025182
4689,0.034390077
4690,-0.234411895
4691,-0.241410062
4692,-0.114115015
4693,-0.159019306
4694,-0.135052592
4695,0.132077023
4696,0.0384527594
4697,-0.214722082
4698,-0.210517943
4699,-0.159335181
4700,0.0541103706
4701,-0.0474089347
4702,-0.0116023421
4703,-0.0263692513
4704,0.0292435046
4705,0.00122158485
4706,-0.172597662
4707,-0.0895991921
4708,0.0169703607
4709,0.187308401
4710,0.0751183704
4711,0.0331521109
4712,-0.0789678618
4713,-0.105480976
4714,0.01692909
4715,0.119855143
4716,0.22164309
4717,-0.200144231
4718,0.346171856
4719,-0.0482925139
4720,-0.233219519
4721,0.0718604475
4722,0.0630826652
4723,-0.149404168
4724,0.166002601
4725,0.106454462
4726,-0.0794449523
4727,0.0377505608
4728,-0.312379301
4729,-0.0422297679
4730,0.122484729
4731,-0.458838403
4732,0.132150441
4733,-0.0387561135
4734,0.256174803
4735,0.158089593
4736,-0.194872096
4737,-0.088782683
4738,0.110149682
4739,-0.130355448
4740,-0.135178253
4741,-0.0192261245
4742,0.00433951756
4743,0.0148071041
4744,0.00344540784
4745,-0.0179540049
4746,0.858504593
4747,-0.0114005357
4748,-0.250399321
4749,-0.497331887
4750,-0.0473959558
4751,0.0374876
4752,-0.0137222754
4753,-0.0138238259
4754,-0.153791144
4755,-0.039178133
4756,-0.102546252
4757,-0.194005221
4758,0.018616451
4759,-0.128095299
4760,-0.0795727447
4761,-0.174871281
4762,-0.238298938
4763,-0.151892781
4764,0.10423851
4765,-0.074882336
4766,-0.222503439
4767,-0.00637717918
4768,0.0819081366
4769,0.0960320458
4770,-0.0231097993
4771,-0.000437102746
4772,-0.209562212
4773,-0.0439173616
4774,0.0268747993
4775,-0.065332517
4776,-0.109318465
4777,0.000993560418
4778,0.141449213
4779,0.279444188
4780,-0.212339461
4781,0.230158165
4782,0.037939135
4783,-0.0721764863
4784,-0.15197967
4785,0.0186003242
4786,0.0430608578
4787,0.000962222519
4788,-0.308118612
4789,-0.334875554
4790,-0.0592532493
4791,0.0846739709
4792,0.0988750383
4793,-0.123216905
4794,-0.0847823024
4795,-0.083378315
4796,0.00866134185
4797,0.246708736
4798,-0.316447973
4799,-0.29772383
4800,-0.188939795
4801,0.0326908231
4802,-0.0448246673
4803,-0.0224425308
4804,-0.00528480858
4805,-0.0509911962
4806,0.0545609519
4807,0.0379195213
4808,0.00565025024
4809,0.108081199
4810,0.164519459
4811,0.0205237456
4812,-0.0980098024
4813,-0.034476772
4814,-0.00687490124
4815,-0.0853044614
4816,0.0125804516
4817,-0.0630651414
4818,-0.142678604
4819,0.049907811
4820,-0.0387150384
4821,0.0198585261
4822,-0.214099273
4823,-0.0558105186
4824,0.0625433624
4825,-0.0800919011
4826,0.261325538
4827,-0.0411831699
4828,-0.247912496
4829,-0.0410222411
4830,0.0361925736
4831,0.108053118
4832,-0.149843901
4833,-0.355928093
4834,0.0783284083
4835,-0.00555704767
4836,0.101996213
4837,0.0689001307
4838,0.0345935151
4839,-0.0283821262
4840,-0.132889807
4841,-0.12121658
4842,0.127119049
4843,-0.00897227041
4844,-0.14446637
4845,-0.030282801
4846,-0.0889091715
4847,0.059832368
4848,0.0462741777
4849,-0.012334072
4850,-0.0799263269
4851,0.050314568
4852,-0.186918855
4853,-0.00666623423
4854,-0.106302522
4855,-0.126572296
4856,0.0615792312
4857,0.283798128
4858,-0.268393129
4859,0.0694598034
4860,-0.168186277
4861,0.157851532
4862,0.135944337
4863,-0.288791656
4864,0.0183784869
4865,-0.087634407
4866,-0.2301514
4867,-0.169195145
4868,-0.0343536772
4869,-0.14870283
4870,-0.00185271085
4871,-0.1125338
4872,0.151874647
4873,-0.132188559
4874,-0.070504047
4875,0.195492864
4876,-0.0570103973
4877,-0.278970122
4878,-0.12153627
4879,-0.504736662
4880,-0.280495316
4881,-0.141331092
4882,0.0013179942
4883,0.0475404449
4884,0.122633688
4885,-0.0406094976
4886,-0.186211571
4887,-0.154291987
4888,-0.022148326
4889,0.0641536489
4890,-0.226132855
4891,0.0536494553
4892,-0.0593723878
4893,0.152974933
4894,0.0236688238
4895,-0.257426441
4896,-0.174131244
4897,-0.0252053067
4898,0.155182824
4899,-0.0820691735
4900,0.0617924929
4901,-0.000253353064
4902,-0.0582155176
4903,-0.0760697871
4904,-0.156443164
4905,-0.197147146
4906,-0.285436302
4907,0.0812826157
4908,0.0364248976
4909,0.0744300187
4910,-0.166802809
4911,-0.00421072869
4912,-0.132083893
4913,-0.118803814
4914,-0.0600580312
4915,-0.110075645
4916,0.145075276
4917,-0.0682907999
4918,0.130315155
4919,0.165235311
4920,0.186994225
4921,-0.0431030057
4922,-0.132384256
4923,-0.152024314
4924,0.0735430568
4925,0.206481174
4926,-0.157960594
4927,0.0877790898
4928,-0.105783202
4929,-0.177114367
4930,0.12064606
4931,0.108628184
4932,-0.144289419
4933,0.0121099576
4934,-0.0615582727
4935,0.180228189
4936,0.00259395596
4937,0.016066812
4938,-0.266561419
4939,0.133781388
4940,0.10488975
4941,-0.252021849
4942,-0.0362761803
4943,-0.147356093
4944,-0.0191070382
4945,0.482410401
4946,0.0460519604
4947,-0.119291164
4948,0.031504415
4949,0.0843312368
4950,-0.139321387
4951,-0.0428499728
4952,-0.0641636476
4953,-0.17374526
4954,-0.178986385
4955,-0.158592522
4956,-0.0754232332
4957,-0.0517502055
4958,0.100893997
4959,-0.107140198
4960,0.227787778
4961,0.149589032
4962,-0.182201937
4963,0.145161152
4964,-0.0405501761
4965,-0.0218701046
4966,0.102903046
4967,-0.0507980399
4968,-0.064937979
4969,-0.191498145
4970,-0.1541536
4971,0.0536581166
4972,-0.0809348151
4973,-0.298128635
4974,0.141693741
4975,0.155822888
4976,-0.0822893381
4977,-0.180169046
4978,-0.00502688251
4979,0.109394372
4980,-0.138018087
4981,-0.233713046
4982,-0.219054163
4983,0.0560088344
4984,-0.187285066
4985,-0.0390706249
4986,0.00152550044
4987,0.0162756201
4988,-0.078622736
4989,0.0473986641
4990,-0.0331235118
4991,-0.102571659
4992,-0.111929491
4993,0.0263081063
4994,0.00961834844
4995,-0.143779889
4996,0.0876455233
4997,-0.0422793217
4998,0.142773673
4999,-0.0860937908
5000,-0.148779586
5001,-0.109875202
5002,-0.0778277442
5003,-0.150765181
5004,-0.0869967937
5005,-0.194111675
5006,-0.181158677
5007,-0.131236121
5008,0.177604675
5009,0.16137512
5010,-0.134269714
5011,0.0112777939
5012,0.0303452108
5013,0.068474263
5014,-0.0717713162
5015,-0.108193606
5016,-0.0287999865
5017,-0.179733023
5018,0.184604496
5019,-0.15158239
5020,0.15356572
5021,-0.0871845037
5022,-0.48813957
5023,0.0747862905
5024,-0.000373888761
5025,0.104240812
5026,0.143809929
5027,0.0660025477
5028,0.0793790221
5029,-0.102690414
5030,-0.224347755
5031,-0.287032366
5032,0.0769202039
5033,0.0522944741
5034,-0.135509789
5035,-0.109818578
5036,-0.0627261549
5037,0.165171012
5038,0.397160619
5039,0.150775328
5040,-0.261134386
5041,-0.00321324891
5042,0.296425372
5043,-0.154467925
5044,0.00293396786
5045,-0.0956828594
5046,0.140214667
5047,-0.186352566
5048,-0.22574766
5049,-0.0166495815
5050,-0.072789304
5051,-0.0907730982
5052,0.0333208367
5053,-0.22950694
5054,0.189404756
5055,-0.0258830953
5056,0.0893567875
5057,-0.153756097
5058,-0.180276424
5059,-0.301890135
5060,-0.0835140273
5061,-0.061879389
5062,-0.0964582786
5063,0.0149854543
5064,0.00832013786
5065,-0.0183363985
5066,0.244572416
5067,-0.183324948
5068,-0.0540947318
5069,-0.079813309
5070,-0.00689036353
5071,-0.133479133
5072,0.0130137224
5073,-0.286910743
5074,-0.19333072
5075,-0.020231612
5076,0.015784394
5077,-0.1898752
5078,-0.0376786999
5079,-0.307340235
5080,-0.301133394
5081,-0.118289739
5082,0.28415367
5083,-0.0136692459
5084,-0.0231741145
5085,-0.14909701
5086,0.0482258126
5087,-0.134034887
5088,0.0128124785
5089,-0.0566288866
5090,-0.158069447
5091,0.000108433596
5092,0.0992200375
5093,-0.0593648106
5094,0.132581711
5095,0.103246257
5096,-0.0962147266
5097,-0.01654098
5098,-0.180160612
5099,-0.125248984
5100,0.0623171367
5101,0.0352277532
5102,0.0738714188
5103,-0.0173096098
5104,-0.369491756
5105,-0.0708636716
5106,-0.330488324
5107,0.0800604895
5108,0.238542214
5109,0.0554468744
5110,-0.0834698007
5111,-0.176019549
5112,-0.118276685
5113,0.173717946
5114,-0.497280031
5115,-0.0475361869
5116,-0.170087412
5117,-0.0337165259
5118,-0.0443093553
5119,-0.09200003
5120,-0.167351007
5121,-0.0872347206
5122,0.115726575
5123,0.0709285587
5124,0.331299096
5125,-0.140107974
5126,0.37402156
5127,0.225651175
5128,-0.358688325
5129,-0.0755166039
5130,0.320831269
5131,0.4094356
5132,0.191838652
5133,-0.382612735
5134,-0.131612375
5135,0.0851025432
5136,0.204729915
5137,0.132682621
5138,0.0809127912
5139,-0.293258011
5140,-0.117496669
5141,-0.0469069704
5142,0.0937629789
5143,-0.0537495054
5144,0.0241684988
5145,0.219737634
5146,0.209033415
5147,0.266565442
5148,0.282092839
5149,-0.202210397
5150,0.119129866
5151,-0.00646551186
5152,-0.212480024
5153,-0.00232167658
5154,-0.065295957
5155,-0.243391991
5156,-0.07544709
5157,0.0760244653
5158,-0.471077144
5159,-0.309432387
5160,-0.146456882
5161,0.0104311425
5162,-0.272090942
5163,-0.166880175
5164,-0.33412078
5165,-0.0077242218
5166,-0.0907731056
5167,-0.16696243
5168,-0.0807645619
5169,-0.084800534
5170,-0.0805444121
5171,-0.102919996
5172,0.0354533903
5173,-0.136603862
5174,-0.244605973
5175,0.0930558071
5176,-0.115681484
5177,-0.00353511074
5178,-0.223235771
5179,-0.217652768
5180,-0.0141076343
5181,-0.157456934
5182,-0.0656157061
5183,0.0385523848
5184,-0.172252759
5185,0.175513819
5186,0.122321539
5187,-0.15092802
5188,-0.0544239357
5189,0.0647228658
5190,-0.0942444205
5191,0.0793455318
5192,-0.0670539215
5193,-0.119631447
5194,0.0485561639
5195,-0.0539657623
5196,-0.00456135301
5197,0.293600976
5198,-0.115060389
5199,-0.236767784
5200,0.00491766632
5201,0.128528744
5202,-0.141984418
5203,-0.129467651
5204,0.0768969655
5205,-0.221038282
5206,0.446835279
5207,0.115461692
5208,0.326076925
5209,0.56645
5210,0.322453141
5211,0.098846145
5212,-0.0516448207
5213,-0.10210152
5214,-0.0590004921
5215,0.18825011
5216,-0.0714270175
5217,-0.339275479
5218,0.318472922
5219,0.0197526682
5220,0.278327227
5221,-0.254048735
5222,-0.158088446
5223,-0.252415001
5224,-0.0202316325
5225,-0.14907369
5226,0.140644804
5227,-0.0723414347
5228,-0.244644672
5229,0.117738992
5230,-0.05356507
5231,-0.0458569936
5232,0.0433737375
5233,-0.356619447
5234,0.121863686
5235,-0.0748670623
5236,-0.0994803235
5237,-0.106164716
5238,0.106079817
5239,-0.353565812
5240,0.092974171
5241,0.0714606345
5242,0.341023415
5243,0.144980624
5244,0.0960951969
5245,-0.204306483
5246,-0.0125555824
5247,-0.160492465
5248,0.0767525136
5249,-0.0485644564
5250,-0.203280613
5251,-0.0355554
5252,0.138667271
5253,-0.234802917
5254,-0.00263033691
5255,0.112773485
5256,-0.123978913
5257,-0.0705589429
5258,0.0431219526
5259,0.167636141
5260,-0.0908148661
5261,-0.134917542
5262,-0.0200490318
5263,-0.252034277
5264,-0.128114089
5265,0.158884719
5266,0.0852881595
5267,0.0759505257
5268,-0.039121259
5269,0.108930439
5270,-0.719635844
5271,-0.195764646
5272,0.136379361
5273,-0.28303501
5274,-0.0168422461
5275,0.122032657
5276,-0.130643144
5277,0.155759528
5278,-0.0973968729
5279,-0.0723466128
5280,0.100236714
5281,-0.148793995
5282,-0.0689401329
5283,-0.298526376
5284,0.0656964406
5285,-0.198078349
5286,-0.165915653
5287,0.0602427162
5288,-0.151394039
5289,0.0638311431
5290,0.0531641021
5291,-0.251876444
5292,-0.0813184828
5293,-0.0672260746
5294,-0.13685599
5295,0.0206310134
5296,0.0454458669
5297,-0.121895909
5298,0.145853311
5299,-0.0950154066
5300,0.307271242
5301,0.0428062752
5302,0.0927247331
5303,0.126236647
5304,-0.113651767
5305,-0.0551340841
5306,0.150685415
5307,-0.342990726
5308,-0.00542174606
5309,-0.219617799
5310,-0.143079087
5311,-0.117907964
5312,-0.165144131
5313,0.0142763499
5314,-0.264257312
5315,-0.0801848918
5316,0.0496097058
5317,0.0106221912
5318,-0.30987075
5319,-0.175358325
5320,0.0393338762
5321,-0.0820552483
5322,-0.342287481
5323,0.0561189577
5324,0.0952664316
5325,-0.204590157
5326,0.0210207272
5327,-0.117213517
5328,-0.0917448625
5329,-0.120617047
5330,-0.365195453
5331,0.0460824929
5332,-0.0561237298
5333,-0.513614833
5334,-0.204112858
5335,-0.0948315635
5336,0.219782233
5337,-0.387268811
5338,0.286569327
5339,-0.134077281
5340,-0.0717499256
5341,-0.0445617959
5342,0.0818765238
5343,-0.021563217
5344,0.185674056
5345,0.0796541348
5346,0.439270437
5347,0.172665447
5348,0.000880572828
5349,-0.256993204
5350,0.0721796229
5351,0.0212747697
5352,0.0653113425
5353,0.11078801
5354,-0.0485167839
5355,0.049706798
5356,0.00890631601
5357,-0.0319349654
5358,-0.00217928924
5359,-0.382902622
5360,0.0425003618
5361,-0.0422317572
5362,-0.224786863
5363,0.0350211598
5364,-0.0708985627
5365,0.10817834
5366,-0.0562856197
5367,-0.120021887
5368,0.232463822
5369,-0.227914318
5370,0.0620227717
5371,-0.09240444
5372,0.119462505
5373,-0.0233117044
5374,-0.131710723
5375,0.0633154586
5376,-0.109777428
5377,-0.0534979366
5378,-0.182214037
5379,0.282060266
5380,-0.0528268516
5381,-0.0513503589
5382,0.00787049811
5383,0.150488928
5384,0.0422769301
5385,0.0948543474
5386,-0.113842987
5387,-0.0155899432
5388,-0.033319734
5389,0.180245966
5390,0.0811083391
5391,0.34417063
5392,-0.24154833
5393,0.0342462696
5394,-0.017778581
5395,0.0714783892
5396,0.00569736492
5397,-0.10457889
5398,0.129433706
5399,0.0775217488
5400,0.167399406
5401,-0.181414187
5402,0.16256921
5403,-0.0175517034
5404,-0.0390265435
5405,-0.216828302
5406,-0.0256082546
5407,-0.408069849
5408,-0.0520401113
5409,-0.291067719
5410,-0.0701163933
5411,0.00060653023
5412,-0.190261483
5413,-0.232347116
5414,-0.232311159
5415,-0.289318204
5416,-0.095535472
5417,-0.262163639
5418,-0.195085749
5419,-0.275365829
5420,-0.0138543379
5421,0.136364445
5422,-0.0564259365
5423,-0.0733082369
5424,0.127776638
5425,0.0393236428
5426,-0.00146659196
5427,0.0131833218
5428,-0.246452883
5429,-0.167556494
5430,0.0174156856
5431,0.0432818234
5432,-0.0115294568
5433,0.0391742177
5434,0.0418950208
5435,0.193894014
5436,-0.0268637445
5437,0.0446005426
5438,-0.142796189
5439,0.0896691382
5440,0.0190678351
5441,-0.0783288032
5442,0.0293475688
5443,-0.0112568559
5444,-0.00958622806
5445,-0.0406128503
5446,0.0342008881
5447,0.207651123
5448,-0.112105161
5449,-0.0394787006
5450,0.0952485502
5451,0.0400311165
5452,-0.280090839
5453,0.000530205725
5454,0.0775171667
5455,0.00684946589
5456,-0.0447034016
5457,-0.162499145
5458,-0.101231106
5459,0.0517554656
5460,-0.00171883055
5461,-0.208558723
5462,-0.0618370995
5463,-0.0569050536
5464,-0.0237593334
5465,0.0900368243
5466,-0.112585455
5467,0.037329305
5468,-0.208385125
5469,0.199351147
5470,0.107194908
5471,-0.181860968
5472,-0.0828586593
5473,-0.0258660689
5474,-0.0644129887
5475,0.0428571552
5476,0.0159110818
5477,0.0971075073
5478,0.169975176
5479,0.105348639
5480,0.0162814502
5481,-0.0882021785
5482,0.171168908
5483,-0.066412434
5484,-0.0115070026
5485,-0.239483804
5486,0.0824402645
5487,0.148889199
5488,0.020746639
5489,-0.1167138
5490,-0.291743696
5491,0.106938727
5492,-0.115340903
5493,0.0586640276
5494,0.0205400884
5495,-0.105844736
5496,-0.16031681
5497,0.117285945
5498,-0.322758764
5499,-0.0457893275
5500,-0.113858692
5501,-0.152146518
5502,-0.212375864
5503,-0.140069216
5504,-0.0660798103
5505,0.0837215036
5506,0.106190354
5507,0.189410061
5508,-0.160464302
5509,0.188521311
5510,-0.044340305
5511,-0.162243545
5512,-0.102676339
5513,-0.138697892
5514,-0.151457012
5515,0.0454179682
5516,-0.103174485
5517,0.0188504066
5518,-0.045800887
5519,0.0710845664
5520,-0.338347137
5521,-0.178095222
5522,0.102895461
5523,-0.0570775867
5524,-0.00749283843
5525,-0.167142183
5526,-0.118582912
5527,0.0553849265
5528,-0.0931291729
5529,-0.198728502
5530,-0.114884086
5531,-0.0279018562
5532,-0.0505647138
5533,-0.228375375
5534,-0.154493526
5535,-0.115861677
5536,-0.0269708168
5537,-0.238607809
5538,0.108506277
5539,-0.0459176674
5540,0.0477028117
5541,0.192829639
5542,0.102610901
5543,0.00509159546
5544,-0.14524734
5545,0.286881477
5546,0.15513131
5547,-0.16729714
5548,-0.220169917
5549,-0.294883579
5550,-0.0678963065
5551,0.152640715
5552,0.00261072582
5553,0.0346013643
5554,-0.116692007
5555,0.0198751464
5556,-0.0362488478
5557,0.0517893173
5558,-0.0556935854
5559,0.154073343
5560,0.0931164026
5561,0.0295489244
5562,0.0511049628
5563,-0.148571461
5564,0.02431136
5565,0.0120967161
5566,-0.190422356
5567,-0.0498953499
5568,0.250196964
5569,-0.0385763347
5570,-0.0206870884
5571,-0.172139466
5572,-0.0535201281
5573,-0.132763147
5574,0.106529087
5575,-0.0147181638
5576,-0.048338145
5577,0.24867335
5578,-0.263800502
5579,-0.0408943444
5580,-0.213505253
5581,-0.100715026
5582,0.031993594
5583,0.0917032734
5584,0.0785528943
5585,-0.15824011
5586,0.0677097216
5587,-0.381532222
5588,0.140120119
5589,-0.0905852243
5590,-0.0883034095
5591,0.0509824306
5592,-0.0726482645
5593,0.133974567
5594,-0.0632089376
5595,-0.106856398
5596,-0.205808848
5597,-0.183456779
5598,-0.190787569
5599,-0.0590017289
5600,0.0212022215
5601,-0.088152349
5602,0.0657375827
5603,0.0205010027
5604,-0.0500830784
5605,-0.170756996
